0.32976278663354025 -0.43056486464659655 -0.8110756521519907 0.5365296731389287 0.07556047056430604 0.05128640833155337 -0.8811466756021946 -0.32103907515700936 1.2475052139087566 0.0319384247791451 1.0471489371810874 -0.43384106415998436 -2.0374763824909192 -1.5739276988902344 0.9109906286509302 0.35265478560387764 -1.858938683918302 1.508819010713647 -0.4927405328429801 0.043914528113339284 -0.9210007631845228 -0.7499505712914087 2.2072663419487455 0.25834774605559746 -1.5247156636826762 1.2842279304169528 -0.8254262489607994 2.682131097721401 -1.1460653892914674 0.005577813780085485 -0.0628220933356244 -0.3826106563429302 
1.2318351430954182 -0.05427503663783838 -1.1122396555161698 -0.012484044257359583 -1.9766788462087912 -0.4367834030638027 0.1960283356111539 0.06970838478920477 -2.097829316706215 -0.8308937427888595 -0.873568539298562 0.29444861191190946 0.746284566202117 -0.7715702262895873 0.5746020312632218 0.3677698157316488 0.8330898602903621 1.0409433891625726 0.9671566862978297 -1.1651804439570455 0.5499774593901601 -1.5016489034543061 0.3397656221666909 0.30795803474175415 -0.2569200826227551 -2.0207989414397383 2.273835058465695 -1.494676965799843 -1.647502099322558 -2.1856080523005263 -0.8154987444149688 -0.12404974283583935 
-0.6076224314324424 0.5884401990187871 -1.0073379401420268 -0.05313315236674045 -1.1433604565146396 0.39265665743319605 -1.214035068998442 1.0040301482704297 1.5579669783814678 -1.1207599112247653 1.4233275531213572 0.5845282878139417 0.15673560041967766 0.39477161734393124 0.800385281913163 0.41182116012005465 -0.20759835440164012 -0.89111742805063 -0.1119287324207759 -1.4873955549260103 0.05916451619106049 -1.557055174449823 0.05517903225927745 1.4053168341305124 -0.16926449627080567 -0.22507916259479754 0.22461276104782402 -0.8504672434825359 -0.35154949134591656 -0.8604159717580495 0.31280321654699017 -0.01489611624277572 
0.3325984571108245 -0.011420953138215407 -1.3765058910225318 0.3514736530483522 -1.285568689876219 1.0983307408208909 1.274157932060762 -0.005451189723957069 -1.0048205168122821 0.8472911617855785 -1.2481828759032476 -1.9326775404714533 -1.3816479986157206 -0.2893732967906007 -0.8259629223642114 -0.5837885145804976 -1.7135771528514576 -2.0071359461790412 1.8117489481694713 0.32162787105489005 -0.7232448459130572 -0.5436465330524122 -0.4249122796365454 0.283198858484799 0.18417699332491533 -0.19066824894955223 -0.7676704563659771 -1.3928331330910324 -0.2550358443639222 -0.2981671759732803 0.3257133760283404 -2.699435602329544 
-0.287842783327064 0.12692953887718053 1.1670423495818363 1.0688845954617823 -0.7743648756747086 -0.7624932275696659 1.0091734482564123 -1.0581605116110788 -0.5777427627283366 -0.13790300761125807 -0.4525740505210329 -1.0828835377387334 -0.9201612443986266 -0.10822351950541029 -1.502293056788466 -1.1014137060119251 -0.6125960529888556 1.0906919316767152 -1.2468642258900364 -1.028866710207758 -1.1563366909009 0.4526207198251885 -0.5058539636395534 -0.07826599027163068 -0.7182821325502137 0.84176743744765 0.5443606573824089 1.882966648187288 0.12283630095087862 -0.6013873156620713 -1.9476049131345776 0.875832191122679 
-1.261060686258071 0.46268238590565147 0.13729973995477734 -1.0483558043195367 -0.17578220076925202 0.09738650581285 0.2572213063121362 -1.9445164039831622 -0.9426336726769573 0.07082239205225077 -2.0968695263305155 -0.06632903517268038 -0.9450879431009265 -0.23667161895194264 -0.9946644688275476 0.08216468582409421 1.3243186791669 1.635402519758888 0.17134028965698922 1.0279327635264799 0.33528827605509354 1.648832228915058 0.6521540658430108 -2.1364739360086724 0.7416752560945854 1.3274767089827435 -0.5311320197095172 -0.41747338662023065 -2.009409737002866 -1.4344326652109256 1.1905406922008859 -0.1753056642912163 
0.15350540688960299 -1.0716627538113475 -0.9474832746613165 -0.19108733839028563 0.22008407113881495 1.2397149262582623 -0.5309690494516673 0.28812707501205087 0.8105389096279774 0.38596543547808637 0.05130557621733113 0.36987091170030223 -0.39248652214948615 -0.0713799795366077 0.01808743320537201 -0.1933103744321169 0.4407335921798075 0.2673367194691568 0.5089881848791151 -0.09426394443318756 -0.9706097657889906 -0.05626483325336578 2.1091526244791114 0.05758696615492928 -0.8045251790401998 -1.061288217412509 1.9606604580387694 0.4152089588204443 0.6577932135040914 0.18618961829460978 0.3189593934661631 -0.10943794616066639 
0.4655704899156245 -0.7944126964830566 0.3250271210168653 1.0554065663023573 -1.2339498743114998 -0.9518180118352495 0.44412562647974463 -1.1640315846476121 -0.8830242744812633 -0.6790349925482965 -0.08283259980477942 -1.0053366262870003 0.15257188364658555 0.204903648566474 -0.5595403154645088 -0.2937762743244532 -0.27844402717175504 -0.31161667003700905 -2.5994859423362455 0.5206410109341972 0.6822302277430892 -0.8114993102879698 0.210994331035676 -1.1401879595812496 0.7593433374208202 0.13931889346548434 -0.3558303632697966 -0.6639853103923621 -0.7527323311939832 -0.15261908134689095 0.18561332288502075 -1.4464299876471223 
-0.8457270337424224 -0.4820501720346115 -0.1997832875139692 -0.16003748770090234 0.23044642882495592 0.09861377703217655 0.7285036147689997 -0.5896540601808034 -0.10124047155971763 0.5028886630515548 -0.25760218087736897 -1.040672125845447 2.221777922344082 0.09140828513995003 -0.2782802344595635 0.4224374880373841 -0.8545608204003047 -0.03715140236618334 0.4790418981464656 0.19600912475475915 -0.8195111720945067 -1.6449847483563291 0.5764293392786222 -1.086088667004366 0.6868220779611899 0.8991341481906466 -0.9021665378735019 0.12468343110931203 -1.415478013020894 -1.9476296779441673 -0.5878425557598588 -1.0586835262793417 
1.0882750286606018 0.5670412118583443 -0.7578389156977884 1.2462867776521231 -0.4268080316545763 0.2562716640490983 -0.9703885774363976 0.5726791540194436 -2.249200738496905 0.9862399701962563 1.4491295721900428 0.900493070915013 0.7292554966137001 0.5808007584119481 -1.3795430041998826 -1.1318191336790753 -0.06129805858140018 0.029944655538993743 -0.7673515376484527 2.301201553606033 -1.7555444349271374 -0.803583856602206 -0.702505810380171 0.1807204521727748 -0.941737976457582 0.5071045300281907 -1.9188534864598938 -1.1877447151256808 0.6766888644575211 -0.8755878269130764 0.9483690039464346 -0.9921278980091218 
0.4429795432250991 -2.0284300499463455 0.3573632158873882 -0.1513331201072783 0.639439446090624 1.616482443217637 -1.5544903256628777 -0.10119834346987631 -0.235067549437633 0.011437649116187132 0.2962355299778383 0.4166808816244479 1.5105896414531377 0.703152937014204 1.382643445683756 -2.398996462706375 -0.8313652583890552 1.3684228359571988 0.5030419366241133 0.9015594476259979 -0.6123524101259946 0.6004684561673366 -1.2020239032684426 -0.26249400826095487 0.08205018204242272 0.7340535789280971 0.4674486298516663 0.6315760635077751 -0.38825722451976863 0.4733247185493366 -0.141852930632116 -0.38365899959025035 
-0.7452279249809856 -1.0121399795136576 -1.3109542775194183 0.13176974432435132 -0.18437594880587269 0.9592973031320882 0.16888196449990897 -0.4856326506659848 1.2569550636152573 -0.5218587484680812 -2.008380187274452 0.9586975934488912 1.4270994257556988 -0.7042438496221443 -1.2521314837895423 -0.6381885018625296 0.6789605445195535 -0.744987017660053 0.010467253791386884 -2.3025902450190294 0.5516904009375331 1.2924367796117764 0.8524040406706267 -0.2434510367362632 0.05101919448157597 -0.06562992053124861 -0.1402717876008496 0.39905486725310174 -0.6184847040766299 -0.029724911768702563 -0.48282946659940806 0.05750549629277257 
-0.5560749300106244 -0.5003749182874782 1.3069827427081426 0.7901744767264333 0.3891957977819404 0.847746789101964 2.6894519151457366 -0.09508049100176137 -1.8914676619393973 1.4390832262272746 -0.13456919985854943 1.2928799626766987 0.42274751737459276 -1.7442192150445688 -1.8148869997122543 0.9743350054827647 1.8514873922127353 -1.786324372505211 -1.7278731240157381 0.634292385359261 0.8482097299872239 -1.7437877959694523 -0.031814733650904606 0.508828064748508 -2.0337408266523833 -2.6334210259577753 -0.8922550806837752 0.2909943643409445 0.5603665615077194 -0.9505647436523037 -0.587469568362298 -0.7031399160100701 
-1.6487983420625876 0.5628723188118797 0.22059432323016814 0.3785569984031746 -0.4952532688807453 -1.6979510472590849 -1.2304811617346572 -0.5353138394469114 0.859282402568731 0.9079522089240892 1.0847872149869222 0.5295145511225194 -1.1240436663512834 -0.4532298153107307 -1.750223121215031 -0.235857210463767 0.18265080861197242 -0.6647584011324322 0.19125689156615586 0.9801766665998836 -1.1978047453114777 -1.6165705260343513 -0.6500975213241197 0.3693448936194768 0.45854485001401196 -0.6199413007465612 -0.33998775287488076 -2.009774414047055 -0.6205454647863311 0.08893474328685981 -0.6478920698851127 0.22470243205679077 
1.0283399776322932 0.26508190671280796 0.08147637015094462 1.8570838124746014 0.7095175762070673 -2.389797937221826 -2.064072278749397 -0.2774844703970785 1.007556616425963 -1.4733040919325138 -0.6941941619388405 0.09935045046074864 0.14094110888428785 1.590663487587176 0.3286270424787633 2.029934836002991 -2.220930505245766 1.2371650875648312 0.12704513478161963 -2.8311701414758983 0.3434680967463264 -0.3543843168905263 0.9566952693280185 -0.38415093161371827 -0.0896399205223117 1.3133960658638417 -0.5832469907066375 0.9507488637037462 1.0553329442711545 -0.06617670156471549 0.7539071834389063 0.03828610261232488 
-0.08289446010604383 0.869597861555959 0.5590685316068096 -0.3025230788984802 0.04104071232729397 0.7095011365072056 -0.07518986293988035 0.09407277802919305 -0.8922656057992869 0.340307611264378 -1.6529362583835796 -1.6533570389461842 1.5050757429096484 0.23452531880728184 -0.01387499198012377 -0.2184688984534086 -0.08244842638535024 -2.261602483499565 1.106073439392971 -0.11637945005937787 -0.04001134165779737 0.4720083537463521 0.2991242588520406 0.9006870558906804 -0.6351285701539179 0.3826608138792918 -0.5938945157598327 0.6281362830558894 -0.9583686179460108 -1.1074593024490766 -0.728109500272228 -0.15121659001315252 
0.647584425155375 -0.1207775951394116 0.9939300442653219 0.46813724246876337 -0.5655096760402449 -0.8084751886093119 -0.8691776519887475 -0.9668618917860627 0.3262106662046567 0.3554832475434507 0.710434725206525 -0.17765455566164226 0.04758101485736517 1.3297847211678364 -0.49487903260848853 0.6564541762942084 0.7703154855807274 0.015349281675318197 0.2545224930118648 -0.9826712358487332 0.23547388275647657 -0.32426900389624413 0.32693854761999697 0.0202267774367218 0.8077217365925596 0.49786758397244363 0.1734919398390343 -0.016139348545915026 -1.8592229873947237 0.6756708130146943 -0.06573085397975197 -0.11789477687048738 
1.0104875248478924 0.5553079857540377 0.32894927061113965 -0.6122342839918503 -0.5876441304897958 1.594666979348519 0.07496016679962851 -1.488463952166898 0.07267379842047116 0.7866728028115223 0.5472989872657084 -2.279729754975483 -0.13947429684884266 -0.3662488280907908 -2.45344210440455 0.7313554437620757 -0.24902047233906563 0.6552211361373029 0.3812752297487891 -0.6440441382186827 -1.0313556307324032 0.11200852556057779 -0.8936168069606315 -0.18306006447153628 1.9212103471884021 1.6570948346980776 0.6604966951320396 0.17662809599831253 -0.3336762257685912 0.5918935956792167 -0.09715394122432808 0.8978803275008569 
-0.0851774648136172 -0.08184545531735839 0.20568983329475674 1.1156264331853156 -1.177951570374054 0.7882288974135465 -0.5939914672570744 -1.2573655155018828 0.7584312615840747 0.6139549113483662 -1.1426339256207503 0.741072392034714 -0.41145360519999635 -2.5866757320943363 0.6291347301421529 0.1563561883036008 0.5856773478012702 -1.4855187048627947 -1.7654128788716208 0.009828638330404845 2.562289824891803 -0.9805597088978518 0.6934852591427346 -0.17858677230002679 0.68504566499772 -2.1414288536278474 0.6911791450582514 0.11347765663469173 0.4114927149641615 -0.6641712725490545 -0.2228425100458448 -0.6316528532930846 
0.11591324838711932 0.10805029962728017 -0.34389630221757156 -0.27724420641822967 0.5171853569061041 0.5622190692705927 -0.37257637284112227 0.3971881851610029 -0.14005169263499997 -1.5001924868900884 0.4966080657950322 0.3196938102759096 1.4046782513947915 -0.31870895604765065 0.23685715469840837 -2.3595276150011744 0.6794429254656559 -0.5569085939344037 -1.3253330592135295 -0.13773640130239378 0.3632459359605143 0.9875364862899795 1.4598523025729984 -1.6738986263945572 -2.0793608012369975 0.46963018379497196 -1.336839635606551 -1.417319558612243 -1.5641043444372142 0.37006902812491327 0.9107915134679735 -1.2341721202849032 
1.0598774298160785 1.3139508521557828 0.28360200440708827 0.46117231703564565 -0.7306473654241998 -0.5232722366871132 0.9699026616381352 0.13815014802787798 -0.5150872270669348 -1.7421930426527137 1.152812040336297 -0.8717545796816752 0.6604051246218721 -0.3124501785629686 -0.2376900361958182 -0.8169667910531084 -0.3056066369445485 0.8239803335566126 0.4862762493300245 0.09160373734043717 -0.1867457501732 0.8375070972827171 1.1785994854689983 1.5669302948024701 0.980688146078439 0.8023853764222679 0.557063137210623 -1.2324577315011742 0.1290663335096947 0.48314259630838996 -1.5651528763445328 1.0309020707715786 
0.24606772566040222 0.8143925163708343 0.8789474941465558 -0.06450396264429564 0.11631754363263018 -1.161127919774158 -0.3501487827112132 -1.4647223358015722 0.13741311990608995 0.2272513194091177 0.4284301725075764 -0.7372873339972632 -1.208546256121112 -1.7174473773490433 1.234477561967616 1.308009086402633 -1.4875807892609823 -0.1048046482543189 -0.06265517262977818 1.0814787290430354 1.9344408921743577 0.4627303211529197 -0.3401145286507259 -0.3867310292835722 -0.7662246193162823 0.45735163154884334 1.7038563735389536 -1.2425768810298834 1.3353623120429683 -0.8195134098063397 1.2149994455980522 1.3549420770717646 
-0.38642512545365687 0.36503984511566545 -0.08875551447676604 -0.7931170066466392 0.7287789791463906 -1.4932832988249733 1.089921085604658 0.3361340538114366 -0.7675577156408171 -0.07531038659479616 0.733206711811775 0.46799688127036393 2.813567389300199 0.410523443083293 0.1369103311003017 -1.0753236571289555 0.749749468402473 -1.099338895777283 -1.2313775702587804 -0.18183633337546876 2.4245877320459237 0.4785048086072209 0.03211060335398073 -0.4528974673981742 0.14938861889627297 -1.8859038713879737 1.1855778586570833 0.7401404379214561 -1.0713654373864658 1.5916348566606897 -2.4001003526271094 -0.5297707768338265 
-0.47718107434676976 -0.0769191610940151 -1.1988338029517476 -0.6024619038832928 -1.0930024296294154 1.867532334283075 0.2624783808438096 0.3255088241878454 0.017511345769462727 -0.9830616045651396 0.04168162828250647 -0.56519753472539 -0.9840970898315238 -0.06641034809160001 1.7785654961158426 0.05747688539584258 0.09085332253422172 -1.6094204868425672 0.603112743988822 1.778282519905606 -0.5967154999591205 0.5335098617664592 1.250731645863583 1.1748454141222722 -0.6052609178968306 0.027214352240700356 2.0067247286525327 -0.39882910038080327 0.627068205252246 1.3474733527730096 0.009534021591249811 -0.4306518008821543 
-0.07904772529904583 -0.35633992605907344 0.4769088827699751 0.4371812879248907 -0.5415414195341441 0.5875918307872441 -0.8679799582319847 -0.0837115707686109 0.6684128299328966 0.15416415790905047 0.7657969016778792 0.2059675893278154 0.2358256237891321 -2.3386247871308354 -0.17120051381371376 1.005856026908778 0.186480309982842 -0.9460119142645294 -1.3585920911092686 -0.13855233893844765 -0.8482760204061582 0.1752544620491868 0.22010894639665685 -0.2842331709753523 -0.4449167846641112 -1.171242217034433 -0.44297298367244514 0.7251334742443745 0.7598729492098827 1.4022403759250028 0.1429885206167391 -0.7190088634795921 
1.4619174483018211 -1.1715808121819469 0.1776711303010438 0.8394649593937988 0.4814737810769767 0.8010304428924252 0.3802532011463905 -0.0596168000064414 0.2618837565903911 -0.8838274302743507 1.200803253392552 -0.8220848561822798 1.5806708918534298 -2.0350410128752103 -0.7420141052898137 -0.82727082266689 0.5527654490318289 1.64864600208064 1.534489781588592 0.6640197803543362 -0.6507169326617747 0.5656064974488296 -0.3450898071255389 -0.2162003165322253 -0.8569798895257261 0.18119190693516607 0.16927690005107277 1.1833585213079785 0.7050064729116894 0.2826923840230307 -0.403545676267064 1.5677531009912287 
1.232333356952158 0.9331965602343539 0.6476858091477977 2.1556801387468183 -2.0527166976975835 1.0390667387984147 0.4073918700162895 0.9016144001235199 -0.47290439217617847 2.565851128978942 -0.555632104877262 2.464293025877084 0.5475448102271097 1.8202877877740475 0.7902386268696932 0.4404418795905757 1.1554030254988819 0.934398034768795 -1.0384296686485808 0.4825887526941608 -1.6659742950193108 -0.2549666426263269 1.4271485842821923 0.7273350920170353 0.5938185479752264 0.6023099287135643 -0.9334633481920948 -0.5534944812083884 -0.0037676125431212707 -0.5446651015972931 1.2519668142484477 0.5519282544586096 
0.9198612294352833 -0.7643163558707513 -0.02578060074372187 -0.3407363038377494 0.8021224975629125 1.1480224854834156 2.0409746232860457 0.2499629481705408 -1.7089778032958167 -0.5874932578452914 -2.2932419090042595 -1.427924543477532 -0.5585746270459272 -1.6178865747377658 0.18812226143948627 -1.2257171433108915 -0.6711175946960923 0.13429953687881485 -0.36372507036851875 0.4219423035110456 0.7787160165056832 -0.6352716138803755 0.6346635994385106 -0.8413408464300922 -0.3765332947713164 -0.7776962538570594 -1.1234654604883358 0.5432461593122324 -0.13600460899520747 -0.28108709566470963 0.35886730767933006 -1.1959977070581422 
0.6644339517237773 -0.49230548342126546 0.7215447013846198 -0.3244407396597822 -0.18631360518092976 -0.5040353209727191 0.043387769964415804 -0.43355449068425 -2.3137224904890314 -0.5311174341487611 1.717013307970092 0.4248967950585566 -0.3137827910620546 -1.6629353536198581 0.8162036526547078 -0.22445220200857421 0.46938277515937527 -0.5408889626883273 0.5692363045139557 1.3006469811045325 0.7317010802899053 0.9487644278090225 0.6536283527348384 -0.5602352329373222 -0.35469777022417454 -0.9665638441004336 -0.6147575128058315 -0.7147715784997621 -0.7279695417834847 0.8235535167024148 -0.41346904069261564 0.008604195538724713 
-0.641003381706926 -0.12365339228791487 0.24420334981490924 0.0053314927076924335 -0.3151268155478165 -1.9057953676253503 1.2878777264085186 0.2088127774609924 0.9308690999083428 1.7579693372682497 1.5654498325630144 -0.7223111073944745 -0.6041547066450959 -0.8481004483183717 0.40156328107599837 0.14251975784491255 -0.606034055993469 0.45653077419259586 -0.5767999652577872 0.18757194217489587 0.17255045803663924 0.47863441854988303 0.15794492268415858 1.2722668044195424 1.141322070130851 -0.14328427820564418 0.26398455390649406 0.37123883979783057 0.15733946635119708 -0.8373942196093386 0.411551950777352 -0.058092702506656546 
0.2147562627095475 0.513690556544159 -0.46056726825898864 0.34729305987076564 -1.6902968342690967 0.8875756531745398 0.8893856932951367 0.6447203203346252 -0.1563103739660877 1.0683565688104313 2.4755997807455334 0.2299070420904992 0.21176875343301685 -1.1109100621392078 -0.21736142168915398 0.6912963354102916 0.6195399605475953 0.7007701775376806 0.7449592038905993 -0.9556495036372674 -1.300619738987113 -1.678615162018904 0.8168680497685539 0.4384843912247994 -0.9872304261896726 -1.4269158682451222 1.8011077902266408 -0.8370532011532936 0.2737462151792455 0.8362699834541636 0.5607133409985856 1.0068175852619201 
-0.1032672751156929 0.17622443958819137 0.5799724835256627 0.28787070399585774 -1.7705635551814762 -0.8447196006004296 -0.8704477359582966 2.295959216985722 -0.6550233073386919 1.0259557220196773 -1.6678385520243952 0.7955116021257825 0.6491248907589084 1.4820169114880155 -0.21139733389911233 0.3021685733697461 1.0941162234920592 0.16530693783784695 -0.207946590152722 0.14126929866920712 -0.599392153014248 -2.315288443816037 0.9903015419778903 -0.3189692292988978 0.37243342012408803 2.2093506265439125 -0.19965457961417363 -0.7809504963308527 0.6911333417582463 -1.210500296424541 -0.3741909014721819 -0.08875747511990799 
0.026847850801996788 -0.8149120025797665 -0.131987064214476 1.3145697952082416 -0.42510862485718903 -0.8528289087852429 1.904412229886849 -2.9220748043458262 0.3130707360695521 1.5292405344632147 1.3025903003369186 -0.1746809327696233 2.0474911823945754 -0.0937535773427094 0.6167016699376842 -0.16652178569236237 0.1397377738697146 0.21232172884410494 0.2633862379892272 0.5193076276208816 -0.5170901454714038 -0.256905773294296 -1.04410357982185 0.5965664709312387 0.4079010862493944 -2.024397842338092 0.41568374937471264 -0.8233531957974982 -0.24303884268454107 0.1354109947246905 -1.4458442152937172 -0.6273220761892181 
1.0634074476610111 -0.16197411837251724 0.9637713522535828 1.7019575060950036 0.09515411283561848 0.5767723661222685 -0.844918089394786 -0.8399715031041911 0.6764027015271561 0.6563274302984926 0.3601359684248267 -0.2469530727132806 0.4383878203000127 -0.7450149844533803 0.0175041054400945 0.7553353872515927 -0.705877615699549 -0.5280921864750984 -0.6628538268941536 -0.4883643026096619 -2.923300280775967 1.8140812688920924 -0.9099661935726558 -0.05123182067015381 -1.4893600217177347 -0.6470365606478579 0.3992810109906476 0.42011739986884467 1.3166996584569024 1.2939892243609776 0.4709044260407031 -0.3739771307895925 
-1.9119030234319212 -0.9783697363889176 -0.07760724499693762 0.395894850538745 0.22845284485319448 -0.36664282560967826 -1.4067676885129412 1.5672084061131828 -1.335542160301102 1.8064862778628379 0.06451653480350998 -2.0089611725249537 -0.7592702144578576 1.0573831825598574 -0.6433001300283656 0.3507496376709489 -0.0018405715060284126 2.3849139374422057 -0.2283760190846249 -0.9915287332729827 0.051437576708050325 0.1250962972019762 -0.42909811917469604 -0.22463511922939267 -0.17830783053281146 -0.6530188600092792 -1.2568009805486628 0.13312553079337744 1.5887301799705327 -0.07040921070829832 0.8164559987161705 0.10613885323039252 
-1.2400946365390244 -0.4593401836685291 -0.12050188047191293 0.07758674393656 0.7484010627392822 0.4862416442913615 -0.5165803532303761 -0.872403999696652 -0.3038057293440792 0.04825315909759136 1.516633533697839 -0.23427237799133357 1.1461683968702343 0.12533975666840483 -1.4092899554604932 -2.3264897406855742 -1.1149842611824634 0.5322154239018939 -1.5698527044118902 0.9554895574998172 1.6277241622924161 -0.3881251522820508 -0.5576735564621198 -0.03724690871547351 -1.7073861656280231 -0.11783175358041685 0.6224086626846751 0.5150221284629565 -0.4148056021470525 -0.08246769967080793 0.5987005313538692 -0.1972077618065598 
0.29238181548571424 1.0351257685810538 -0.5932487229627346 -1.2678165538261967 1.1487316013422724 -0.2705933631066232 0.06983196734693642 -0.0875318525808321 0.14520197599947787 -1.9102864760600868 -0.17635234430562466 -0.08813743711020916 0.1931948627394515 -2.7793506655834506 0.059179345983201216 -0.34915038991229636 0.5973138329058052 1.1816821570779115 -2.2083573576390405 1.4455574985332682 -0.2841008455256593 -1.8330736345764578 0.7081374930407661 0.3766555972845278 -0.8093840739569392 -0.5193081175913029 -0.05817262091366608 -0.16569352381138128 -1.5084900385979976 -1.8962060616972591 -0.9421117921619259 -0.4027458720717413 
1.5928603089552358 -1.5545585493696223 -1.1047227369356498 -0.05111515583999977 -1.0661689769069755 0.6641550504767203 0.01211349183671568 0.6065453993954285 -0.14231046749674062 0.32283650659178625 0.21615864225327905 0.6724042119316479 -0.6625857690495989 -0.37172763944470544 -1.2307839897517456 -0.009588456859192412 -0.4017672135191168 -1.782110653345118 0.058310466692267006 -1.1523513451742657 0.9156708483360104 0.46116954101790775 -0.5520586720549816 1.0393973580038969 1.5370827135233127 -0.9759635704102321 0.940929114223505 0.3783162746812881 -1.3868657023796922 0.4538710836993663 0.3810844557589976 -1.1864869347831963 
0.48873838543033804 1.7273239798454303 -0.46793163641249275 -0.9441888308333735 -1.5949504153740568 -0.5345036161783675 -0.47632085750079345 -0.7587487290082593 -0.6072422149968469 -0.21881333053193486 0.5658259154386734 0.21242395373671688 -0.5655228889179124 1.8175163436564854 -2.6447177607751398 -1.2755731945828082 1.0030466695748048 -0.16798807288981552 0.08975585712861747 0.2817848536982133 0.4816839804934386 1.431801377464146 -0.37456427566585576 0.16775667818452142 1.9689564953761447 -2.7908567834137625 -0.9723581509348813 -0.26074054247343703 -1.3880097827848072 0.7822742971269968 0.3718392326625287 0.011246259621273466 
-0.854372967292643 -1.2672178693155665 -0.4622332881982285 0.4594638476948614 -0.06899549740518265 -0.5659995486274739 0.7070840233530747 0.14943140135948557 -0.8095545253215706 0.32168226707613284 1.7002027854239257 -0.31879705944054765 0.2828166381418555 -0.8213450932341607 -1.1175955937086797 -1.48428318578444 -0.829432411974162 1.1682224037401963 1.614368420990781 0.5976759582042473 -0.3574894105383775 0.727269564475062 -1.3024336933751546 0.004283727957889019 -0.004963015978867137 -0.1547065231443906 0.14076965187518803 0.6423199121515396 0.4992305345511124 -0.4628094781818548 -0.5721985093301999 0.9169657917144763 
0.8114715023143204 0.055407428203598015 1.3522696446175348 1.2345805465688418 -1.2931055214212912 -1.7512937309325507 1.116178836059366 0.012875985769900575 1.3445088859762506 1.8692178584713561 -0.10712412336894996 0.3380188982223447 0.859400927698851 0.8545040954919692 -0.92195255648186 -0.7928724493991893 -0.6246555587713133 -1.2030873718356525 1.1586455059017073 0.21224129655130286 1.9606849051288193 -0.5285661482761596 -1.0921895446230345 0.7629373670319711 -0.38433806107767954 -0.4847808001407385 0.25944780377911286 1.0149722274963286 -0.7663307790812359 0.8472985919831686 -2.1015007144916975 0.6917928230946996 
-0.0739648893486434 1.1063675519865883 2.285134140767537 1.0263304493613445 -0.9236874859782941 1.7820708346889798 -0.75488071982327 0.9943113566738492 1.8551985158519797 -0.2620590688394567 0.669324213894294 -0.4630854483047316 -0.802102434535843 0.4082030911956333 -0.41386119373236735 -0.5746750718614445 0.056317390127940216 -0.37277443633752916 1.725784533681673 -0.07767634154020901 -0.00894777488511842 1.7315799381958175 1.3720357874093418 1.161474321441085 0.6715158586143435 0.062070469849200664 0.10231834881500232 1.2315218599640165 0.13826501297713428 0.34207683020479746 -1.9656048211447865 0.06426490061505008 
1.6219589382453283 2.6657626279223607 1.8095483984542846 -1.2271779988059772 1.6905140071169678 -0.6287915042115038 -1.1084367537394904 2.545380033616816 1.0702375212636766 0.09424555885899899 -0.34130086865548515 -0.6562764215114082 0.09147113205813502 -0.7871691678645987 -0.10170829240583654 -1.231119465855553 -1.664223626554038 0.7336242603968118 0.699776446460501 -1.8020720131371133 1.12240842066774 0.14595703453161868 0.8051030604814813 0.9861803576868013 -0.7814395418484502 -0.8700795944149367 1.4092932551991453 -0.08863311674743422 0.004298557127345402 2.0493227988957585 -0.3690420171914288 -1.2112607136617866 
-0.2037696640982613 1.0162953172144509 0.5874261624045553 -1.7666409285672893 -1.480356102090536 0.4640243358986085 -0.7446211419494664 -0.41272735873749705 -0.1491703078724243 0.051111427154926614 -0.2728484209912989 0.3278564799507709 -0.022132294537797623 0.5586221422943395 -0.4996755749540652 0.055466185558639566 0.14500699805282974 1.398803059542361 0.38792082496710656 -0.10730631288849882 -1.1058034485630963 0.3531002983871987 -1.177641641378821 -1.7293470475399426 0.2670469025838803 0.7275915152277139 0.27412420849112906 0.5147646315529236 -0.10648163924653532 0.6792195371902398 -0.7138478446934213 0.897881306874851 
0.9970884597346079 -1.5334217707558233 -0.8223778507226555 0.5798514482582438 1.728924374366378 -0.20375925750148782 -1.046793837078778 0.6447805123042616 -0.23016153003206852 -0.37317401527334193 0.9622429400315351 -0.4055689661640818 -0.22018028007750268 -0.5347769396814612 0.449286284089064 -1.0104093032817445 -0.7811558970611645 0.8243014655190344 0.48663443433323245 0.03966986789519669 0.04115069603248818 -0.49652529755184827 -0.025091846458815497 -0.10672655548120659 -1.6013994537289045 -0.44217172508581026 -0.6450893583924061 0.7281946352249745 -0.6415938194637382 -0.3213160457826983 -0.048669247503428055 2.589943597335488 
-0.5018785629412275 0.050476012061294984 -0.17227661668841818 1.3443148209207008 -1.0107639817516738 -1.1781277285044567 -0.4005536986870752 0.6897472588345839 -0.6177314519934458 -0.28124752722463336 0.36207848190051695 -0.503216012695978 0.7519681073109122 -1.0427083411661877 1.3504287705045275 0.5755976423980962 -0.5409235389674999 -1.169132632867324 -0.9677481307324762 -1.6781919035571664 -0.7016270758988009 -0.8734824235758494 0.028775441977142047 0.4112684884180256 -0.8353167989624544 -1.300527147634211 -0.6771214608068223 0.5923845674216819 0.9987462176890628 -0.25478670525634756 0.6579838209652132 -0.32521967022623344 
-0.11838740027777167 -1.1455740078579602 0.7102651845803954 -0.2941892001903093 0.981521417074055 -0.08960109516251898 -0.3197345000350347 2.454843454307765 0.8309003325097576 1.2696036881698072 -0.6625987616460061 0.10928701787918019 0.6679889861730444 -0.9877316100051289 -2.344220875569086 0.2684015699767023 0.6882454451216179 -0.7401037483237938 0.2610496615383717 -1.400134784570106 -1.7710843293771266 -0.35241586397389896 1.3073039891129348 0.468168428231933 -0.9376480649996917 -1.1462833055960875 -0.22327729406561792 0.07208231843674001 0.2056490197176142 -1.8699267179106103 -1.5515346779547214 -0.6955942409751461 
0.8596683224442011 -0.5231704791497037 -0.05549972433771422 -0.4758503560638281 1.1014742067574046 0.7884781458360879 -0.6809881295330534 -0.11551732583134239 0.47579619160469566 -0.11851169130257455 -0.7888614444290116 0.6932152635218147 1.0324922385854527 -1.0520892972100107 1.3455049362384803 0.5209448612481433 -0.23031679106562888 -0.3951693381210866 -0.1066810948607295 1.4917921439121868 -0.07919529125043565 -0.15266776138319657 1.0095193896268935 -0.38337089612045566 0.2891139782221681 -2.2150470122142245 0.7739877203854784 0.6337637548980904 -1.0826140790149634 0.19436973660930534 -0.12119082661998117 -0.43697280321838594 
0.14637865385261725 2.8258146433766593 0.10263606254878475 1.6937907977700086 -1.796405013229197 -0.47388113740086285 0.20575528807727048 1.3937084904091268 -1.7180538559135436 1.2631675165748866 -0.2794999301593845 0.10901984058994532 0.3461628666924467 -0.557022742060453 1.4260000483085973 1.410395810008681 -0.243572014732647 0.12301543371785413 -0.8833505558372137 0.05938110665937733 0.5383413856873032 0.2947990961172424 0.9448014771308963 0.8275380042219369 0.22491348695816282 1.1009426684494474 -0.28497880172235796 0.336537906848855 0.6212449400757271 -1.0607960712059743 0.7876654723192551 0.2840045078580095 
-0.49540706596532924 0.4369767094692632 -2.0379572415996683 0.15871697718509592 0.9474480777895223 -0.4211257057642289 -0.5477374272915183 1.4342021464761725 1.8144196455732373 -0.11983961138395867 -1.0747574525512242 0.8983144966816343 -0.047506946629140276 -0.871955674839132 -0.06654626019997587 0.28939729192856806 -1.2688515873657238 -0.47782225946729184 -0.7227443850340892 0.6991850494921763 0.0807358669567987 -0.8484592163592806 0.028944906162157242 2.6452071275450315 -0.21935943573433894 0.11761471606976007 -0.10869097808662972 0.0538131412836304 -0.3933282333758936 -0.43020729071142516 0.06417858303261763 -0.69199441104782 
-1.2636496228795933 0.47535655026496054 -0.8114706393576694 -0.09706920448452032 0.9280309406523184 1.3313230553145605 0.091568904635782 -1.0701968477020494 0.9817366500877054 -0.6066721314371988 -1.3559461196175544 -0.826600853388514 1.0046466729530275 -0.9113344202802262 0.39456313820614486 -1.217260025927561 0.08991451729670419 0.37955733729280455 0.36322812313775504 0.5315036951046176 -0.8112279911621035 0.03487792336686743 0.2673094696774848 -1.9717123469000224 -0.6240250637383268 0.7954049883388647 0.5542007911256215 -0.2550855307194853 -1.7483098859752755 -1.1384985707814708 -0.4578614929327426 1.1167388840752819 
-1.0104578999458338 -0.6580954892203471 0.3076766376420716 -1.4215903662848401 0.11899907915474968 0.4117109282923133 0.8764925317014179 1.2011969226739112 0.8915784428728717 1.7332664996589613 -0.6902262002136836 -2.5251658677401205 -2.196636345739314 0.02453799942921844 1.5415479922627084 0.7319315753974008 1.812421536523852 1.0626705352546029 0.2416525145515018 1.1776327462851708 0.7019615666010425 -0.5060689507705959 1.4616788125443583 -0.3296304400100664 0.9541524045113745 -0.7015458505607283 -0.829067294271042 0.42354001538152947 -1.4897029306909426 -0.4211946145780027 1.077232603272771 1.966199339563581 
-0.3976113192425882 -0.4876449655778887 -0.0491035140317237 0.8757222045445091 -1.670959190610371 -1.0764099202700066 1.7752702067665003 -0.9393102949276078 -0.9607102425681663 -0.7246821310621467 0.643014178976511 1.4471066020821708 -1.6552551075044095 2.38132188482616 1.660339117198314 -0.6104986723274137 -0.7761153011117615 0.3585297783315786 0.7115048594180289 -0.6746724719190176 -2.199698721293239 -0.5863745723323871 0.35360033587650613 -1.3138643177935665 -0.4215235843281939 -0.53572843458325 0.015412760699133572 -0.32759741062658954 0.36971058130661577 -0.004991717316539714 0.9784247990160169 -0.2834253609744159 
-0.4968119682726572 -0.30445150625384937 -0.5883447098446505 1.6228051799766994 0.46356452859724956 0.16017252160205223 0.7606596650527497 -0.08926213551059796 -0.4738857264632659 0.24253482215669925 -1.1946184573103247 0.8507328577224015 -0.11564587798842738 -1.412930995642498 0.9570914112856036 -0.1713943945225783 0.27206144561803364 -1.5182757145517372 -0.15703741444091085 -0.54860027090168 -0.45598228157853243 0.31692620737322663 -1.049948089242962 2.426967629843979 0.5455586017725739 -0.534452279078735 0.2587898478162662 -0.49677323155655334 0.7776294767651164 0.10681139908991039 -0.9462858874519042 -0.8807591669232908 
-0.2214744611869958 0.5545528761017617 -0.2847644103830058 -1.764846949564299 -0.8430982463486136 -1.3601870466358423 -0.28774987724121115 -0.7487394718635665 0.5970458614697427 0.24286727817597398 0.4871931945322896 -1.3974500966747103 0.5531622628822257 0.42103154623211253 0.3144164713013307 0.983667722375294 -0.9683902566931115 -0.1161721134820121 -0.2832410593744586 -0.7872927054214512 1.9107522039281144 1.1594513811179958 -0.3458870561163123 -0.5994906150299588 -0.3195919011226444 0.5718456054034368 -0.544706150495312 0.38529303844221247 0.361750120005355 1.1892506677083468 0.6028189570272908 -0.7608974305486318 
-2.0708385562082277 -0.6057461335420662 -0.27678034614290814 0.40279038076086915 0.22799675995609542 0.6858592132244815 -0.14184129017550937 0.3971322702291281 0.5994220650288067 0.25717923432058676 -1.7221287976241815 0.7508786304147828 0.5090633054599557 -0.32524866412643266 -0.5428164048576255 1.8106843606694014 1.0971030944107047 0.2796712541893976 -1.2113063076211252 0.21567975698004593 -1.3957980272522357 -0.9965324750687847 0.3882336541860162 0.15349344263273104 0.416968842867644 -1.2368628758598397 0.6813705324211603 1.0190228350836916 0.33243758087678305 1.9304809797081963 -0.19780255161859958 0.9396146036093315 
-2.02214412627452 0.6983966777010093 0.7033970962400835 -0.04177327003206155 0.8149089899323605 -0.5610975844049145 0.06167760477928629 -0.2696443282143919 -0.001262565023656491 0.7497594704127306 0.2536796075515544 -0.8455452638181769 -0.9363652874857403 0.6944867659820769 0.5397947730571397 1.9865368630001088 -0.7274631838118634 0.32753329810823345 -0.12458032958514526 -0.545575747524828 -2.0833889856799117 -0.8802413659750703 0.7727016941732082 -0.4070662097544683 0.9876022898959518 0.21354125774933685 0.16569498909938943 -0.6060775257184225 -1.3091530707112131 0.3839411959756415 1.3811452425525934 -1.527438718557535 
-0.02487955017471953 1.306365987733415 0.049376591664419774 -0.9702735595348615 0.4418560680138486 0.1822562667425177 1.0573033712956486 -1.2688855444476859 -0.75516677821959 0.5321950312640673 -1.0760589811403625 -0.8948347588509612 2.447689494913373 0.44813980151377014 1.3697747309596697 -0.3851490099656606 -0.7696163895976372 0.07675918014687698 -1.1381840275296187 0.2309877050305715 0.1268380614185083 1.0714147618827572 0.8222180294304358 -0.44716408950729475 -0.9321678184056441 -1.8870464844741184 0.40534252002362314 -0.7810039238335998 0.4070024518453715 0.18616579365271138 0.32752333421186924 0.7126930178252447 
1.6173915786924726 -0.203372313416666 -0.37786866496037236 -0.17172315290566473 -1.029138345432396 -0.9427970509358748 -0.4229079067279011 0.5291220584993412 0.027573391207095288 0.14117871339650434 0.6957342745248174 -0.42855575625389675 -0.8177841121834745 0.8385314716225802 0.06089288917969661 -0.5407440855087197 0.5577742118960948 1.9205291773412188 -0.32428826783705195 -0.2726842574739403 -0.9030432496703424 0.5515347581657748 -0.7983397446414231 -0.5396908075892616 -1.7811678356046434 -0.6307725928778172 -1.6974921606736881 -1.6725972824190638 -1.23619480749239 -0.9338924584336747 2.2548027896904075 -0.537473920660709 
-0.8807129861832039 -0.1233882875071473 0.2445912620652515 1.8296792896383711 0.15551265511607065 -0.35760029874345134 1.182329485682644 -0.23196503401508095 1.3361782017895454 -1.0441360596627538 1.6504250799129045 -0.7828862655943698 1.3976151781322614 -1.8692553341492801 1.172407971183107 0.5514449050633019 1.3338746449381107 -1.7453650742256068 0.7038485119717419 1.2039143329805626 0.8091000958379327 0.6042608338139728 0.4297420188721038 0.06627969844381035 -1.0585714275509865 -0.6914873724030016 1.8255021959535969 0.7016978808553371 1.4883729342938778 -1.3212375562025902 0.3247950622157768 -0.07647806371975363 
-1.7851653687986755 0.4285020791526717 1.2946712585123057 0.8882730848034371 -0.5810754334830234 0.7906093552754518 1.0215359535463726 0.45397579553968725 0.15883667938118398 -0.605762869139582 0.4920339539461113 0.9205517257643198 0.842108605098078 0.5799363877765807 -0.8682744829398126 -1.1020219844971515 1.330720292925733 0.8380134512610742 1.6326982459398622 -0.5300113822488339 1.4570275434947466 -0.8564612534252571 2.203424234664245 0.19082886923650674 0.028367561176954725 -0.012269744512694625 -0.20541486822709465 0.24089964379529774 -0.9116363215609076 -0.43840537844408883 -0.09354405453188551 -0.7021814875711871 
1.1579861315475688 -1.1791853034712687 -1.2901402767504462 -0.4954220903653318 0.5113032105028914 -0.33059018666418016 -0.15275865256043047 -1.4723217147026584 -0.49046134227817273 0.8575773409545185 1.2841009758318003 1.9204074995447198 0.7161826461010541 0.5506788991967403 -0.461372236112162 -0.19873383298422795 0.9598347114128926 -0.7178936450016196 1.8295956074936188 -0.22599588835073034 -1.2466315650253208 1.089378990467108 2.19678705940441 0.8326225839352055 0.24087272011725358 1.1563006437206393 1.1767010422310082 1.724369223581229 -0.5465832580007561 0.48262807432487487 -0.40082643407070173 -0.137983596498955 
0.7760741321075911 -0.39607531642837235 -1.4108039908524006 -0.09299129744578544 0.4975497691198687 -2.135955253297696 1.4761203370533347 0.4347385092550675 -1.3139017773078097 -1.7566066091999109 1.5298380004600418 -1.2293108764168081 0.08213213151390192 0.937370369865651 -0.17166756041539416 -0.8127889939990829 0.07330719670145641 1.6887800260035564 0.9795196177014459 0.24824017731124598 -2.020983083751697 0.9015277533331302 -1.8862975184272446 1.0939180749482649 0.5458761255412897 -0.03548919830374097 -0.28967947580705966 1.4522435358178616 0.443979029852459 1.0507438663462447 -0.020510418679952038 -0.39542351717748314 
0.321993555076298 0.5686513341140168 -1.701236778373168 -0.8480204318628402 -1.6532010429660957 -1.0631323678109958 1.816374484450576 0.767262012367665 -0.42484281405131835 -0.9918847266939538 0.6435028485407397 -2.708872338391058e-05 0.2590158434835618 1.0344540997411973 -0.41208259586023216 1.6461266344468002 -2.019876027187364 -0.45250200898239623 1.4211126552921394 -0.9397394117923284 -0.13880695287953923 1.2708864999169605 -2.5848725847293457 -1.7771344368485174 0.37611080813526887 0.474257420121692 0.5719781225451972 0.702544840341952 -1.5094055620792173 -1.1658554384466138 0.12453352005221423 0.30473925022924536 
-0.2090187255396176 -0.1989413622962012 -1.7560702525199365 -1.2222868442374957 1.4607165785742693 -0.6968096088702368 0.02452643226542563 1.6445314910968565 1.3594976198330984 0.47334163559316017 1.6315255262427957 0.995870662148451 -0.37615509193650964 1.710122564492459 0.5262481052944464 -1.4769826780137052 0.9967038374166861 1.1562174341690814 0.9437678898710877 -0.06780506835081142 -0.5543502926497396 1.0378665219541294 -0.271474185437249 -1.1913486414065366 -1.2688285188234096 0.9553868930273377 -1.8460919426757194 1.7630313239534277 -0.09061114770922202 -0.25082405329972246 0.4054949709312169 0.5917767172306769 
1.2424058622912764 -0.334922737974361 -0.007765501183309545 -0.9254632672150775 -1.642206519215284 0.9381414249585157 0.04660609923081944 -0.3280159187485696 0.6699197799465152 0.6381797046788728 1.0556686437148508 0.43101490213038945 0.7133737442404227 0.25563774761170494 0.7802743102520994 -0.5080321294692953 0.10139202866332607 1.0690807219603113 0.32317232267434637 1.472611015357733 0.5238970705980348 -1.411915598641091 -0.4613259506205749 -0.6124249756842208 1.0068724308434098 1.1350731759346182 -0.5400267728281813 0.4168318733537173 0.1947971030968691 0.8314248593713383 -0.4537114405461543 0.8926177844540023 
0.12062241310628428 0.3472266311087037 0.34309341428415896 0.2378060118579534 -0.10105735771331484 -0.5863964849189527 -0.7984176361571834 -0.555310613601401 -0.5374429687916948 1.0006512012917128 0.14813350237143275 0.03843403302345532 0.09046055824565959 -0.5159133011234389 -0.9934493410459246 2.31596455133178 -0.6463371153284954 0.16873274027111063 1.1201118188284216 -0.6861867636929078 0.9664063827056607 0.31253267619229647 -0.8285093394619485 -0.5778701468427078 0.019100136022709994 0.6998109113260153 2.005424413898314 -0.566978840793295 -1.8605913169856645 -0.21345964611020357 -1.0466237654491384 0.2368715444114112 
-0.19481621498893675 -1.0561876940657662 0.42574228627603183 -1.0925672201047856 1.3790855380786666 1.2698880789505256 -0.49726968964762436 -1.7897907953177754 -1.4255697604924158 -0.05783885587758035 -0.4939074411972839 -0.44283345516154793 -1.357344111763997 0.563338573810688 0.5248708180719622 2.793317722607151 0.3342695583822275 -1.7747944206495778 1.08975631179332 -0.6591895610749484 -0.07427357229365598 1.6621726869801423 -1.5049353296294388 0.4726770498281545 0.9374437840648147 -0.9583127027969853 1.4636747982705938 -1.5492919554231381 0.0758385950537158 0.6246047019782859 -0.8133728603333601 -0.3818366775132975 
0.3261539683806026 -0.24252753265690563 -0.8119212740584332 -0.8947294031596726 1.5159761544505328 0.46468461037168585 0.34075647862773495 -1.2014936110992667 0.2137015871252638 0.8348788974141608 0.413025936111528 -0.2898865647706269 -0.15949343880280664 -0.14983981807198563 2.1167162948366394 0.7669049779830771 2.060584895378046 1.0328497865728385 0.3728848500759522 -0.4481768064388231 -0.441798413664031 0.8297724757088075 0.7490680327741022 -0.7837172922734341 0.5309354098740219 0.9264049489808468 0.6683355799932743 -0.5027665285404169 -2.4798110447293054 -0.39369704829042157 0.779486173014721 -0.4024438385707167 
0.3226283064383611 -0.3481197023146104 -0.022596170240692832 -0.21111763144985554 1.270779695434192 -1.103530127479343 -1.003559040679348 0.8123612538932662 -0.8152933097235379 0.5947089455552236 0.679202872203053 -0.1441790200489465 0.2774608352232955 1.0885445224994905 -0.07928905318781226 -1.2659253985984449 0.7133396662075481 -0.48445587741051976 0.3359434475725144 -0.6056887881767371 -0.18896039934656833 -2.1311201436560667 -1.087919987956424 -0.9042482323447705 0.8573691441194778 -0.031215059155490058 1.283997493070164 -0.46356333965370855 0.21473753186149674 0.42094917254359077 -1.2005964223692756 -0.1344982566183588 
0.11631164676316257 -0.11380767781561871 -1.5404285465988397 0.7512154281882307 -0.4456548367528704 -0.17098076954582694 1.0972773482318634 0.9014649631630021 -0.9020226678923225 0.3480313263552605 -0.39340284173727863 1.3640196835214127 -1.1849421764417456 -0.04914572196069333 -0.5940276950321327 -0.4437832674541213 -0.2047491243455929 -0.9129875999993156 -2.1229675700443345 0.6118619680879896 2.119060989708637 0.35092281013662363 1.638821960140764 0.19620629450093982 -0.7393950492679984 -0.008523250134760352 0.16868313370476998 -2.4280641484704057 -1.414037738031052 -0.2125364493197932 -0.06925016904882034 1.870889924601526 
-0.6218772460875992 -1.0576690581468167 0.2581592011693142 -0.5398878255263163 0.951579118566297 -0.8382898936491935 -0.9711440951100326 0.40418833524202646 -1.2206187164584916 -0.23823859438834083 0.31950924946412534 -0.08683013065161295 -1.66329250367769 1.6502181478051985 0.735823362579185 -1.8072336015210422 -0.4218815753219205 0.34516958402112696 0.9659745413853197 -0.8836876222118318 0.18690782520595556 0.12126819534809472 1.3179856345906447 -1.803636189918669 -0.6907735718341815 -0.7733595179687832 0.5620672387406546 0.9523899701752279 0.027066303009103076 -1.3332061641959558 -0.6745181793512492 -1.0419962584983016 
-0.41668608574533195 1.255060686169638 -1.6078280089362214 -1.0179620726976728 -0.8662621344030813 -0.9451337744639594 -0.4268731308680353 -0.1364771936269931 1.685280042195171 -0.4037905087235336 -0.2566498087701597 -0.20213238780302084 0.5629596952589776 -1.0250281597866777 -1.334047210203956 0.4917847260827058 1.6300384869138935 0.8965840696977173 -1.001793376647795 -0.5618269404460454 0.6752330599609733 -0.7557998344732996 -1.1941647799429638 1.947861730657648 0.431422765070565 0.5104377026296828 -1.084828235248724 -1.2098062646710104 0.07475259224652173 2.1737158912208323 0.43332432684493266 -0.3418583338695816 
0.09569679650279911 -1.0529805612806533 -1.8869041917059546 0.8897634265600668 -0.7567521058764156 0.3872061408185003 -0.4565629566480531 -0.16630579412201113 -1.1968453361536804 -0.2618224384975628 -0.029908356591840247 0.05760731611800309 0.6286972559977531 -0.1450174828435013 0.18480779471592118 1.2932436504145117 -1.4276655540955485 -0.3084636899051826 -1.1140178532620653 0.5414909301799421 1.0787571511699088 -0.34157446359482807 0.5904863376550499 -0.5280792966341967 -0.19624010345531145 0.09139467260302533 -0.6404471289547513 -0.29771589839663726 -2.1317644176311545 0.9233445891949744 0.14606982938095034 0.2496429515018785 
1.3443909449742384 -0.11095142750860487 1.4681552210202107 0.9850436814095092 -0.14269334757117078 -0.4926873297475541 -0.07623441161931314 -0.9071343502708172 -0.15040785634807666 -0.37793280312348276 -1.1357904773670733 -0.825773202048137 -1.5265251209470279 1.6377100662190318 -0.8912624969029422 1.4700120184773717 -1.717171548976676 0.8143080257901546 -0.6929539285685666 -1.633385092041976 1.0105725950127156 0.30834709285562295 -0.5622075052969233 0.3543356983243631 -0.060056533372088466 0.9899162942833342 -0.035006310185582167 -0.8385730312488512 -0.1021371461182521 -0.6617598299909053 -0.16858145359201895 -1.581757240994987 
0.4023000895358001 -0.1538597810632326 -0.03496219756203504 0.390070781216024 -0.07058002523733689 -0.36718812003880413 -1.3003966655453487 -0.08077154196173626 1.6437039437458556 -1.5086693333941679 0.3378773777759011 -0.4403879879295773 -1.5005414876464918 -0.14203807900004917 -0.48101177661569294 -0.7820292728975506 0.8916663732769081 -0.4025029385200414 0.8099643802463449 1.4659307800461343 -2.2997285363023137 1.5271980710091553 0.2765039672726392 1.850326596152608 0.5295496412426074 0.5654259449157477 -0.4420356780021096 -0.5377915462322994 -1.8456683187618985 -0.05783657771934366 1.3292857742203419 -1.4779790930392167 
0.2810279535386246 0.144368910411957 -0.4834143208518038 -0.7372855681151943 0.6383641332079093 -0.5935044496677256 -1.1737040885280328 -0.17796116646755133 -1.1858433388659455 -0.46795809272758543 0.6676511230373432 1.4585748764648347 -1.124419785057422 1.5109706602568873 -0.5657660441119198 -1.2639272413453864 -1.826315607498646 0.0003835361226762759 0.6835836604515332 3.197566356035662 -1.47017099525019 0.6163966053214478 -1.295987465901743 -1.280473861321443 0.23181823140901142 2.026216598724771 -1.1429845585465974 0.43522272857810734 -1.73461454673974 0.5235590070191014 -1.3653936433415792 -0.10985227145260068 
-0.5365175306743141 -0.3455545785479065 0.7298546442616161 -1.56748125624947 0.19561431099410556 -1.7277993091996693 0.01879797419116071 1.0258406336831594 -0.820114271534663 1.8206006124843876 -1.205095367576086 1.1664600315772058 -1.2077676239675197 2.2307548548602103 1.0427636607165691 0.22491535157490056 -0.3479205349957621 -0.37321240589026305 -0.11718976578001819 0.567217729487683 -2.7825385409280865 0.4990503980029138 0.3890685105098905 -0.916510660882961 -0.1523205774905487 1.574826611364077 0.40434094476899946 -0.20297610761861556 1.240915699664206 -0.40260739960897957 -0.6283821026635418 -1.713832778772853 
0.10447268020003737 0.5318351469697347 -0.5639221836511628 -1.4285046304097646 -1.0418158143004541 1.7221588396038399 1.049931406738052 -0.02087270323548303 0.10447183653270109 0.5253739172293956 -1.5067865282232265 1.4924539557881593 -0.24595382061623 -0.9775981826460952 1.3493189792733489 0.55750832269631 -1.750846213522126 0.3439430268035108 -1.6136932683537955 0.6594726205061228 0.6793305261348311 0.42812221603550277 -0.8010967428388617 -0.8531849901456812 0.1484760734856409 0.26919087022499555 -0.22311800621299166 0.015992248268160984 -1.8233646308465132 0.9247746194927053 0.7994743556740775 -1.3328322456473862 
-0.006467831756539456 2.623995924892355 -0.46040776499231834 -0.27803089299564465 -0.6596764168086501 0.21897484914664542 -0.19413748656718424 -1.5029238117901458 -0.9023766008566162 -0.7970200258447957 -0.3839010892261619 -0.7390233117410095 -0.11030036666660539 1.455271649111364 1.4746147868095265 -0.2443383131402228 -0.22237050894456198 -0.443786235705247 -0.48054928572823197 0.612026275858736 0.5493373943427288 -0.8067086823050529 0.9199663348346224 0.36767583523483305 1.0762795698033123 2.926505685417544 1.9925405423911873 -1.2293027562044854 -2.6426911060542673 -0.9468309722529473 -0.605243899308554 -1.5777735717830967 
0.5328242609227932 0.9768615940844563 -0.6199292761246422 -0.46962323668903505 0.016075399421963527 0.5704203229510629 2.7189340403289823 -0.38759453676547195 -0.399144323522683 -0.06635090083597589 -0.23866625659576038 0.44416292800437746 -0.08727674022591429 0.8312595839979146 0.3594392683016917 -0.610630090593344 0.2727821538280858 0.6827550610585404 1.8048834648059127 0.11387350457100312 -0.0758606424042617 2.3504448785518592 -1.5395977595192767 -0.5164822194551589 1.0525185132442914 1.9526453013050151 0.1338098609345097 -1.6637274949937684 -1.0869009016101225 0.6807483269679334 -2.680825278730371 0.463523154660422 
-0.3663468400503432 -0.8693612925016015 -0.05303854897691239 -1.1558539637633185 0.9227172692785814 0.8159652573236449 0.5061371142445218 -0.23664773873893502 0.5339739977789651 -1.200414023271085 1.0420155716133477 -0.1472812761569504 -1.1846604917684276 -0.8804958654554258 -1.0403834196390869 0.116889278990555 -1.2040246248532973 -0.7231593501679107 -1.4061826991244815 0.20787460327793897 0.4438443029653644 -0.737656521895689 -0.0017104914529551386 -0.8052186029051671 1.2880474597928178 -0.018320381766761665 -0.252485194612608 0.14661161271814654 -0.648924474544072 0.6874735582740888 -1.1639130381784974 0.9441699979366831 
-0.4562963619040257 0.322775706027005 -0.8945914770785051 -0.19472656250817735 -0.23703106233076449 -0.15367970092002636 1.3244906451870415 -1.9246357272548151 1.7057601565766625 -0.08880678589100358 0.4109527002252306 0.23784981684017062 -1.420067289560147 0.4636572099200725 -0.6636641247776798 2.0074344775235717 -2.6995285520363925 -0.566659256706496 -0.3292419338341948 -0.6603161002571185 -1.2005342682519224 0.5774522216256899 -1.430472520601757 -0.5357245846314445 2.649085529731579 -0.6775183845150442 0.599560657547861 -0.1775813400188367 -1.4766316821796666 0.8968771447548517 -1.5168242205798372 0.8321913034944555 
0.5130124432455443 -2.0246942920855813 -1.2258476699991785 -0.5098592381812044 -1.5221543023689814 -0.33774656933579866 0.17507904037591143 -0.01945315972336766 -1.66910470774196 -0.006922707115326097 0.12264891310564398 -0.2842755961502958 0.9681195176944838 -1.5774402923251327 -0.9201876715566085 0.07291996439347441 -1.1718328648367298 0.527065241963138 0.8255572454204269 -1.8860643026812074 1.8124016561816165 -0.0016938008307408438 -1.1847236948625914 0.47772268146920394 0.9060006615303826 -0.18407638795547335 -0.2207818158798474 -0.509693335694487 -0.4461114608906701 0.9276554010978707 -2.0316092418572618 -1.0337407343311502 
0.3805401375719977 1.6718315748434318 -0.018484239938082504 -0.3687329300876484 -0.47152004942303194 1.130693802497581 -0.5842524594749191 1.4825733142044286 0.08462541022825364 1.566466759290861 0.4039493163005123 0.42274450957907206 -0.42699838555676717 0.3308143170276609 -0.2323299145966104 0.30739116444104203 -0.36144680885008523 0.9810982889882198 0.4417387047195018 -0.1805543775967612 -0.9551605418464711 0.917690359361908 0.5358213804345605 0.6062469282278677 -0.107401447643829 1.1453432475777487 0.12014529179051811 0.3498612433746966 1.7843637365915554 -0.6545951048421065 0.11712128438844951 0.08757392745589306 
0.3329762270192442 0.24087391186943102 -0.816224789602201 -0.48861043181784425 0.07479315193255372 1.4172860586546354 1.0336832862947498 1.3195876171204701 -0.8372771015125662 0.14573814177769295 0.26364777995077593 -0.8075166942427089 -0.13720931356185387 0.39169891907550447 0.8281248376433836 0.39777350344867574 -1.620081185035561 2.1621749507276258 -0.038146412463686864 0.06927607296710281 1.9848181381600594 0.5808486796320071 -2.43969048087653 2.6629187876793345 0.729826038401967 -1.92606028831154 0.5346969005855233 -1.6582449804042068 0.3186662243974316 -1.0931111374293032 -0.3262090658306776 -1.1204588845118564 
0.475786034682878 0.8802143990075946 0.39678987726206544 -0.40125603087350464 0.18257487051474003 -1.4199762977479777 0.0590242762826629 0.5008160188848466 -0.147897719680822 0.42573765031988947 0.16763578358614098 -2.245642854306582 -0.6170872509699122 2.345452155247899 0.2308578614359002 0.08095493027649754 0.39197488397057895 -0.5502113480635668 -2.5799724355565923 0.19781374176526062 -2.2819206625051085 -0.6574137238230079 0.46566713558514977 0.9988030844789361 -0.1796029593637027 0.0331680408969634 -0.99550967312449 -1.199944981707593 1.2972882083207182 0.7160232886787525 1.8789638020522788 -0.36258905436042316 
-0.9514719525214407 1.0129381893764624 0.3111194326692478 -1.4840336869616213 -1.8935863766375274 0.0413726122395792 -0.4556951901083337 0.3925756734629099 0.14135421066263784 0.7591764604328962 -1.9756618360780756 1.2322414455664006 -0.09949814010169357 -1.0173118997343034 -0.366443635548711 -0.9179811964046387 0.6851973267421684 1.4751282867976905 0.30084227517694445 -0.6584246572875992 1.1348397277850932 -0.18004174246159643 1.2881757488202963 -0.5494673754532357 -1.0808343060347074 0.8332988022925296 0.8062306775193454 0.41139578653916986 0.3237039573964955 1.153296649942694 0.6512269043025793 0.388178929304028 
0.9766263575925178 -0.10094256376033346 1.9946402119836653 1.3745377975218063 -0.45013313462770915 1.1602931816903965 -0.12229041269299555 -0.2742047647390165 -0.1460119318714176 -1.1425630166179852 -0.6494837163041279 0.20739940862304854 -0.9875985048027925 0.9298818171026602 0.7422083625071733 0.8455208789792894 0.5311073966846035 -0.2336066759981619 -0.3528575681841743 -0.4629947640707471 0.8161790735199289 0.8521948038515712 -0.6348063976598752 0.18552953673859068 -0.8719071880304485 -1.1973893149341108 0.06630106114362608 1.4211820006767442 0.6493048020430574 0.42498335937176046 -0.10822486324180769 0.2531178216460495 
0.5428773848478738 1.7143005981458312 0.589606132330608 -1.0916236164013593 0.62078269486646 0.10950128316853625 -0.6420391745031997 1.2632962468130413 0.9949274767289649 3.004153699081702 -0.920157978930222 -0.9086869242529416 -2.0430022195856754 0.478770896855472 -0.9915165423215928 -0.31697537731042863 0.41876733346769546 0.3338234673622037 -1.606769303563991 -2.2181376766994862 -0.010484780228163074 0.4138892328918053 -0.9386497997771439 -1.1823636278003558 -0.2736395503110307 -0.9119978637759755 0.17612847306111898 0.13285677270936344 0.6100312061970812 -1.561080495812943 1.2255505855593714 0.9943903052023837 
1.1002137254844266 1.7533503020424053 -0.8074612239903496 -0.9877770204977728 1.0152421600897 0.9440478969669559 -0.0033010588683791238 -0.8210858719205921 1.090926659379924 0.8144345546245688 1.4575745533434679 0.936817603986473 -0.9178069239502911 -1.0816693273296683 0.0753546755213214 0.3843807135754927 -0.33023442401137837 -0.5427121595245589 2.0300139416413536 1.1686364720753284 0.10791853646687263 -0.6089558746245789 1.0632756594117416 -0.33344332669432514 -0.06652849101801427 1.681734537095585 1.513025359696485 -0.4129983167701599 -0.21706829505378997 -1.8427943830327023 1.3703129891800643 0.4188907909288245 
-0.6003411643968503 -0.4918182036453738 1.780556680518676 0.6394151178820024 -0.8455062892659553 1.5692240249513993 1.580522237535004 -1.0628452832997575 0.4818871753029727 -0.5201744271749694 -0.6482410976134743 -0.7361417988119371 -0.9379404358584199 -0.7032725085023804 0.3856879984260719 -0.3460543842907938 -0.8085385854800584 2.052755730004457 -0.41972656938028724 0.9325547004785529 0.2912189018645291 0.8842308166496953 1.0730778291026644 -1.4142953317665061 0.011428445220061987 -0.03534044336260108 0.9966511777634325 -1.0020618692579435 0.5326247858068976 -0.9177037084830668 -0.9414157961928387 0.8895456578208364 
-0.5773520752316559 0.14227847936249663 -2.2124366946496465 0.2689025466199698 1.8278281137573011 -0.9157426337625215 -0.24933018693072104 0.06788070469127651 0.24461077733437578 -0.9087031102525644 0.44436758714528557 0.3880917684882354 0.9173393493123626 -1.4818824293749278 1.2919673372690335 -0.270852375861274 -0.02839731157945939 0.9974271257732524 0.7755536303609377 0.02169013858099575 0.38149690443601736 0.2818764393199817 -1.2936115399954367 -1.2072148550292858 0.7405043182984319 -0.2133274069493028 0.6562884002757298 -0.8754416666601973 2.0535596895875186 -1.1212061385827532 -1.1852068376999625 0.22694122290005395 
-0.4134098039380184 0.6544123999687222 -1.1828770703228007 0.713605539288445 1.4246795769501956 -1.1258077370000503 2.8178994509136492 -2.1810430770740106 -0.1447384350910073 1.786679588749316 1.3895551258261605 0.04284488902948737 -1.0291600668310694 -0.4211931968489171 0.18238097008390292 -0.7862869714042099 1.1646506487904438 -0.04421094660942631 0.09924994373943172 0.2619531986294327 -1.9521091138756503 1.1914123876829192 1.552306794684991 0.5910234670794267 -0.15183354598858254 1.2259593780133666 -0.3569343017679579 -0.9396365901896638 -1.4616672335316796 0.902855628640609 -0.565810181077975 -0.19628427378391333 
0.580674701080661 -0.8547674361212537 0.8585859007263135 1.0365916793298948 0.37556693531621366 1.271549499140717 -0.06740599610428545 1.529811414258718 -0.5013844548098121 0.4997895345833213 0.304021127139504 0.2741427353139058 -0.15522728583437861 0.6176844333146119 1.2314937567835231 0.27070866656893655 -1.4895674236507714 0.32098339836192785 0.5156469280312599 -0.8383367928452532 -0.6686035521158079 0.6789932185764045 -0.5744870873975876 2.9027093866133824 -1.0515463608109241 2.3990897892930603 -0.13946992612598239 -0.2747174394811909 -2.6525629880201236 -0.3667190388774946 -0.823304077463711 0.2651523024068689 
1.4147234650778249 -1.1211295864252584 -0.4746958383231529 0.3234941287714117 -0.4377631405188074 0.47424452601269645 1.3366962814737515 -1.8714750922748675 1.2284874118712146 0.6016905921695218 -0.47788037839145964 0.29030413134518884 -1.506162703103144 -0.8648467295527519 1.489362905511513 1.0139912791446781 0.4644014834675634 -0.18242651023630277 0.6788050657074881 -0.17869365499326736 -1.4418306815888322 -1.2704750812550096 -1.6190001355941577 1.1212661732858538 -0.4705493352008632 0.08424367605319649 1.20253218934054 -2.5651044584991927 -0.9652750508877731 -0.3654241590992707 -2.061049867523744 -0.7677860083284409 
-1.3952899090721957 -0.6287787312695583 0.5989988547323991 3.0147112003154 1.0349703862482307 -0.45233972547368306 0.8518753679596662 -0.3235229881825207 -1.7055559172781052 0.13818125923169958 -1.508064005588427 0.34056962790287976 1.722680788509898 0.06017364352659481 -0.04773695004470728 -0.9489744988289095 0.07274845140268951 -0.07913421776196546 -1.0401914218888744 1.4532262374586542 -0.6865957969772896 -0.4169365991773066 0.667560771565801 1.3680579125367456 -0.3618725626769252 1.7748860961303308 -0.6976032300683617 1.3575080848778502 1.0829656740353535 -0.249541798170145 -0.10458059679672403 0.3606013930603909 
-0.9332155022123495 -1.2859168564167038 0.4436462429076625 0.23127277862781354 -1.6229440207188361 0.671138087324491 0.6015574307999781 -0.12821444389866002 0.723661159712305 -0.5182357020822794 -0.5679677870250456 -0.31975543097761105 -1.067793429343424 -1.4622573225762552 -0.8860613068855612 -0.5679719383939544 -0.4923519234684642 1.2941720077888321 -1.0908495372741642 1.2828108869387032 0.6558550281597764 -0.47217316255626635 -0.622451825099721 0.05164933116106834 1.7485775892148585 -1.0322535499545358 0.500181231856943 0.4878211056571965 1.0400736230037522 -1.385333838701099 -2.1661534136276943 -0.32962402887502296 
0.36449617573066456 0.9478433907945583 -0.6887412330395206 -0.6021568816182743 -1.3113957750120464 0.9164912112455228 -0.7350919845899425 0.7154605844927427 -0.42601910105863094 -0.2732245830738755 -2.2568658167284177 0.4994490276050231 -0.8149921097428692 -0.36465444917412415 -0.5083377674380324 1.56398676153822 0.13464057527774317 -0.6240597717094888 0.6320349857489848 0.04832320562995838 1.861142757628628 0.4470277254897886 0.6496588830058565 -1.0463912190291438 0.28388662303133416 1.5159456961458333 0.9328911764187923 -1.89689697967091 0.9766680444501292 -0.1708694163489882 0.016014635236952575 -0.17455785579830504 
0.9163718820258118 0.05009593164413068 -2.2619043716767546 -1.8111320711960066 -0.351223611069116 0.599366615636547 -0.5304795981129458 2.1453079673185473 0.8269949579588718 -0.2102048723491402 -2.4446280852272837 1.5681730995157035 0.8830047417546213 -0.27484091982993564 1.0983025918185565 0.7540580176029814 0.014527622349459103 1.129459930424412 1.4055243857000783 0.5340885703389745 -0.3881707377209892 -1.6212586711649843 0.16081466536288058 -0.18568476707879006 2.43427739266552 1.4572454766391996 -0.642849705432529 -0.17890854145310897 -0.5912712722323524 0.44378126487201214 0.06728513055371287 0.05329844735069048 
-0.8147761190624906 1.0072279850075054 -0.007499918641897718 1.123370011480118 0.006125306744140709 0.9879717765305648 0.6731625903922036 -0.7342104383918365 1.0641174237902231 -0.0825626239359007 -0.39384250645529884 0.7860675583675403 0.3796505305016146 -0.031754389291231665 -0.07465035146446741 0.15124437664282522 -0.14347016626571774 -0.9363786534359941 0.40202498308325657 1.251123101065283 -0.4522802114518395 -0.8650329181754107 1.3369503598719719 -0.7093216855481106 -2.62506998008468 -1.6788873146990644 -1.812292308886293 -0.17677947326329624 1.2807610422605038 -0.8327494352797069 -1.820152353953522 -2.0821710435074503 
0.03101456959593629 0.7023913945983356 1.9634831374019748 0.5117439862327186 -0.5812535100054809 0.4248556814970531 0.37658606122262617 -0.358433147968993 -0.26090546460234004 0.8883959098513696 -0.3136434322940617 -0.11561650004797736 -1.1686111299194557 -1.005272002711684 -1.2373900390322503 0.22090223035127018 0.4654696323748664 -0.9159726320154302 -0.3045301320064668 1.3446113044915369 2.110174676783673 -0.2811844618181184 -0.29349161866725604 -1.3169350057153175 0.08827023573581237 -1.3952129513142457 0.4142990006886769 0.051429654410347025 0.04975355284623597 0.42439293613563317 0.16325269015550434 0.7650633803627951 
-1.3607755511868305 -1.8062285505855766 0.005971685633324828 0.23619433420727087 0.08925503478298523 0.2282934081485436 -0.06080037105892574 -0.6953488679875677 -0.11059186776724875 -0.30530232521546563 0.3975894932039429 0.34174821896651014 -0.6278966635981932 0.6945688206202741 0.6849289956629506 0.9865927065417557 1.0910469061927663 -0.37794588244402877 -0.49706381355784207 0.26743111857988017 -0.037810631501022395 -0.17734154160492072 1.9416350214594134 1.6373288733647533 0.5326150173312593 -0.1617100577050693 -0.46370491950371373 0.23096178772714365 -1.5245890798341701 -0.873237402973421 -0.4908399652420373 0.9313849547862758 
-0.43737002817078613 -0.9202404618264632 0.16390690568980615 0.7229053497398833 0.8408346845684012 -0.8320327892262017 -0.5824308616668684 0.17623130276196056 1.017051901815052 -0.43168763856568937 -1.3094378997528762 -1.7166548998604954 0.8476389870378603 -0.3227615766160677 -0.06765910022483825 0.472242274193186 0.5979359598467706 -2.1052161914196894 -0.6418735132786365 0.7493239791816714 0.6346191348334483 1.25049789009918 1.0674298082189473 1.130715521155897 -0.4058776339720518 1.0559210033737818 -0.7059677086567426 -0.32467685213218084 0.9459645741653664 0.9813645323412555 -0.1735079435790579 0.9767562541553279 
-0.11312208495194716 0.01841424053136655 0.785553700536443 0.3465786076712672 0.8831700964531971 -0.9638799914762272 0.5529525708354598 -0.9497359095782402 0.2033099200718013 -1.8617959814725158 0.1675462422462727 -0.9030005887207213 -1.8945584752654252 -1.0360127288034477 -0.49064303497123807 -0.33684810456725395 0.42976631559148226 1.283820363443836 0.9075749190794307 -2.414930802058086 -0.05829428478906727 -1.0603637799020749 -2.0211384726931905 0.9415715915392804 -1.6475304817938994 0.8262699047391148 0.9530190667241424 0.22637370843291157 0.906024052513146 1.2780122631709998 0.2825649080345356 0.47062775657210587 
-0.4687121763654624 1.267580114260156 0.24215547688093064 -0.30015191190507806 0.08056043379825231 -1.3365522846519298 -0.26894691935633935 0.969339745815773 0.5995083777493421 0.14736352813211448 0.564270359267108 -0.8080762992885729 -0.19342399553727052 -0.6644111176846851 1.525952601535251 -0.18714501164036418 -0.01829539164832711 1.293907943079745 -0.23908567342541487 -0.0771395979156649 -0.2770470725478368 -0.48745519472459004 -0.38389752553243944 1.5092555843166553 -0.04771345880052458 -0.11781221721876758 0.20402138226776453 -1.1447969432336978e-05 1.5013068390581978 0.5224560886422784 -0.8390931096379304 1.5972050362344197 
-0.29046791764664126 1.491453531971591 -0.6888561735623457 -2.6051644359466226 0.5960550579968751 -1.0509443096331597 -0.798132684569952 -0.05926038570453407 -2.492081010640345 -1.32629074581758 1.3790786981626955 -0.48737624692837306 1.5549835870896274 0.9149287182760181 0.8278990873624614 -0.7050158865091499 -1.3880095063845057 -2.309267413656209 0.6428977890666228 0.07928141038318323 -0.2603155907257338 0.15172954823901608 0.0146086719393174 0.7630468911097248 0.8483203297167244 1.707430081913253 -1.2329990004095672 0.7050986847934199 1.6883200698439573 0.7473969336831148 -0.29094485723239394 0.40799572984894183 
0.22170032976426535 -0.7231505292950834 0.1287044869544629 -0.7466869940248048 -0.3664405595367972 -0.18050319295360304 0.04055225349860442 -1.270427338949484 -1.1349475059847793 0.9348091144581757 0.8574751252242515 -0.38336721659382195 1.5325358447511332 0.08628458364209973 0.7268733124749122 0.8514281990274601 -1.287724491782988 0.518991935828355 0.3343188375180875 0.768271177486211 -0.009925129187418363 0.49120168301539796 1.076080466162419 0.34897720319296305 2.0649691577890117 0.22858601147972837 0.8045691165711846 -2.063853975724022 -0.3129510472512101 2.282605395438845 2.3414185025113383 -0.5547787659220784 
-0.12389768799806739 -1.3694966723417812 -0.9810152385729857 0.31921829824905784 0.7773773099103772 -0.031036697922687484 -1.186936041603909 0.9726684794367266 -0.5071300168902885 1.9299055880982325 -0.06313678551905705 1.220734439563623 0.011585250449708762 0.6631143044849281 1.3613045148491516 1.5823368693708473 -0.9671815740254757 -0.41614924985195173 -0.8976450825094435 -0.9729947537024095 0.7588377973319599 0.02053773762264229 -0.5792246492750752 1.2917372709654014 -0.03143835136881512 0.0054599709653730105 -0.0451302635655228 0.6215013852305387 0.6636913955920221 -1.1230103873804889 -0.5577794399732513 0.7840172183293993 
1.3505248386345197 -0.05483998213129993 0.35213549296617497 -0.7346540137707391 -0.5701796569622378 -0.4303128867526542 0.2841335528056936 0.708519337496519 -0.6465972675763573 -0.9448654222897029 0.18532477711094042 -0.905220248171086 1.0302376076870823 -1.3896209232997723 -0.5991206816273815 0.030288766316348237 0.5038865573149254 -0.4604090827674354 -0.7464525238301739 1.1218912603688735 -1.2563641793777287 -0.30806207657082435 -0.5364984115062175 0.19742912203334823 0.6132116780239831 -0.22990627712718062 1.1859279674090366 0.010792677981436818 -0.2509441963003112 0.8260146098879042 -0.5628239116817455 -0.10081635613087651 
0.13118275212439326 0.9402172777571692 -0.09415603778185239 -0.10171899345847725 -0.8223967898940212 -0.5505174851149215 -0.927949719447232 -0.8335546962728047 -0.7875306870702651 -0.39313604536316155 0.6898125749614077 -1.7031490038479769 -0.3394211157580681 1.0565536552808716 1.1056020516720708 -1.3834304366548538 -1.0701181458444067 0.7938900911815235 -1.6928810332194728 0.11968306184785912 -1.4381245183960905 -0.2893535528237253 -1.276260398651696 -0.5615945659737651 -1.295914781989077 1.7520021264658268 -1.5423907983933667 -0.8248885072336191 -0.7654897433147015 -0.3007612668973081 0.06190285351009776 -0.36987510479953584 
-0.03131744417567686 -0.44794024388497755 -0.12938683779899324 -1.341705519973521 -0.001244181410155396 -0.34383035677985296 -0.7555414566510679 -1.2653581597183108 0.21392001292739288 -0.5628621251059679 0.280673268155848 -0.9590022346198739 -0.3825151208251892 -0.458521229571854 -0.712225166834558 -0.7460489254740632 -1.018776986646973 2.9281550480719627 -1.8087274195491259 -1.2330248758095994 1.5460949453885753 -0.5617413486287149 0.3348450842135828 0.5649686969197028 -0.8202264889265455 0.04331041922847212 0.032363368721661234 1.2920104975072355 -0.07652111198824249 -0.17854516048015304 0.6084863423091484 0.08464726124489069 
0.8129070179254296 -0.9497408165010698 0.4085339702793067 0.6703016060577783 0.9896585482550218 -1.6446308074465563 0.12586209243286345 2.596069801433665 0.32196822626688193 -1.4454732040274214 -0.09892751433834174 -0.22561152259524794 -0.25001340528503807 0.5805193637320779 -1.075909211018107 0.7093301445660326 0.2674522190612317 -0.910011588980277 0.9030859725343836 0.005069907406001434 0.5056045804257937 0.31941884621886757 0.14794139817829402 -0.14505485933448437 -0.7362212734692768 0.6914136727091251 -0.7629579555312311 0.57019573743475 0.1963874098415567 2.6584820639945774 2.1080737457531176 -0.35253978933565466 
-0.37362162923776304 0.1656672663954587 -0.6318709219856545 -0.6770644922780986 -0.07174434244019791 0.7072096346644743 0.7792655383816178 -0.8442493345491803 0.9283517226176564 -2.7218855946842657 -0.6061363182592701 0.7733802450172372 1.5671667968473904 0.5162109264532655 -0.7003996542437494 0.1314125689821114 -0.8656134571780831 -1.2893818172615026 0.3346230570771738 1.4428742664221332 0.575632686091407 0.10847724938793234 -2.1551997832551435 -1.244012204780884 0.9394922933378994 0.7665724666469123 0.04732549664048705 -1.127049914019218 0.15433869914842807 -0.7808220655568581 -0.5739348966722122 1.4055060628711329 
-0.1408979321374551 1.0302189387361296 0.655065410075478 -1.249816053518725 -0.11381425085686521 1.0468702473825022 0.7017113009145952 -1.0583039772305374 1.4226144503318663 1.0218851771667663 -0.1753291832375816 1.094037956506052 1.0820035918944424 0.8091568738592066 0.28720916707236893 1.0827566730080316 -0.32753664879843797 0.06745518186019701 -1.6765547520150001 -2.0087635606715826 -0.8861464073952293 0.3120006854045139 -1.3529816392037732 -1.3586283097373266 0.6033617607960375 -0.9763961907155504 -0.14167155353858635 0.14033104898427953 -1.1949907660701182 -0.9702198017373426 -0.7784852370196641 -0.6065199054398868 
-1.108825113385227 -0.403922839170183 0.8997240524532069 0.006985046329289645 -1.1927467882653735 -0.5102195306842462 -0.4786455158525939 1.1236096056463853 0.13163266415607222 0.6106102115306375 -0.19974382093476548 0.5205815362307797 0.6038623323341042 -0.17412460871425325 0.5010525598316872 0.32907566149237766 -1.0967815651205937 -0.26494245396989746 -1.1061580221828655 -0.04772424829155248 -0.9351026338680091 0.08861833307924134 0.10239272689556074 0.18718279838059343 0.209392414296045 0.2571754099098456 -1.3878025502742128 0.2991620804881588 1.489818018341428 1.1163732227356506 0.3523458537873427 1.7342553006431234 
-1.0878581708483126 -1.1311148441855805 0.08860311997514703 1.0205352439334718 0.621175713678439 0.235865926622161 -2.0919645094120978 1.5455886603195923 -1.5725265228165781 -0.5063680824094733 -0.5998401850954589 2.8527587228774087 -0.41158065815979317 0.6420941527335069 -1.2491816019473483 -0.2567901738805066 -0.6909051796075139 0.5373365574459772 -1.833708499662642 -1.6754764365341366 -0.060732101542420064 0.24561334562012474 -1.543837973976917 0.04463814917395915 -0.6009712469918073 0.38048764361689835 -1.8222305865064914 -0.7281418576805947 0.9755051679776463 0.5499628996825061 -1.0246157829379992 0.0669192228978652 
-1.712808070036941 -1.5436541644183626 0.9216884124172807 -1.4635871676531662 2.078518323329477 0.7490730999005749 0.3526556403935824 -1.5269315952047982 -0.7042196064993924 0.8355169633402433 0.1262429420510669 -0.6681796729516676 -2.7839155755940563 1.8807963506670562 -0.3470803650974191 1.6705249114965564 -0.9532976847322581 -0.3345221736467422 1.337561669832861 1.7467233839145653 0.48004753272882267 0.2740635170108833 -0.180975888278929 -0.7919458328637536 -1.904299298009686 0.9212034628421796 -0.9794974648295621 0.035925966617286094 1.0070151167974135 0.8857154001155031 0.555199173171173 -0.14917276439727317 
-1.0055845122822384 -0.06798757605704628 -0.013000909862836906 -1.6250942129175383 0.8190851363151304 -0.6716502952703406 0.7360431764143682 -1.9730250232375057 0.41430604104936763 -0.3428031301391952 -1.1582112858836622 -0.19472225902603263 -0.3674246502189951 0.2187521203976912 -0.8486483528920308 2.878198450050549 0.8450152632985856 -0.6723172313620941 1.0375506886863815 1.553979187754767 1.5061802525815975 0.0440529666730013 0.5920727105960517 -0.6204682590671906 -0.3095599170272793 1.1366850146999388 0.10988623236728429 -1.1970559311737838 -0.7788710249146149 0.7000616311272013 0.7380453214734847 0.3006302766707494 
0.6925475610870352 0.32102788267880467 -2.5933677700596776 -0.22748905882119175 0.1550815961680581 0.453790288726356 0.3782096476236474 0.21087906969306583 -0.14940480713746845 0.9405841064238708 -0.017256548981832612 -0.1758762009645678 0.5016810630163682 -1.0309267119949383 0.2589621111689914 -0.6760653427105519 -1.061675735901005 -2.058527623503721 -0.05317547158193066 0.4248907091560646 -1.5890763472145486 -0.8022777235278308 0.3577438683151544 -1.684951564133288 0.3590296595249184 -1.926703007550977 0.19625150176915837 -0.28233628740870814 -0.13027701791929977 0.268318905257945 -0.22949453776000114 -0.20720629609977173 
0.31495031311712784 -0.8408736118996326 -0.5201412958827426 0.7579839917170828 -0.2066538419904853 -1.5161597497533317 0.14396913316016036 -0.339945881469611 0.9064113809562756 -0.28111165214948597 0.13228026694075834 0.4429337906925066 1.3360833637486658 0.7503253748021056 0.54905518571104 -0.707397230742847 0.4101592993285707 0.9448313117367453 -2.0201988685261973 1.3965819526975554 -0.14879338476933418 0.7761615839674724 0.5400603604196851 -0.13092657767811236 0.7742888141359769 -1.6636059354336357 0.08689036498937507 1.2699076750990934 0.6370761237826568 0.058981821170982614 0.9226240126264326 1.2851564174588408 
0.05508096227905195 -0.32011745079863485 0.8136941311890259 0.3151373594414979 -1.3041882041857373 0.4932300023377215 -0.0627673043544978 -0.7836863776779526 -0.7846713648318087 1.3557228482654566 -0.2734594498235732 0.8007900746870785 0.1661763327659924 1.9929286587043846 1.0862062841458568 1.0540482361816141 -0.073046905908139 -0.22855124154000436 1.723288843602466 -0.309347895721456 1.3522872497076965 0.04370297709868398 1.2994429092540358 0.04519446641033936 -0.6131547886837424 -0.970854659214846 -0.8954740642460056 -0.3975070290316845 -1.6672124632320915 -1.3693703341149082 -1.7676097352968165 1.16727324377704 
-0.033781439696655924 -1.0107473624485006 -0.6040871720193606 -0.14828178915250315 -0.0012531633450284761 0.0625081412765653 0.7422955558130221 -1.4413273473444164 -0.5216041953132814 1.2144642033956918 1.9612272704141176 -0.20554072799687675 -1.8548201911758744 -0.06515641490396919 -0.2113903392430462 1.3194534177047652 1.0420996064908523 0.033503765208252954 0.5723611224102716 0.7733389644648065 0.6647381650515948 0.32237076669135833 0.730827203369511 0.5741429874295313 -0.4887842565884614 -0.3000484826082313 0.3259765545476204 -0.4600331985952835 -3.0167197504415433 -0.6174284907614865 0.28854556507158036 0.18487260272932993 
-0.6281621806924925 -1.3277195606646124 2.146265601173946 -2.065311401657349 0.6564236888956135 1.5535698829588365 -0.288981719893766 0.5095190368836339 -0.4729624923930606 -1.4797219613812151 0.40137627227098077 0.2209020429914985 -2.8642715344875667 0.940586774980553 0.6490758377619156 -0.2683114913385042 -1.1300569292899871 1.4304183369701409 -1.2735240477561853 1.1443973388076065 0.4537386795074378 1.526530946192052 0.41707554339539243 -1.7676756975582049 0.2934148057365055 0.1631360595777931 1.442748975363858 0.5996445121452685 0.022456542669403338 -0.9743553701267706 -1.0115731730736517 0.4273943274175446 
-1.7647802049558956 -0.011899172225138439 -0.8272679882166432 -0.28653460696493793 0.02393313329682808 0.3877610686006649 -1.5621650261165598 0.4104036589860787 0.47400322370660714 0.835104583818264 -0.9588809274100909 -0.6732381895070391 0.5749244342670027 1.2050222554481873 0.09199664735220033 -0.4701912278361293 0.36378624775065543 -1.6360576281330512 0.6937054027171061 1.414620698442712 0.03916354642360859 -0.6891165774733288 -0.8227844189810826 1.2605517391327734 -2.517015523153929 0.2920709874159036 -1.1351494992452098 0.7580117460376796 0.13989980723651763 -0.5221954648088626 -0.1062959256192674 1.1898561170345239 
1.0840584282062602 1.0155580466065224 -0.3747693135450808 0.14317571166821694 -1.765917804433695 0.16794073207507204 0.9697097142319322 -1.605397351163852 1.5615227812489698 0.12608111414173595 0.008898326599659449 -0.5522176868827281 1.2756340676842408 0.6197888605504651 -0.18765193443154193 -1.678611191868546 -1.2698968896123015 0.43153210938889713 0.3657020714110746 0.23012428579920657 -0.33203327339274974 0.3277863219446047 1.4270607214868807 0.7762752466681941 -0.02541295067704176 0.8853777599641616 0.4536975100692784 -0.8466979653901898 0.9381965787199537 -0.5643827812937283 -0.7087186090135058 -1.020867038598473 
0.9540034701052922 0.9783937133202901 1.1730271040453306 0.5239772152021396 -0.25787511094477283 0.6030656379828118 -0.5797669521882218 0.30126564360859026 -0.6728859441047348 -0.5767303849812087 0.4096839007719421 0.7719458753383324 -1.828141750578049 0.11212418150592426 -1.3841363710811676 -1.3559481817398138 0.44898905809180445 0.6025550149687647 -0.45906052618753684 -0.33097638395243434 -0.21753281466438917 1.910813493300099 0.36280593542867173 -0.5268304059200289 -0.3193633565326163 0.645942722397643 -0.0022852497907320315 -1.2075524793239476 0.007015553124646506 -0.5658283360969038 -1.2624259939038163 0.5477613783440172 
-2.464691771117438 0.5296779824586891 -1.625723935364646 0.7349536575349994 0.5468716303164326 1.1468595061837976 -1.2105609751634272 1.4492437181619828 0.749523232127234 0.903597553644085 -0.9031190229047774 0.001655897855327341 -1.3341550261380202 -0.6105081430853887 0.08807335918829422 0.12456633788519221 1.4391572509728054 -1.2564067169632798 1.689026327635097 -0.054101146754355504 -0.6707946077740821 -0.887887281591904 -0.136118738259973 -0.15695915627253698 0.008663095474812666 2.1592925569661867 2.2005976291960656 1.0002013713063809 -0.5830725897658966 -0.034121385846625045 0.4257144897077971 0.7317773386968411 
0.14748591467890193 -1.0398450722147858 -1.7187097188006817 -1.366006859681802 0.9778609348801642 0.31482119239587775 0.20169740131894628 -0.08815338112781387 0.6100812137847558 -0.964242647538429 -0.1651858192136217 -0.843064275119099 -2.674975705326119 -0.31944902575528467 0.6613587031484857 -0.5968667306800941 -1.2071430914988077 1.5469075570924968 1.673108961229709 1.5924887804296066 0.7625137833321053 -0.35127909277633557 -1.052819768263673 -1.1311451769641385 0.5273997086674121 0.30336390651478085 -1.5560197019057098 -0.27448058821966026 1.2437956244931463 -1.3554528672268988 -1.0970474658557954 -0.98604069847612 
-0.518801586284796 -0.1735338648432875 0.7107720731430486 0.39907863695123225 0.9157569661444542 -1.9229432905007198 0.0038207028187460276 0.32763336843294344 0.032853171717839746 0.5723176607736785 0.38577365517854223 0.003055057378033854 1.230538072391638 1.6169678882867653 -0.41154799555753835 1.1764835270378393 -0.4508785894833265 -0.6519029729912834 -1.5212456953866091 -0.8013715803089007 1.6752046293412959 -0.363176778489007 0.2261598765997447 -0.23076539502093996 0.3019170159055319 -0.932256119238541 0.3500808441743658 -0.25328076341044986 -0.7469898661373671 1.848154464662183 0.04614134333684792 1.0540195719727237 
-0.43624188300729894 1.4267930594633 -0.6810013475353317 -0.5446426010339708 -0.6736978937091306 1.5561386230716516 -0.7938849878036092 0.9555626905709008 -1.580769959788693 -2.2463282226258725 0.8620800729569176 -0.94141036368982 0.31493490537258956 0.8695968047051317 -0.21419428469165447 1.2834602242371398 0.952825236697944 -0.046187132245421834 1.678332686507115 -2.7452324153830827 -0.965234348486221 0.7247967327383444 -0.7656647057948174 -1.0420046104475484 1.2384209666947632 2.0649856966693743 0.825466067870381 0.24488478152603796 1.0764964788352738 0.03672019112421658 0.5020234632382237 0.5040009015113971 
-0.2602930527400701 0.6389238128000289 -0.1425109275807468 0.004070436353105011 1.548957076639608 -0.4553780933461976 -1.25411905234628 1.1010319620988938 0.48808329535193373 0.01652386901686303 1.182653212067246 0.9813983977130412 0.7268371475774128 -0.9169197402225537 -1.1377937047962627 -0.6655516683580776 1.729867699373192 0.4125700207472478 -0.09091125667290732 0.5130719964895307 0.5687794091410823 -0.7968980244263827 0.6370349261910416 -0.429322329310256 -0.18881992835866007 -0.006678903198012269 0.2606801049620158 0.7947497494497333 -0.8496854098342375 0.3927210392108302 -0.8205274891438259 1.6180478114041466 
0.11217367877670385 0.6753722561578854 -1.236705594729093 1.0446449113022358 -0.4244920157334887 -0.29682113565101664 -0.27216379421366577 -1.3862824038712473 -0.8060153961063874 -0.35149712050111404 1.2358028800121112 0.1574172894860242 -1.2753299389186468 0.271740146229908 0.9680860834795544 0.07715275650799977 0.41438281742732913 1.8732028854809946 1.7710946996056343 -0.386387944051789 -1.224722833663061 0.4374857835128964 -0.7121195215845878 -0.7940753732882914 1.1060464307356483 0.39286846866923086 -1.1069630813509317 -1.675501892051139 -0.1668486973520123 1.081434173819405 0.7486988585548826 -0.2943260655512137 
-0.30005631467470395 -0.0222782425087463 1.5359415108514234 -1.4350412215968982 -0.4542846125090116 -0.1755850512540381 0.13573707065078844 0.03195616477098555 0.14532259428816005 -0.549151073274296 -0.6337432965421648 -0.4177240278442285 -0.7253341736118477 -0.9048005431366898 -0.6039601587423207 0.35216012605935687 0.8064826027680008 1.0427592449724357 0.02944354135311523 0.15230868211217868 0.5637774036550722 -0.012206167040316997 0.39193535661885703 -1.445047063384185 -0.4034887382367667 -0.005681107158074202 -0.94325101584373 0.5316379409213047 0.14493701175213647 -1.661725322468292 -0.10454908165277846 1.1571607753927131 
0.9937913028445925 0.6301772594678687 -0.11157142880609104 2.4477217832179607 -1.117595172058647 0.14506649794508628 0.5941479245220308 0.763022044743883 1.0577648155657917 -0.5367169210844555 -0.3323614416798074 -1.4694883717787321 -0.19972424070481914 -0.12203925118734199 1.382580853577357 -0.7799920505250262 -0.18658928818114678 -0.9506147528344563 1.491148687059714 1.7918806329428603 0.07667980624626645 0.6330584825781509 0.4635891404302783 -0.46534567302009217 -0.2324818856594796 -1.199207894239312 -1.0254025279249646 0.8843284025562229 -1.1967145894559483 2.007815261093265 -0.880087593152219 0.7429279029313621 
-0.17408860158573666 -1.670195186177025 -1.1930836151045654 -2.4102837825915238 -1.1699318865878197 1.9036434517083816 -0.5845801451755314 1.3363737348566698 -1.5945832012538819 0.3925364910561948 -0.6994543046489284 -0.01836378539719331 0.3714095947718421 -0.6219256913910434 -0.817794796052742 -0.08461977396262733 2.5906268243826784 1.7825504789178925 -1.1820071487111772 -0.5687257224476255 1.6684473861434428 -1.1291022047970711 -0.40051814424567306 -1.0109945350410985 0.8954422151984768 -0.4231226566788712 -1.4826782587146556 1.841553461403872 2.3122706102032233 -0.39379899621939296 0.49134337644162446 2.0508572880481144 
-0.9432794403433186 -0.7510855381482032 0.5898321828588013 0.3717521413956538 -0.7877558140912461 -1.805155434074033 -0.09389219733812157 -1.700010085230667 -0.5868598678654661 0.026806798663913244 0.6655849642313676 1.2733666996737814 -0.6412573938069351 1.0664184158129053 -0.31952616408295 1.3136249847981132 2.596166377824703 0.5774516479244916 0.25969934728460053 0.040800985939705825 -1.686804103241788 0.6381773490765758 -0.7458814455639756 0.4097166238001599 1.1849472084242205 0.45871404022873163 -0.2587005907356482 -0.5356013206250977 -1.6203302695786301 -0.993466498579752 -0.3991673789672133 -1.1398038709344342 
1.1226123133873807 -0.7722690034625806 -0.9547979132532176 -0.7070989802167178 -1.4096609742244357 -0.9447514805683509 1.5374158277057153 0.9361147197887337 -0.42985798421996496 -1.3303646773910665 0.17577064965263225 0.3350697863461726 -0.7112357629642071 -0.4719040384330565 -0.727233481858046 1.6011703753035047 -0.725009178807125 -0.45519867783704376 0.6020197474305613 2.033214948699459 -0.5669141397036556 -0.6980722373423222 -0.8716055192766934 -0.4044054387199827 0.5572548987085468 1.2299273847579606 -0.6114472186086782 -0.40040815347264075 1.0708898806563383 0.7539133931018553 -1.767577868999252 -0.5303852378783941 
-0.7001982247268849 0.05738720795323076 2.0534238819197705 -1.113619633405059 -0.20846832632041612 -1.000959173569564 -1.4597121820685401 1.3157747326443348 0.2023760635273062 0.004182795369016664 -0.2531950992475764 -1.7538447270362754 -1.0142768945183949 1.2556028826833936 -0.6423552129504178 -0.37230529550036384 1.6546740369220774 -0.4760772241771549 -1.0555047807861522 -1.5766704402900245 -1.2963650638172903 -1.8735278156376143 -1.4141254231996134 0.4638187955510662 -1.394449759078012 0.5869478792638999 0.21656966358538843 -1.031529136907225 -0.27948360889119145 -1.063477687187373 -0.6450748878920387 0.39159157634667574 
0.8889989517516931 0.3089014488033323 -0.641742660436434 -0.7758882360977748 0.31560056638781364 0.28220900771175084 -0.701274608736417 0.5574028465455548 0.42495689270739695 -0.8071480474482785 -1.3100940184904186 0.28315186851299995 -0.22186051616200564 0.9527550782971702 -0.7665360695301808 -0.07325692567009605 0.31619920094742615 0.9487687990085739 -0.38911692043137236 0.3223621138696258 0.8280748122058901 -1.6692298402624486 0.5305753177357779 -0.6097865418806275 -0.06843810895549728 0.3702169712459415 -1.0995048854221219 0.24852844725011225 0.12090189999082711 0.12443923076321964 0.5093212414969112 -0.6358128241871979 
-0.37552653849529205 -2.503279223301597 0.18263640499772532 -2.4943306544971 0.21302434692652109 1.9199384900771468 -1.0215442660653544 -0.7871917070096236 1.3027550967386619 -0.4839372064890046 -1.402212188156158 0.30658374563234103 -1.7510613708041907 -0.7164719966621261 -0.4439784832644567 -0.35876839869908295 -0.7238823707802182 -0.042014949670293504 -0.37441651577227386 2.028195484652195 0.4278054474593196 0.90881064893118 0.5878494631850083 -1.2921236764989714 -0.06896374187854531 1.184939768486249 0.7280947454712822 -0.6902263568052973 -2.3272833184992847 -1.5187908242402488 -0.8457256848362615 1.6421740572318868 
-0.15994044457272016 0.3353941314519173 0.5309946923859573 -0.7493638816902873 -0.5378068468077771 -0.049258968057082776 -0.6190467698069188 -2.0759730427859355 -1.1030094785590525 -1.9901816682727203 -0.3597913392709194 -0.20388133898835067 0.7490899865182703 -0.6440031538759147 -0.7181924799375473 0.8264369344510405 0.3589933007747446 1.3003241518987139 -0.20440585878794487 0.7864184287818643 -0.651273831552559 -0.8225367658413942 0.7213860125005382 0.46072790578016387 -1.2377214286459666 -0.37352490055921445 -0.5362226498145003 -1.3120610886893396 0.4676238028272989 -1.520933514214487 -0.14072372797897267 0.3597611351975391 
0.15940943648543585 -0.9568751259237701 -0.22608389928590494 0.24167111282197826 0.14170788707743823 -1.519707377792301 0.24568302325146887 0.6633637165575581 -1.0980788666011467 0.5354035642142404 -1.3737256869483074 -0.3232616918003843 0.7126707670384291 -0.031200499792913564 0.6253997110237891 0.4811832714918948 -0.23198543740533595 0.99807315757948 -1.642941374030479 -0.01881925052719325 3.4822916808549387 0.3246283836845449 -1.4119615556886702 1.8578478370536142 0.356988904579591 -0.1508902815837295 -0.276202098887565 2.0315301330775215 1.1174948837606862 -1.4629813493673978 1.0744359605938172 0.5532801897761197 
0.5141173466587925 -0.9909022070997655 0.14746560276608905 -1.8830844804539961 0.25026614590013957 0.3046578490852239 1.9753080127510163 -3.0078424909682067 -1.2730877972877093 0.3496074730679904 0.7799252164370437 -0.38153495465605136 -1.0025512380843649 0.20965486153072277 -0.6339467773211177 1.277298969376817 -0.7164990095440444 -0.5946569353572904 -0.45400130827080704 0.08265025013861532 1.1765940453747092 -0.024964876319085373 0.6412508093163425 -0.10019199309759691 0.19569211738970316 1.0836833883361658 -1.5196600407269483 0.4174692352768311 0.09006991605356336 -0.2663985418775096 -0.8807888269296932 -0.3673070428019021 
0.766658500506001 -0.7052841960138164 -0.6319750441515163 0.1035249133985608 0.921794491203774 -0.2926948948312901 -0.5859789987236751 -1.1049737657459855 -0.17912595140918777 -0.19076087420316368 0.6892397494299604 -0.04113906688526427 -0.9061323542353253 -0.30760411085089134 -0.14084753375456252 2.267146243593061 2.2051654828187064 -0.01899239263020622 0.5234382027808511 -0.8633289021095909 0.22466403462436316 -1.233615743596547 0.904132775742034 0.3706722116833577 0.13585683185363379 1.1300761965336281 0.30668636624888634 1.2556624480361656 0.4996267968261844 -0.5359899071730592 2.4303256965380675 0.8225042064389593 
0.46351147346878796 -2.1230088952137933 -0.532550473268377 1.0251624519768814 -0.40287415020568046 -0.5119343398259495 -0.1068883967853656 -0.3904103109308841 1.1357871603772587 -0.021958976216629233 0.972070182763819 -0.5911709972559792 -0.19167223295063823 0.8028762000561133 -0.7932273962733223 -0.4905420099246473 -1.8958213779263164 -0.17831431535219192 0.39129998102180297 0.6058178188201664 0.23170184146235656 0.16126474945770736 0.6945209077239293 1.8316862891700525 0.8857208288036684 1.0417988367304811 0.1910664148015462 -1.0528803714597055 0.4431896414422379 -0.3017446936337962 0.13793655479158232 -2.0927614715306495 
1.2821663189099008 -0.542902014310301 -1.8476094817123272 0.928129730883524 -1.4617186934371396 0.7986885875197749 -0.18435762497386515 -2.5201397272084853 -1.3386343300017893 -0.34314978435758275 2.3444802514125493 -1.1751764774447997 0.13298945328777037 -0.5899706639875688 0.3930801771284638 0.07614339169965938 -1.742340258217537 -0.47748618807416765 1.5754633411836334 0.22405022702374944 0.07283425813266457 1.0161024718123481 -1.1914728000385777 0.43455803155823963 -0.6454459531020816 -2.1817107075278814 0.7532354719227564 2.170948947694751 0.00033861405127620983 -1.6729943152753188 -0.22296998887977174 0.14212469185757243 
0.02373377626433549 0.07730206538087907 1.8008530617536929 -0.6196983304956267 -1.4731125768022861 0.03929196163044981 -1.5137496364919287 0.023764220089537547 -0.37497953470053846 -1.386929388981669 0.010383619870423898 -2.495380935412771 1.298619620990442 0.0786872371464118 -0.5938143577661555 0.25132819224074765 -1.0674661262814955 0.5875147487562165 0.7567090870331988 0.22598756262019873 -0.15018138228378303 0.4170707432585972 -1.3378162788999945 2.3916583566377767 -0.010359219785328227 0.7691215778700768 -0.5297574832688292 0.1424196726251676 0.5980227016442607 -0.025765870593854653 0.020654449513358257 2.206270635431014 
-1.9013902204039377 -2.104462825869341 0.2807218299271698 -0.07126974053090457 0.7491118245504748 -0.4442252034044904 -0.5512149379630145 1.0222104702629138 -1.0545955593226641 -0.6149607950173807 0.35543140336994156 -0.10647622131624773 1.5752023990407054 0.3949430440651541 -0.20265597345429368 1.363708721508945 -1.291612774639383 -0.3021393800838902 -0.39138927475551133 -1.1707811524497458 0.9543699873759197 -0.4966964084143138 0.4812564247920048 0.48105200895190103 -0.9833826267864749 -0.7708732572360181 -1.6791424629020923 -0.21568824443329246 -0.4865165032319157 1.6929453236594132 0.5958404550851283 -1.0983060793289967 
-1.4176888270512904 0.49736638565807006 -0.9322609667065066 1.348699225528354 1.5344813504670076 -0.34615926363286564 -1.3419787547367168 -1.2935218818817897 0.8627127168700536 -0.25856062516258643 -1.479113871861938 -0.42672732121192336 -1.2851166768166262 -0.3111825780312916 -1.231659786870795 0.5369217541298502 1.0728191083625558 -0.5022898347891184 0.6304730822846746 0.9267982716797128 0.512616079751753 0.4124733354929082 -1.631454423054092 -0.22315704641334497 0.22124435008107127 0.5372666663654595 -0.7984940990762937 -0.25210307317530944 0.3673780414239739 -1.0543298305156834 -0.8604194087131772 -0.04920396872413699 
0.03532418983032824 -1.317953072791373 -0.2635965002927942 -0.09168725459445962 -1.0055566374389786 -0.8510862549667595 -0.5857621665251515 1.4024218997750935 -0.5318255514150355 0.5228692052183619 0.48882233951322324 -0.3262725085141216 -0.6131795484587033 0.07123383353641934 -0.35688262813680127 1.450453651959598 0.5839017319124237 1.8318973932060896 -0.4166223467460465 -1.889014387675227 -0.17166259889152727 -0.6522914053850644 0.5884180571851244 -0.8256477159386659 0.8004841494223757 0.29455416965630354 -0.31246451623909033 1.2110942435207102 0.28498307953018726 0.8873522079597371 0.4278844577212665 -0.2525950932101759 
0.6670439349287539 -0.19014254102054795 0.12290757388877056 0.6035406377634962 0.7340501838551642 -1.1260116037627526 0.7429677343447347 -0.6245920629033193 -1.5586620772184039 2.3308988324065396 -0.6689671963982166 0.6366533686936947 1.4082316938332995 -0.7989063163681233 1.8830896903888752 -1.3560961787485741 -0.09106178457453477 1.3825549970847983 0.6937872950877799 1.3567182072429111 0.19437193545861853 -0.6920863766873205 2.2038607234910472 -1.0250091691919876 -0.7271827515547237 1.2188767541325018 1.7976306010335212 0.3169702154741381 1.6272384895955603 1.5125164969153708 1.4770480758633666 1.0543846518759503 
3.178001473741329 -0.19327230442712479 -0.825061451832773 2.6596413090922884 0.6844773096987655 -1.0629913025155262 0.6485038298651228 0.6797139426111785 0.7707775008593842 -1.0400398104790038 0.15966506812223463 -0.5730109278008205 0.4496507676373029 -0.13348099145865616 -0.624468417134302 1.1579595105433913 0.9753400078902386 -0.17856638055644106 0.13002267631181744 -0.26374963760242565 -0.5306343611502097 1.3197375479265503 -0.16061129272137264 0.3990697383331346 0.3127216217358353 1.2480334932132398 -1.4914153649401745 -0.6503516351779236 0.8182508477049751 1.095988049455867 -1.7090311646376732 0.47092501981460055 
1.0483068840299303 0.7608990596375921 -0.8170531127322231 1.9045132489412273 -0.3525239985187167 0.20520732259236815 0.3808006709020675 -0.047665082503135336 -0.7347970259636399 -0.42887438980966835 1.5273304932817904 -0.7461369493481054 -0.6341830056963591 -1.5060633411901796 0.5649190820805148 0.5165103494199008 1.1931891514857245 1.3264557586537469 -0.4050989487242397 -0.2721142434740529 0.23145297633274786 1.4825738807905076 0.016602401912623875 0.16898354238095184 -1.6796590639284297 -1.199041628492532 0.3871741212428341 0.5436184399947892 -1.3086670027012777 -0.8787735844205898 -0.5012288463743411 1.5182544633243986 
0.04709292524269697 -1.0660969203632125 1.097355028347182 -1.1102042897672175 -0.4678692780134973 -0.2908627174041847 1.01849934270023 -0.7525640291245914 -0.3481412451892008 0.5750128666428481 -0.7988900544980162 0.3357322212772267 -0.38327062558736047 0.0921469659055818 -0.2342486332714237 -1.7809368770833085 0.1833720000924397 0.31027303148945384 0.5090845574933568 0.9023242744352389 -0.6100747684402218 -0.13865769373345138 -0.011458303238263298 0.6166386697766175 0.8559934423701018 0.413423860581925 0.3030800615431444 -0.06097938638571626 1.3160225407834676 0.7817792638649333 -1.5141591196043949 0.7826268212317478 
0.12608634316303177 1.3120948315939027 0.6544470844780085 -0.94978784955314 -0.015730370369693762 -0.7270354515929829 0.3178348524599273 -0.4884899774410615 -0.4958104864609382 -1.4135797755451864 0.6072118437018719 1.5153676797457314 -1.0470023904532832 0.5579901556386676 0.6532619531448031 -0.2228422820226553 1.1312326808553363 -0.913121135890001 -0.895976977156061 1.0333065369234047 -0.09130526810217393 -2.2000350586850668 1.0840452730991097 0.11417961369434333 -0.3948164142890647 -0.903236697314337 -0.1587783492952924 -0.3025007920822485 -0.5015155806898268 0.49199078599495 -0.34790996141762787 0.5624566452513378 
0.30667757416657826 -0.4786577878319973 0.07593773987341944 -0.22343514564387082 1.4242323776221066 0.24594295138609293 -0.2595124361609307 1.1105142626674187 2.0215376679628356 0.07543872683793376 0.8129271027515181 -1.2170474820103778 -0.548834016159429 -0.8365146488683799 0.8439013285763507 0.8786493759257917 -1.3836620422463464 0.8695261413529536 1.7271167974415667 0.6065601528366843 -0.934776022440173 1.377928971057224 0.7172396521000058 0.43029065011091017 0.23406504296715008 -1.6406584001570954 1.2670588488664243 0.9786716289390658 1.0895284840768418 0.20199999876392957 0.5867560912006334 1.3416115818469583 
-0.3445257075486358 -1.9585697680709324 1.3787855940390283 -0.5911781695744429 -1.7201524962208532 1.627350603826867 -2.0699360542703507 -1.5345092397754252 -0.141847761270309 -0.7236094788066021 0.9102195998947071 -0.8768919359874046 -0.7286928097576643 1.0340141912985985 -0.7258696089601866 0.15869589110104795 0.2854766324420734 0.6266594529732769 -0.1417725767275131 0.6761652776107023 0.01441151618911721 1.650353592905757 1.2139478403580364 -0.7499940039373912 -0.6741041439066567 1.4249350325927883 -0.6056455384178728 -1.4407768049592502 0.9532926414927769 -0.06697984311157439 -1.2079692980025265 -1.0039826559553306 
