0.3562965170475358 -1.7912653030241148 1.8520135554299293 0.030336557378730748 0.1757523603889573 -1.999158160460538 -1.2257962646174012 0.7371504227192527 -1.2986299891377395 0.379387534017819 
-0.15811985782314036 -0.044375461879349674 0.2221230618112093 -0.10679350403834599 -0.7180052207495582 0.2258457215548069 2.3553905069217693 1.2136736428356407 -0.41191864242751214 -1.9832994915888562 
-0.18700894085571204 -0.6281536889179516 -0.563296547597902 0.5879566393899147 0.6699322759048671 -2.099421223443154 -0.30722944314970496 -0.7402178684389292 0.5231130706867319 0.868013330587365 
1.341179969565642 0.6199747500036737 -0.7220708066765017 -0.3629527111686907 1.728662976076911 -0.8026416012402019 -0.22987685226925186 -0.7910370688756042 -1.9285982507793415 0.44757546652419883 
-1.1620619719602439 0.41010895114803064 0.24936572259655002 0.9931004224758633 -0.307673866163637 -1.1288322854393325 -1.3577647346608144 0.7842924859385614 -1.7669861190236373 0.0896322751168479 
0.40986576722561185 1.6179940839440907 0.049901096565644176 -0.9795209320580527 -1.062481797565154 -0.8272117456503721 -0.19169890283658686 -0.936214879618259 0.10977466735863564 -0.7872437298195566 
0.12007429553389569 0.40534306320887953 -0.26869858028282634 -0.679144819049807 1.3252235994760704 -0.9793873048889384 0.3647672361634813 -0.5549128616008313 -0.289830087980321 1.8225871732926033 
0.7826385278338099 0.31163146347081194 -0.09280385777096209 1.3203850548983862 0.5867278263822966 -1.0277846335422691 1.8458146321006592 0.4556315755246222 0.615520389756847 -0.5593391538601721 
-0.47217699604347246 -1.6090511956402727 -0.077221301424623 0.4808844320995516 -1.5325279336991307 0.9385248769574367 0.8646852082379262 0.7221373457777331 -1.520998761751487 -0.2483050940014935 
-0.36217470089078885 0.046227435652807285 -0.09635118809978008 0.16042921273492436 0.10798176713181383 -0.6999312302845355 -1.0988110841320409 1.5291179821738703 1.3702086010020664 0.5139401731810183 
0.25435327616591213 0.9436909229601129 1.6331883952618562 0.3068765809667667 -1.596789110953521 0.6673892075559757 0.6958889237188578 1.0431734077579253 -1.8327425977360714 0.8643408622672496 
0.15038696833087992 0.7676047277290664 0.21672671097430418 -0.07273428815219443 0.9238064610340253 1.3300176887445312 0.6785344517139436 0.1948539936357244 -1.9216091471090044 0.41869796825821143 
-0.3662011916741993 1.1791695907566835 0.23254783064177648 1.7379515549773363 0.7375353315960678 -2.184396655567629 -0.47416634319119727 0.2650324493088737 -0.2825676242857787 0.5801829315357129 
-1.379760457861266 -2.2998326643476092 -0.5861870337508774 -0.8336015903258477 2.133102919560097 0.9833179503373095 -0.8199403783862321 0.6582165395640822 0.08961066358314837 0.06412588036199242 
0.13537653755597398 -2.4217907966729597 0.5780039898270608 0.547246032935218 -0.1384883716395019 -1.2485620429978679 -0.5575776584028809 0.2390079628561985 -0.5549521806795905 -0.8984800587545223 
0.41583882302770453 0.8811552523230698 0.27457390943772825 1.191682346102937 0.26097138526651265 0.07929604487931392 -1.087856703711175 -0.8641173922729446 -0.7576558982808254 0.6217537768259848 
1.1680115588528694 0.9368618376827049 1.0756088865787314 1.2152065730140023 -1.727166422536364 0.5565956888443565 2.5063867670865148 -0.18816975097484032 0.692605107840954 1.188564909547523 
0.023495146440464215 -2.2397338758997583 -1.5037406287797863 0.1365996372939851 0.01234744351494666 1.9102323349206607 -0.15487331836199048 1.663862088802837 0.9311424947866747 0.1355835450050124 
-0.43824106486202463 0.2096176858258413 -1.6790687459182396 -0.8285386300682857 -0.14905812628923695 0.5205428478177686 -0.04788294363019602 -0.8518100094945784 0.8505803422712078 2.5425633743110905 
-2.0843155687488464 0.6677447782399593 0.49553297075751124 -0.06422352390073248 1.4139118534984398 -0.6825097836207945 -0.49801633684592533 0.4327288499796017 -1.5000446300917334 0.09872339368952061 
0.38225351568801313 -0.5370686939789734 0.5328812955143786 -1.3087710484213726 0.9486132065991635 0.6035967927992644 1.5201945914344417 0.3680680229999342 -0.9143431876318506 -0.43018473943295693 
1.4275260092661333 0.34336628547373965 1.2962657898289713 -0.1959050029363404 -1.428242580061548 -1.0944151471584471 1.283982997569307 1.0213150017307047 -0.14874740697469888 0.40375237185504514 
-0.6838261710232637 1.1985527739179962 0.4816630406356156 0.06278393157437277 -0.18284135409779226 0.4833054719244942 -1.6592065118324995 0.08732220629213737 0.20898605350493885 -0.3531261804935782 
-0.1014914738705638 -2.589699552387147 -0.8404479176341237 1.1185580926356222 0.406267808071812 -1.2890793103094373 0.08902450169650232 0.6593942314759301 -0.6085321426518489 0.9851743612298713 
0.5241062720131787 0.11289450540284861 0.9943886136127573 -1.0833311831047705 -3.070883889181575 2.180869792853233 0.9115485146757838 0.03582984337349835 -0.583009479059027 0.09420924825993496 
0.4619488642526095 -0.23949668400133745 -1.9786158454712375 0.68772069813222 -1.5492300201410083 -0.15823219743649797 -1.2473077006873505 0.5570253355280764 2.1127842108813084 -0.6835666262119534 
1.849897929117369 -0.058658981098858184 0.04556693393493829 1.1246116826884325 -0.7541260559310129 -1.2274302661434704 -0.3364291605026085 0.3030544571932364 0.9001541089758412 -0.9061062762905282 
-1.420515410442142 -1.5938404575659548 -0.10142246410356842 -0.5960749482251005 1.1351328684758983 1.778568735737242 -0.04827319034283601 1.7426679813170987 0.4736581972265971 -1.6091892439751638 
-0.23138469295825795 0.042651739473248254 0.3949002022360328 0.6433926659224262 -0.4896280595588873 -0.6301081720372089 -1.8969839790969405 0.33567720954745656 -0.019633303342813303 -0.044878462167888204 
-0.9680371305521877 -0.6259445261898127 -0.6021926130583203 0.45858780399710003 1.100231284496344 1.0085752856 -0.10365722915407054 0.945537227996632 0.7523722468549278 0.5973915224947225 
-1.1294646396430486 -0.36505825973687944 0.11397719071526959 0.6190072277926498 0.13555032440452253 -0.686216643082964 -0.4785896925941746 0.3984932554217415 -0.21396600974983584 0.08006509999733137 
0.03852603732399116 0.3144005329530651 -1.2716626632361117 -1.602667125813773 -0.7316049076454708 -0.12732859469404947 -0.03559771857473341 0.7697439337199601 1.6390772762088428 0.34900958918548763 
