2.721273154020309448e-02 6.373619288206100464e-02 3.440196812152862549e-02 9.402424097061157227e-03 -1.753813773393630981e-02 8.024029433727264404e-03 -4.627816006541252136e-02 -4.976056516170501709e-02 6.162124127149581909e-02 2.496695518493652344e-02 -5.875384062528610229e-02 -6.443042308092117310e-02 6.531146913766860962e-02 3.583253175020217896e-02 -2.686291188001632690e-02 2.050042897462844849e-02 1.239155232906341553e-02 3.250206261873245239e-02 7.339408248662948608e-02 7.413937896490097046e-02 -1.533281803131103516e-02 -4.844786226749420166e-02 3.131511062383651733e-02 8.520508557558059692e-02 -7.965517044067382812e-02 -2.179004997014999390e-02 -4.457321390509605408e-02 7.680445909500122070e-03 4.864192754030227661e-02 8.478295058012008667e-02 7.173400372266769409e-02 5.024992674589157104e-02
-5.150004476308822632e-02 -1.213811337947845459e-03 -6.565895676612854004e-02 -7.981927692890167236e-02 4.028362780809402466e-02 -5.361456796526908875e-02 4.568345099687576294e-02 -6.637955456972122192e-02 7.583787292242050171e-02 -4.519269242882728577e-02 -3.968700394034385681e-02 -7.674898952245712280e-02 2.434524893760681152e-02 4.834216088056564331e-02 -5.111137777566909790e-02 8.769981563091278076e-03 2.804360538721084595e-02 2.680467069149017334e-02 4.594673961400985718e-02 -1.489788293838500977e-03 4.197957366704940796e-02 -4.225968196988105774e-02 2.602881193161010742e-02 -5.159277841448783875e-02 2.988583594560623169e-02 -3.611758351325988770e-03 6.479933112859725952e-02 1.494515687227249146e-02 4.757612943649291992e-03 -6.311501562595367432e-02 -5.361510068178176880e-02 -1.373264938592910767e-02
5.962649732828140259e-02 -8.507191389799118042e-02 6.342133134603500366e-02 1.399777084589004517e-02 6.932543963193893433e-02 -4.184006527066230774e-02 1.045987010002136230e-03 3.420899063348770142e-02 -8.196882903575897217e-02 6.160476058721542358e-02 3.536084294319152832e-02 8.019126206636428833e-02 8.036329597234725952e-02 -3.684012219309806824e-02 -8.605770766735076904e-03 -3.768559545278549194e-02 3.671742975711822510e-03 -1.807807385921478271e-02 -5.699248611927032471e-02 -6.345770508050918579e-02 2.281131595373153687e-02 -2.532565221190452576e-02 -7.344782352447509766e-04 -2.072747796773910522e-02 -5.468357726931571960e-02 2.621977776288986206e-02 -5.982683226466178894e-02 -4.652664065361022949e-04 -1.710176467895507812e-03 1.599022746086120605e-02 -2.055913209915161133e-03 8.605197072029113770e-03
-1.000393182039260864e-02 -1.728849112987518311e-02 -6.175637990236282349e-02 -6.448335200548171997e-02 -4.120161384344100952e-02 -1.470882445573806763e-02 -6.045502424240112305e-02 -8.408059179782867432e-02 -6.047959625720977783e-02 2.481015026569366455e-02 -5.792171508073806763e-02 -5.162373185157775879e-03 -2.537017688155174255e-02 -3.214873373508453369e-03 -3.852446377277374268e-02 3.923113644123077393e-02 -7.074169814586639404e-03 4.228421300649642944e-02 -1.690343022346496582e-02 -6.005196273326873779e-02 -4.542547091841697693e-02 -5.385082215070724487e-02 -8.426904678344726562e-02 -2.322895079851150513e-02 2.870529890060424805e-03 4.642679542303085327e-02 1.767619699239730835e-02 -7.551991939544677734e-02 -3.026963770389556885e-02 1.329910755157470703e-02 -6.039859354496002197e-02 -5.083509534597396851e-02
4.465364664793014526e-02 4.722378402948379517e-02 8.201145380735397339e-02 4.424514621496200562e-02 -6.797573715448379517e-02 -1.192674040794372559e-03 3.980382531881332397e-02 3.139369934797286987e-02 -2.998264133930206299e-02 -4.634790122509002686e-03 3.453444689512252808e-02 4.465536028146743774e-02 1.601392030715942383e-02 -4.279842972755432129e-02 2.858260273933410645e-02 -6.428373605012893677e-02 -3.325261175632476807e-02 7.467719167470932007e-02 -2.019950747489929199e-02 -6.572470068931579590e-02 -4.229018464684486389e-02 6.124535948038101196e-02 6.720637530088424683e-02 8.242491632699966431e-02 5.508735030889511108e-02 2.550574392080307007e-02 2.928690612316131592e-02 3.690056502819061279e-03 -3.841400146484375000e-02 -4.321124032139778137e-02 -4.339508712291717529e-03 -4.893678799271583557e-02
-5.387768521904945374e-02 -2.078484743833541870e-02 -2.347097173333168030e-02 5.586363375186920166e-03 -6.467385590076446533e-02 -5.704962834715843201e-02 2.931501716375350952e-02 2.387009561061859131e-03 -5.342143401503562927e-02 1.360432058572769165e-02 -3.783019632101058960e-02 -7.653867453336715698e-02 8.235841244459152222e-02 2.906675636768341064e-02 1.145450770854949951e-02 4.849329590797424316e-03 5.583622306585311890e-02 1.609500497579574585e-02 -6.728395819664001465e-03 6.615483015775680542e-02 -4.953917488455772400e-02 -2.691298723220825195e-04 -4.333533719182014465e-02 5.333205312490463257e-02 5.674656480550765991e-02 -3.680035844445228577e-02 6.442553550004959106e-02 6.694499403238296509e-02 -2.358784899115562439e-02 -1.405923068523406982e-02 -6.447977572679519653e-02 -8.281081914901733398e-02
5.188733339309692383e-04 -7.333707064390182495e-02 4.519271105527877808e-02 8.331983536481857300e-02 -1.155926287174224854e-02 -6.223499774932861328e-02 5.663149058818817139e-03 -5.371877178549766541e-02 -2.090812474489212036e-02 3.473371267318725586e-02 -3.400385379791259766e-03 -4.620451852679252625e-02 2.467967569828033447e-03 -5.906144157052040100e-02 7.220435887575149536e-02 -3.055800125002861023e-02 5.321592837572097778e-02 -1.948853582143783569e-02 3.285785764455795288e-02 -3.887015208601951599e-02 -5.566385760903358459e-02 -5.038374662399291992e-02 1.731406897306442261e-02 -6.027650088071823120e-02 1.399309188127517700e-02 -3.378792479634284973e-02 -8.240251243114471436e-02 -4.883859306573867798e-02 -5.426124110817909241e-02 1.696982979774475098e-02 5.867134779691696167e-02 -5.708558857440948486e-02
-3.205995634198188782e-02 8.430100232362747192e-02 -7.800418138504028320e-02 -3.614117577672004700e-02 -7.546482235193252563e-02 -5.463352799415588379e-02 -3.226587176322937012e-02 -3.005550429224967957e-02 5.771335214376449585e-02 -7.238698750734329224e-02 5.877595394849777222e-02 -4.773844778537750244e-02 -8.424776792526245117e-02 -5.144717544317245483e-02 -2.832142636179924011e-02 -8.510194718837738037e-03 5.124755948781967163e-02 -3.462331742048263550e-02 4.422494024038314819e-02 -5.939118564128875732e-02 8.066532760858535767e-02 6.509835273027420044e-02 -3.055033460259437561e-02 8.077833801507949829e-02 -3.777090832591056824e-02 1.495037227869033813e-02 7.220938056707382202e-02 -4.230637848377227783e-02 -8.551528304815292358e-02 -7.456190884113311768e-03 -1.453480124473571777e-02 7.868208736181259155e-02
-3.833500668406486511e-02 8.105122298002243042e-02 -3.980897367000579834e-02 5.089054256677627563e-02 1.366004347801208496e-03 6.866168230772018433e-02 1.830177009105682373e-02 -1.262197643518447876e-02 7.249109447002410889e-03 6.650646775960922241e-02 1.980330049991607666e-02 -2.038507908582687378e-02 4.666071385145187378e-02 -2.150233834981918335e-02 8.107418566942214966e-02 -6.375788897275924683e-02 7.455492764711380005e-02 -2.452867478132247925e-02 7.022004574537277222e-02 -7.829228043556213379e-02 -4.333149269223213196e-02 -5.666711553931236267e-02 -3.635463491082191467e-02 7.472021132707595825e-02 -4.035875946283340454e-02 1.535148918628692627e-02 -8.838996291160583496e-03 -3.064748644828796387e-02 -4.038185998797416687e-02 -1.683050394058227539e-02 5.190109461545944214e-02 6.207939237356185913e-02
3.034903854131698608e-02 -2.710795775055885315e-02 5.669172853231430054e-02 4.188410937786102295e-03 3.676265478134155273e-04 1.177988201379776001e-02 -1.291342079639434814e-03 2.204298228025436401e-02 8.178310841321945190e-02 2.819672226905822754e-04 -7.287701219320297241e-02 -9.624511003494262695e-04 6.699641793966293335e-02 1.241716742515563965e-02 9.409040212631225586e-04 -1.942695677280426025e-02 -8.387429267168045044e-02 -7.670527696609497070e-02 8.072935789823532104e-02 -2.054333686828613281e-02 -5.054717883467674255e-02 -2.070128917694091797e-02 -4.467371851205825806e-02 5.064136534929275513e-02 7.659097760915756226e-02 -5.937223508954048157e-02 -6.649970263242721558e-02 8.404823392629623413e-02 -1.466915011405944824e-03 -8.907750248908996582e-03 -7.901065051555633545e-02 3.143008798360824585e-02
-5.219019949436187744e-02 -1.425612717866897583e-02 -3.329399228096008301e-02 -2.433784678578376770e-02 6.951551884412765503e-02 6.666342169046401978e-02 8.443956822156906128e-02 -1.615711301565170288e-02 -3.251792863011360168e-02 -4.289993643760681152e-02 4.844427853822708130e-02 -7.356116175651550293e-02 5.103879421949386597e-02 1.997923851013183594e-02 -5.031008645892143250e-02 -8.050620555877685547e-02 2.530567348003387451e-03 6.829910725355148315e-02 3.036241233348846436e-02 -4.415564239025115967e-03 4.226959496736526489e-02 -2.958060428500175476e-02 -2.509677782654762268e-02 6.625667959451675415e-02 -5.276196449995040894e-02 -5.140857398509979248e-02 8.961074054241180420e-03 -4.753141105175018311e-02 -3.878406435251235962e-02 5.712392181158065796e-02 8.571676164865493774e-02 1.400175690650939941e-02
-6.736496090888977051e-02 -2.796587720513343811e-02 -3.096564114093780518e-02 7.849534600973129272e-02 -5.944908410310745239e-02 -7.653883844614028931e-02 -6.410141289234161377e-02 3.627271205186843872e-02 1.109284907579421997e-02 7.417163997888565063e-02 -5.459231138229370117e-02 -4.282872751355171204e-02 4.836370795965194702e-02 6.327591091394424438e-02 6.010112911462783813e-02 6.184420734643936157e-02 -1.084030419588088989e-02 1.351948082447052002e-02 -8.282630145549774170e-02 5.915959924459457397e-02 -1.287961751222610474e-02 5.277387797832489014e-03 4.862182587385177612e-02 -4.982694983482360840e-02 -3.921185806393623352e-02 -2.403349429368972778e-02 -7.539985328912734985e-02 7.933395355939865112e-02 -2.485978975892066956e-02 3.433302789926528931e-02 3.498053550720214844e-02 -8.174245059490203857e-02
-1.423643529415130615e-02 -1.773693971335887909e-02 2.848216891288757324e-02 -1.635780441574752331e-03 3.711130237206816673e-03 6.432710587978363037e-02 -4.134699702262878418e-02 1.214003283530473709e-02 4.810081049799919128e-02 -9.995793923735618591e-03 -3.876506537199020386e-02 -4.744291305541992188e-02 1.813488453626632690e-02 -7.617533951997756958e-02 -3.249431611038744450e-04 -5.138203501701354980e-02 -7.516289502382278442e-02 -1.864808425307273865e-02 -4.925302416086196899e-02 -2.181344851851463318e-02 -4.646307602524757385e-02 8.557533472776412964e-02 -3.665732592344284058e-02 1.900557056069374084e-02 -1.017721276730298996e-02 -7.627853751182556152e-02 -7.752411812543869019e-02 -4.007418826222419739e-02 -7.663214951753616333e-02 -7.879048585891723633e-02 -8.361899852752685547e-02 8.393400162458419800e-02
7.475705444812774658e-02 5.003482848405838013e-02 1.072011608630418777e-02 7.339496165513992310e-02 -2.035418897867202759e-02 -4.111760854721069336e-02 1.540805585682392120e-02 5.475820973515510559e-02 -7.670076936483383179e-02 -8.519204705953598022e-02 3.510868921875953674e-02 -3.321802709251642227e-03 4.918015375733375549e-02 1.406919443979859352e-03 -5.308704823255538940e-02 5.629657953977584839e-02 2.055782824754714966e-02 5.457349866628646851e-02 -7.394072413444519043e-02 3.405927494168281555e-02 -5.558808147907257080e-02 -2.711998298764228821e-02 -3.805014491081237793e-02 -3.303721919655799866e-02 2.003555372357368469e-02 7.036343216896057129e-03 2.092765830457210541e-02 -7.319356501102447510e-02 -4.478873312473297119e-02 -1.967145130038261414e-02 -6.356307119131088257e-02 -6.891112774610519409e-02
-2.890362590551376343e-02 4.141736775636672974e-02 -1.239449437707662582e-02 -2.966217882931232452e-02 3.758909925818443298e-02 -1.920005306601524353e-02 -6.649530678987503052e-02 -1.926917769014835358e-02 5.982142314314842224e-02 8.400113135576248169e-02 5.532546713948249817e-02 -2.064610831439495087e-02 5.388831347227096558e-02 -7.921103388071060181e-02 -2.761717652902007103e-03 -6.554756313562393188e-02 -5.382951349020004272e-02 -1.520223636180162430e-02 -7.693093735724687576e-03 7.247910648584365845e-02 7.986514829099178314e-03 -4.383197426795959473e-02 -8.092118799686431885e-02 -6.641019135713577271e-02 8.299563080072402954e-02 -4.905723035335540771e-02 1.203761622309684753e-02 -5.052166059613227844e-02 1.570839807391166687e-02 1.841625780798494816e-03 -2.466015983372926712e-03 8.289501070976257324e-03
6.047707051038742065e-02 -2.664477378129959106e-02 2.600361965596675873e-02 5.743661150336265564e-02 5.161100253462791443e-02 -5.226542800664901733e-02 3.178034722805023193e-02 6.715891510248184204e-02 -1.715512201189994812e-02 -1.111435797065496445e-02 1.074847299605607986e-02 1.623346656560897827e-02 5.073964223265647888e-02 7.379215955734252930e-02 -5.319583043456077576e-02 -4.590861126780509949e-02 6.139003206044435501e-03 -5.045591667294502258e-02 -6.539429724216461182e-02 1.391553785651922226e-02 8.171766996383666992e-02 4.780960083007812500e-02 -1.394075062125921249e-02 -3.247380256652832031e-02 1.447016745805740356e-02 -7.310084998607635498e-02 6.908206641674041748e-02 4.008881747722625732e-02 2.812930569052696228e-02 2.451864071190357208e-02 -2.207459695637226105e-02 1.802993007004261017e-03
6.682641804218292236e-03 -6.031152606010437012e-02 6.505107134580612183e-02 7.188475877046585083e-02 -5.897502601146697998e-02 1.963873952627182007e-02 -7.293652743101119995e-02 8.236446231603622437e-02 -1.299853622913360596e-02 2.203762531280517578e-02 8.556731790304183960e-02 -4.957897961139678955e-02 -1.070909202098846436e-03 7.080826908349990845e-02 6.606740504503250122e-02 -7.335139811038970947e-02 3.557791560888290405e-02 7.590477913618087769e-02 -5.088810622692108154e-02 -1.139654964208602905e-02 5.237996578216552734e-03 -3.873148187994956970e-02 -1.844745874404907227e-02 6.487960368394851685e-02 7.886639982461929321e-02 6.817903369665145874e-02 -7.920407503843307495e-02 2.690964937210083008e-02 1.583650708198547363e-03 -1.677485555410385132e-02 -6.873820722103118896e-02 2.081815153360366821e-02
8.278367668390274048e-02 -2.778435498476028442e-02 -1.781021058559417725e-02 1.616279780864715576e-02 7.939331978559494019e-02 -1.099357753992080688e-02 -2.198015898466110229e-02 -5.625404044985771179e-02 4.852882772684097290e-02 -1.277990639209747314e-02 -8.640363812446594238e-03 -2.451820671558380127e-02 -3.878846764564514160e-04 1.038678735494613647e-02 4.935877770185470581e-02 -2.718634903430938721e-03 6.341452151536941528e-02 -3.631513565778732300e-02 2.567227929830551147e-02 3.300284594297409058e-02 -3.292180597782135010e-02 7.572971284389495850e-03 1.798212528228759766e-03 1.489423215389251709e-03 1.129265129566192627e-02 7.971928268671035767e-02 -4.979542270302772522e-02 -6.189182400703430176e-03 5.087888985872268677e-02 -6.876995414495468140e-02 3.862157464027404785e-02 -5.369904264807701111e-02
-3.446612134575843811e-02 5.829455703496932983e-02 -4.076212272047996521e-02 6.323540955781936646e-02 4.841574281454086304e-02 7.935814559459686279e-03 2.338074892759323120e-02 -5.953004211187362671e-02 -1.968687027692794800e-02 -5.057612806558609009e-02 2.490703761577606201e-02 -8.348768949508666992e-02 3.411541879177093506e-02 4.416286200284957886e-02 8.559150248765945435e-02 -5.293275415897369385e-02 -4.608853906393051147e-02 -4.162862896919250488e-04 6.750691682100296021e-02 6.698396056890487671e-02 5.740300565958023071e-02 2.301856875419616699e-03 -8.428646624088287354e-02 -4.727655276656150818e-02 -5.730891972780227661e-02 -2.526372671127319336e-03 1.271709799766540527e-03 8.280574530363082886e-02 -7.978527992963790894e-02 -5.916308984160423279e-02 -6.761381030082702637e-02 6.313101202249526978e-02
7.711445540189743042e-02 6.568563729524612427e-02 6.848262995481491089e-02 -4.065313562750816345e-02 6.042329221963882446e-02 -6.472365558147430420e-02 -7.596092671155929565e-02 1.507697999477386475e-02 -7.453735172748565674e-02 -7.760000228881835938e-02 2.179130911827087402e-03 -1.788168400526046753e-02 -6.129057705402374268e-02 3.807748854160308838e-02 2.933672815561294556e-02 -3.620831668376922607e-02 -6.043220683932304382e-02 -4.920072108507156372e-02 -2.118119597434997559e-02 1.959666609764099121e-02 -7.493636012077331543e-02 7.750434428453445435e-02 2.647854387760162354e-02 8.170851320028305054e-02 7.872702926397323608e-02 1.962138712406158447e-02 -5.094322562217712402e-02 6.824784725904464722e-02 -6.142586469650268555e-03 4.883228987455368042e-02 5.274076014757156372e-02 3.485386818647384644e-02
5.221594125032424927e-02 -3.628269210457801819e-02 -1.451782882213592529e-02 -3.467867895960807800e-02 -4.790999740362167358e-02 6.791494041681289673e-02 -7.795701920986175537e-02 8.104989677667617798e-02 5.980839580297470093e-02 7.415006309747695923e-02 -3.777299448847770691e-02 5.051302164793014526e-02 -7.736307382583618164e-02 7.952428609132766724e-02 3.076894581317901611e-02 3.474332392215728760e-02 -5.574422329664230347e-02 -7.995645701885223389e-02 -3.567030653357505798e-02 5.379351228475570679e-02 -8.948050439357757568e-03 7.021353393793106079e-02 2.193622291088104248e-02 -3.371287137269973755e-02 -1.788660883903503418e-02 -1.459615677595138550e-02 5.906260758638381958e-02 -2.135559916496276855e-03 5.877307802438735962e-02 4.236266016960144043e-03 7.116892188787460327e-02 -7.506074011325836182e-02
-2.423529699444770813e-02 -6.494776159524917603e-02 -4.970724880695343018e-02 -7.926519960165023804e-02 5.372930318117141724e-02 5.607289820909500122e-02 -1.180607080459594727e-02 -3.502073138952255249e-02 4.646024852991104126e-02 -3.366084396839141846e-02 4.457368701696395874e-02 6.745225936174392700e-02 -2.022074908018112183e-02 -6.643578410148620605e-03 3.049039095640182495e-02 2.302865684032440186e-02 4.067286103963851929e-02 -3.128371015191078186e-02 5.148572474718093872e-02 -1.724402606487274170e-02 -1.239308714866638184e-02 -4.537205025553703308e-02 5.776975303888320923e-02 2.917210757732391357e-02 -5.583338066935539246e-02 -4.616457223892211914e-02 -6.127526611089706421e-02 -2.437994256615638733e-02 -4.550238326191902161e-02 -4.987198859453201294e-02 -7.069391757249832153e-02 -3.182008489966392517e-02
2.040141075849533081e-02 -1.110710203647613525e-02 1.558913290500640869e-02 5.623417347669601440e-02 1.032339036464691162e-02 9.638220071792602539e-04 7.903211563825607300e-02 -3.549192845821380615e-02 -5.320734158158302307e-02 2.241706848144531250e-02 -8.008836954832077026e-02 6.296653300523757935e-02 -3.678187727928161621e-02 -3.517236560583114624e-02 4.558875411748886108e-02 -4.578520730137825012e-02 2.262374013662338257e-02 -2.366314828395843506e-02 4.403827339410781860e-02 -6.440386176109313965e-02 -6.765419244766235352e-02 5.137936025857925415e-02 4.388348013162612915e-02 3.703391551971435547e-02 3.492247313261032104e-02 -4.328692331910133362e-02 1.931244879961013794e-02 -8.139810711145401001e-02 -5.648947507143020630e-02 -4.646649211645126343e-02 6.234177201986312866e-02 -2.908301353454589844e-02
-2.325452864170074463e-02 -2.598010003566741943e-03 -2.527040988206863403e-02 -3.193579986691474915e-02 5.949860066175460815e-02 8.392337709665298462e-02 -2.603806927800178528e-02 -1.105519384145736694e-02 4.259295016527175903e-02 7.391013950109481812e-02 7.867450267076492310e-02 -3.549720346927642822e-02 5.491014569997787476e-02 6.074970215559005737e-02 -4.895277321338653564e-02 5.324169993400573730e-03 7.846038788557052612e-02 7.152418047189712524e-02 5.257534235715866089e-02 4.774571210145950317e-02 2.875342965126037598e-02 4.469306021928787231e-02 -2.556392922997474670e-02 2.408149838447570801e-02 -2.625013887882232666e-02 5.876334756612777710e-02 6.643413752317428589e-02 6.467550992965698242e-04 5.196952074766159058e-02 -6.465952098369598389e-02 4.915796965360641479e-02 -2.708659321069717407e-02
-3.399692475795745850e-02 2.924372255802154541e-02 5.126246064901351929e-02 -5.252290889620780945e-02 -8.516454696655273438e-02 6.283413618803024292e-02 -6.433553993701934814e-03 -3.697274625301361084e-02 -2.585529908537864685e-02 -6.273694336414337158e-02 -2.512294426560401917e-02 -2.574905753135681152e-03 -7.501170039176940918e-03 7.903458923101425171e-02 2.146976441144943237e-02 5.490229278802871704e-02 -1.160358637571334839e-02 2.833659201860427856e-02 -5.330760031938552856e-02 1.179930567741394043e-02 1.132675260305404663e-02 -2.453480660915374756e-02 3.116435557603836060e-02 3.139118850231170654e-02 4.029317945241928101e-02 2.636393159627914429e-02 6.845208257436752319e-02 6.945528835058212280e-02 -2.797550708055496216e-02 -2.684921026229858398e-03 -6.098876148462295532e-02 -3.765470162034034729e-02
2.688315510749816895e-02 1.420350372791290283e-02 -2.224474400281906128e-02 -2.236301451921463013e-02 4.840997606515884399e-02 -1.002055406570434570e-02 3.076548874378204346e-02 -5.204799026250839233e-02 4.043511301279067993e-02 3.276962041854858398e-02 -8.358173072338104248e-03 2.673337608575820923e-02 -6.977865099906921387e-02 5.638302117586135864e-02 4.923804849386215210e-02 3.630188852548599243e-02 1.766172796487808228e-02 -4.076911509037017822e-02 -3.015003725886344910e-02 -3.142714872956275940e-02 5.618406087160110474e-02 -2.102497965097427368e-02 -4.961805045604705811e-02 1.848558336496353149e-02 1.586743444204330444e-02 3.042282164096832275e-02 -5.724043399095535278e-02 -7.528751343488693237e-02 -7.634306699037551880e-02 2.053618431091308594e-02 -5.397536978125572205e-02 -2.640189602971076965e-02
8.005385845899581909e-02 7.794035226106643677e-02 3.554606437683105469e-02 -6.637466698884963989e-02 -4.054255783557891846e-03 -4.672306776046752930e-02 1.299422979354858398e-02 -8.666612207889556885e-03 -6.826943904161453247e-02 -3.901759907603263855e-02 2.479770034551620483e-02 7.181622833013534546e-02 -1.926788687705993652e-02 3.736372292041778564e-02 -2.771490439772605896e-02 -5.577476695179939270e-02 3.987219184637069702e-02 -1.573017239570617676e-02 3.390508890151977539e-02 -3.976650908589363098e-02 6.008782237768173218e-02 5.291276425123214722e-02 -1.429520547389984131e-03 4.296480864286422729e-02 9.771950542926788330e-03 -4.743697866797447205e-02 6.928116828203201294e-02 3.462088108062744141e-02 8.318100124597549438e-02 -1.258566975593566895e-02 7.028294354677200317e-02 4.379091411828994751e-02
8.292400091886520386e-02 2.312994003295898438e-02 -6.811711192131042480e-02 6.059321016073226929e-02 -4.290371760725975037e-02 2.810493856668472290e-02 2.498050779104232788e-02 2.987347543239593506e-03 -3.741012886166572571e-02 1.287207007408142090e-03 -1.431790739297866821e-02 -3.351305052638053894e-02 1.651819795370101929e-02 7.848657667636871338e-03 6.157090514898300171e-02 6.784469634294509888e-02 -3.271082043647766113e-02 -3.412515297532081604e-02 -6.912983208894729614e-02 8.130282163619995117e-03 -7.935883849859237671e-02 -5.572952330112457275e-03 -7.754880189895629883e-02 4.539474099874496460e-02 4.126640409231185913e-02 -5.169792100787162781e-02 4.511000961065292358e-02 6.463620811700820923e-02 -7.338601350784301758e-02 6.837069243192672729e-02 4.112718254327774048e-02 8.373424410820007324e-03
4.751395434141159058e-02 1.990594714879989624e-02 -3.494979068636894226e-02 3.777620196342468262e-02 4.922401160001754761e-02 5.980401486158370972e-02 -7.388459146022796631e-02 -1.450438052415847778e-02 6.887184828519821167e-02 4.252464324235916138e-02 5.837840586900711060e-02 -5.937368422746658325e-02 -7.652577757835388184e-02 -4.967813566327095032e-02 -1.805002242326736450e-02 -1.939870417118072510e-02 6.096973270177841187e-02 5.682886391878128052e-02 2.091235667467117310e-02 3.943263739347457886e-02 2.170287072658538818e-02 1.494088768959045410e-02 -2.141650766134262085e-02 9.260028600692749023e-03 7.045038044452667236e-03 4.442562907934188843e-02 7.440271228551864624e-02 2.864249795675277710e-02 -1.135030388832092285e-02 -3.739406168460845947e-02 -7.349369674921035767e-02 -4.077249020338058472e-02
4.070045799016952515e-02 7.056669145822525024e-02 -6.368772685527801514e-02 -7.697875797748565674e-02 -4.503073543310165405e-02 3.550883382558822632e-02 1.229425519704818726e-02 8.267641812562942505e-02 -4.544248059391975403e-02 -7.582335174083709717e-02 3.366830199956893921e-02 -6.944432854652404785e-03 8.084487169981002808e-02 6.848789006471633911e-02 -7.086396217346191406e-03 -1.733244955539703369e-02 -2.995974197983741760e-02 -8.382461220026016235e-02 -2.398534864187240601e-02 -1.131050288677215576e-02 -7.011741399765014648e-02 6.531087309122085571e-02 -3.528937697410583496e-03 5.196675658226013184e-03 -4.620477557182312012e-03 -6.624509394168853760e-02 -4.608682170510292053e-02 4.092664271593093872e-02 -2.044289559125900269e-02 -3.362073004245758057e-02 8.641995489597320557e-03 5.254857987165451050e-02
-5.255204066634178162e-02 -1.543784141540527344e-02 -6.166282668709754944e-02 -2.437454462051391602e-02 7.945048063993453979e-02 -1.549034565687179565e-02 1.547057181596755981e-02 -2.056971192359924316e-02 -3.479850292205810547e-02 7.323656231164932251e-02 -7.470744848251342773e-02 7.381842285394668579e-02 -7.425822317600250244e-02 -5.940623581409454346e-02 5.866602808237075806e-02 -7.160403579473495483e-02 7.527039200067520142e-02 -1.624847948551177979e-02 -6.122611463069915771e-02 -3.662533685564994812e-02 4.164589196443557739e-02 5.934768170118331909e-02 -5.618273094296455383e-02 -3.681272268295288086e-03 -5.594447255134582520e-02 -8.211774379014968872e-02 -3.781688585877418518e-02 4.270062595605850220e-02 6.985627859830856323e-02 5.338997393846511841e-02 7.495450228452682495e-02 -5.247071385383605957e-02
4.642350226640701294e-02 1.267696917057037354e-02 -4.728430137038230896e-02 2.837236970663070679e-02 1.585260033607482910e-04 6.610228866338729858e-02 -6.609041243791580200e-02 1.941861957311630249e-02 -1.606533676385879517e-02 -6.619530916213989258e-02 -4.535526409745216370e-02 -4.169045388698577881e-02 -5.110178887844085693e-02 3.287705034017562866e-02 -6.923060119152069092e-02 -5.148184671998023987e-02 7.005133479833602905e-02 -2.217814326286315918e-02 -5.529365316033363342e-02 -3.030950203537940979e-02 -1.943446695804595947e-02 5.219043046236038208e-02 -8.477486670017242432e-03 -5.535651743412017822e-02 6.965488195419311523e-03 -4.065763205289840698e-02 7.729733735322952271e-02 2.196762710809707642e-02 4.579094797372817993e-02 -4.377226904034614563e-02 6.992735713720321655e-02 -7.907844334840774536e-02
7.143178582191467285e-02 9.296683128923177719e-04 5.369132757186889648e-02 8.356125652790069580e-02 -5.602594092488288879e-02 9.908346459269523621e-03 -3.158764448016881943e-03 1.966132409870624542e-02 -2.067883498966693878e-03 1.383911538869142532e-02 -2.851675450801849365e-02 5.774094909429550171e-02 -3.544557839632034302e-02 -3.456446528434753418e-02 -3.330878168344497681e-02 8.305937796831130981e-02 3.660969436168670654e-02 1.616923511028289795e-02 9.691300801932811737e-03 6.907473504543304443e-02 -8.311538398265838623e-02 3.481356427073478699e-02 3.684256225824356079e-02 2.807450108230113983e-02 -7.423033565282821655e-02 -4.167851433157920837e-02 5.590094625949859619e-02 1.647765189409255981e-02 -1.270607393234968185e-02 2.821095101535320282e-02 1.459517632611095905e-03 2.455244399607181549e-02
8.969219401478767395e-03 2.237994968891143799e-02 -4.603057354688644409e-02 -3.225833177566528320e-02 1.532663963735103607e-02 -3.877700865268707275e-02 -8.053790032863616943e-02 -1.665124483406543732e-02 8.290718495845794678e-02 5.279098823666572571e-02 2.587506361305713654e-02 6.101434119045734406e-03 9.957040660083293915e-03 1.242164336144924164e-02 -3.305726125836372375e-02 2.244096621870994568e-02 -2.417474053800106049e-02 4.087205603718757629e-02 -4.681435972452163696e-02 -2.325661666691303253e-02 -7.049906253814697266e-02 -4.561716318130493164e-02 5.207966081798076630e-03 -3.290891274809837341e-02 -2.125340979546308517e-03 3.079884313046932220e-02 -4.907350521534681320e-03 -2.960742823779582977e-02 -1.796086132526397705e-02 8.265496790409088135e-02 2.364587783813476562e-02 -6.978172808885574341e-02
-9.888431988656520844e-03 -1.409287378191947937e-02 -2.733283862471580505e-02 -1.720275758998468518e-05 -7.728362455964088440e-03 -6.563588231801986694e-02 4.252743721008300781e-02 5.571814253926277161e-02 -4.139902815222740173e-02 -4.608978703618049622e-02 -7.793501019477844238e-02 7.480568718165159225e-03 5.899378284811973572e-02 6.017505656927824020e-03 3.556348755955696106e-02 4.461589455604553223e-02 -4.158252105116844177e-02 -4.606135934591293335e-02 4.291756451129913330e-02 1.168514252640306950e-03 -2.044019848108291626e-02 6.881000846624374390e-02 -7.816384459147229791e-05 5.353979021310806274e-02 7.215073704719543457e-02 4.402628913521766663e-02 8.134531974792480469e-02 -3.825889434665441513e-03 7.589556276798248291e-02 -3.709794580936431885e-02 8.088542520999908447e-02 1.529293414205312729e-02
-8.088864386081695557e-02 -2.420057170093059540e-02 7.497667800635099411e-03 4.728966206312179565e-02 1.651758886873722076e-02 2.733398973941802979e-02 5.789846181869506836e-02 -4.674704372882843018e-02 7.828001677989959717e-02 -1.035581622272729874e-02 -8.379558473825454712e-02 -9.096559137105941772e-03 -3.928197175264358521e-02 -2.448091655969619751e-02 -6.472881138324737549e-02 1.223463285714387894e-02 6.995931267738342285e-02 1.359583530575037003e-02 7.379250228404998779e-02 1.389687787741422653e-02 8.560137450695037842e-02 -7.503045350313186646e-02 -1.170655898749828339e-02 4.366176202893257141e-03 6.999001652002334595e-02 -5.365890264511108398e-02 -3.787787258625030518e-02 3.466214751824736595e-03 6.681490223854780197e-03 -1.311540254391729832e-03 1.552476827055215836e-02 4.472025111317634583e-02
7.442987710237503052e-02 -4.753535985946655273e-02 -2.283771149814128876e-02 2.115879394114017487e-02 -7.759688049554824829e-02 8.682427555322647095e-02 -3.575333952903747559e-02 6.492531299591064453e-02 -3.590736910700798035e-02 2.670857682824134827e-02 -2.273440919816493988e-02 7.460641674697399139e-03 7.822040468454360962e-02 -1.313160452991724014e-02 3.209930658340454102e-02 2.982897870242595673e-02 -2.430889010429382324e-02 -2.512778155505657196e-02 -3.467176109552383423e-02 -8.766778046265244484e-04 -4.599399119615554810e-02 7.490287721157073975e-02 -7.493973523378372192e-02 -4.752926155924797058e-02 -2.741185016930103302e-02 -7.335170358419418335e-02 5.630775913596153259e-02 -5.263328552246093750e-02 1.631647534668445587e-02 4.108089208602905273e-02 3.331413865089416504e-02 -6.796696037054061890e-02
7.961684465408325195e-02 5.430538207292556763e-02 8.155053853988647461e-02 1.314522232860326767e-02 4.446728155016899109e-03 6.902596354484558105e-02 2.745680883526802063e-02 -5.677730217576026917e-02 -8.268381655216217041e-02 -8.146818727254867554e-02 8.067274838685989380e-02 5.388728901743888855e-02 4.675865173339843750e-02 5.504920333623886108e-02 8.300095051527023315e-02 -1.586238853633403778e-02 -2.778394334018230438e-02 -3.099045343697071075e-02 3.763647377490997314e-02 7.075335085391998291e-02 -8.163554221391677856e-02 6.013926863670349121e-02 -3.743380540981888771e-03 6.427585333585739136e-02 6.405707448720932007e-02 -6.332449615001678467e-02 8.037976175546646118e-02 4.325516929384320974e-04 6.674494594335556030e-02 -4.116965457797050476e-02 2.984390780329704285e-02 2.030838048085570335e-03
-1.706919260323047638e-02 -3.015423007309436798e-02 3.138506785035133362e-02 3.378001227974891663e-02 -2.585999667644500732e-02 -5.064458772540092468e-02 -3.925265371799468994e-02 -3.775324299931526184e-02 8.039237931370735168e-03 -7.015034556388854980e-02 6.407029181718826294e-02 6.513293832540512085e-02 -5.258669145405292511e-03 7.150611281394958496e-02 -4.124036431312561035e-02 3.066810406744480133e-02 8.189376443624496460e-02 -6.830149143934249878e-02 -3.367121517658233643e-02 -8.656825125217437744e-02 8.235764503479003906e-02 3.181784227490425110e-02 -1.662285625934600830e-02 6.024486944079399109e-02 -5.726826190948486328e-02 4.827677085995674133e-02 3.867888823151588440e-02 7.952926307916641235e-02 7.235674560070037842e-02 -4.207291826605796814e-02 6.569764763116836548e-02 4.210586473345756531e-02
-4.090790078043937683e-02 7.293451577425003052e-02 7.941985875368118286e-02 4.908401519060134888e-02 3.122420050203800201e-02 8.486157655715942383e-02 -8.207464963197708130e-02 3.058986738324165344e-02 7.602600008249282837e-02 7.023145258426666260e-02 -9.723418392241001129e-03 8.049838989973068237e-02 -6.916965544223785400e-02 5.926137790083885193e-02 -3.435409069061279297e-02 -4.301942884922027588e-02 -2.552675083279609680e-03 1.446193549782037735e-02 1.435813773423433304e-02 7.396329939365386963e-02 1.537143951281905174e-03 8.449655026197433472e-02 2.205571532249450684e-02 -2.258380129933357239e-02 -9.474923834204673767e-03 6.604462116956710815e-02 -4.798971116542816162e-02 -3.915818780660629272e-02 4.805634915828704834e-02 7.287494838237762451e-02 2.977685257792472839e-02 6.215222179889678955e-02
-2.802811935544013977e-02 4.778034612536430359e-02 -3.062906675040721893e-03 1.546644605696201324e-03 5.705860257148742676e-02 -1.840964145958423615e-02 2.174724638462066650e-02 -3.405741229653358459e-02 7.180835586041212082e-03 -4.482437297701835632e-02 -4.647170007228851318e-02 -4.190305620431900024e-02 6.930518895387649536e-02 8.154849708080291748e-02 6.067404057830572128e-03 6.285508722066879272e-02 4.224491119384765625e-02 6.053901836276054382e-02 -7.426606118679046631e-02 6.913792341947555542e-02 6.055916845798492432e-02 4.306417331099510193e-02 -4.762588068842887878e-02 1.957975886762142181e-02 4.808634519577026367e-02 -8.057001233100891113e-02 4.806645214557647705e-02 -4.757716134190559387e-02 -2.069339901208877563e-02 -2.671085298061370850e-02 -6.094074808061122894e-03 -5.429111793637275696e-02
4.793265834450721741e-02 -5.613770335912704468e-02 -3.749128431081771851e-02 -1.438276376575231552e-02 1.631210371851921082e-02 -7.955411821603775024e-02 -7.026594877243041992e-02 -3.981298208236694336e-02 -2.829480729997158051e-02 -3.398991376161575317e-02 -1.253014151006937027e-02 2.490686252713203430e-02 -5.687626078724861145e-02 -1.586151681840419769e-02 -1.898862980306148529e-02 3.601372987031936646e-02 3.850862756371498108e-02 8.072701096534729004e-02 -3.834028914570808411e-02 -7.077795267105102539e-02 -6.709733605384826660e-02 -2.695054560899734497e-02 6.457303464412689209e-02 3.617006912827491760e-02 3.651973232626914978e-02 -5.508673191070556641e-02 -6.938186287879943848e-02 5.788927664980292320e-04 -8.039341866970062256e-02 -5.687694996595382690e-02 3.349442780017852783e-02 5.728221684694290161e-02
-3.037635236978530884e-02 -4.661773797124624252e-03 -7.501449901610612869e-03 6.088139861822128296e-02 3.893321007490158081e-02 -3.673779591917991638e-02 4.596563056111335754e-02 -5.031955987215042114e-02 7.609184831380844116e-02 2.163616381585597992e-02 3.855417668819427490e-02 -1.225307956337928772e-02 4.256248474121093750e-02 1.907566003501415253e-02 5.762903392314910889e-02 2.367593348026275635e-02 -7.098481059074401855e-02 7.531642168760299683e-02 8.592191338539123535e-02 -1.473301090300083160e-02 6.166398897767066956e-02 -5.284860730171203613e-02 -8.212439715862274170e-02 -7.783675938844680786e-02 -2.125373110175132751e-02 -1.784137636423110962e-02 -7.169942557811737061e-02 4.231350868940353394e-02 1.080733630806207657e-02 4.699157085269689560e-03 1.611306145787239075e-02 -6.666187196969985962e-02
3.730758652091026306e-02 -6.854306906461715698e-02 2.814751677215099335e-02 5.897034704685211182e-02 -5.938183516263961792e-02 3.656766936182975769e-02 1.361974235624074936e-02 8.221141993999481201e-02 8.309733122587203979e-02 7.064228504896163940e-02 1.658391021192073822e-02 -6.293644011020660400e-02 7.244414836168289185e-02 -5.909861624240875244e-02 -7.006032764911651611e-02 -1.036824425682425499e-03 3.178751468658447266e-02 3.922395408153533936e-02 -1.917869597673416138e-02 -2.193156443536281586e-02 1.193267200142145157e-02 4.257429763674736023e-02 -6.290816515684127808e-02 -4.761536046862602234e-02 -4.931094124913215637e-02 -3.748001158237457275e-02 -1.469451375305652618e-02 4.700201377272605896e-02 -3.569325897842645645e-03 5.456490814685821533e-02 -3.312007989734411240e-03 7.377224415540695190e-02
-1.493598800152540207e-02 -3.771647810935974121e-02 7.841730117797851562e-02 -6.490770727396011353e-03 1.052223518490791321e-02 5.051996186375617981e-02 1.359616313129663467e-02 -1.512843556702136993e-02 -5.685464013367891312e-03 -2.351606823503971100e-02 7.630311697721481323e-02 -5.091887712478637695e-02 1.648896746337413788e-02 6.506144255399703979e-02 1.780526712536811829e-02 6.893837451934814453e-02 -6.801731884479522705e-02 -5.683003365993499756e-02 5.581387132406234741e-02 -4.246148839592933655e-02 -1.573887467384338379e-02 7.591030001640319824e-02 -5.690921097993850708e-02 -3.497426956892013550e-02 6.486824899911880493e-02 4.178541526198387146e-02 1.442159805446863174e-02 -2.928352728486061096e-02 2.053846605122089386e-02 -8.543574251234531403e-03 -4.137897863984107971e-02 -6.087826192378997803e-02
1.630124868825078011e-03 -2.128954231739044189e-02 4.843615461140871048e-03 -4.249498248100280762e-02 1.554493512958288193e-02 1.168211270123720169e-02 5.903415754437446594e-02 -7.851877063512802124e-02 -5.853305011987686157e-02 -6.734517216682434082e-02 6.633523385971784592e-03 -3.032671101391315460e-02 7.158145308494567871e-02 3.352338448166847229e-02 7.567007839679718018e-02 -7.441873848438262939e-02 2.674279548227787018e-02 6.624688953161239624e-02 3.645775094628334045e-02 -3.024075552821159363e-02 6.545668095350265503e-02 2.484120056033134460e-02 6.978389620780944824e-02 -5.033362284302711487e-02 5.176972597837448120e-02 -1.945194671861827374e-03 3.048469498753547668e-02 7.290788739919662476e-02 -5.486081540584564209e-02 -6.428943574428558350e-02 2.598083578050136566e-02 -2.296090498566627502e-02
-2.324338443577289581e-02 -4.671754315495491028e-02 2.503087930381298065e-02 7.880192995071411133e-02 -1.166210602968931198e-02 -7.469945400953292847e-02 3.417331492528319359e-03 -1.918741152621805668e-03 -6.900019198656082153e-02 4.493515193462371826e-02 2.357262559235095978e-02 -5.505600944161415100e-02 -7.396727800369262695e-02 6.212567444890737534e-03 -6.795983761548995972e-02 4.423113912343978882e-02 1.269627269357442856e-02 -3.909576218575239182e-03 6.006375700235366821e-02 -7.053351402282714844e-02 5.383914336562156677e-02 -2.963719144463539124e-02 1.646154932677745819e-02 5.033170431852340698e-02 -2.632574550807476044e-02 6.242028623819351196e-02 -5.950933694839477539e-02 7.974712550640106201e-02 -6.066376715898513794e-02 5.848323926329612732e-02 -4.605459794402122498e-02 1.233824156224727631e-02
7.787964493036270142e-02 -4.160079360008239746e-02 -3.485346585512161255e-02 8.161724358797073364e-02 -3.978573530912399292e-02 5.973403155803680420e-02 -5.111582577228546143e-02 -2.418988384306430817e-02 -2.512329258024692535e-02 4.823840036988258362e-02 -4.609049484133720398e-02 4.851583391427993774e-02 6.582712382078170776e-02 -8.047176524996757507e-03 -8.575975149869918823e-02 -7.076637446880340576e-02 4.267504066228866577e-02 -4.319691658020019531e-02 7.437010109424591064e-02 -4.283437877893447876e-02 3.480216115713119507e-02 1.245780475437641144e-02 6.604226678609848022e-02 7.792713493108749390e-02 3.934693336486816406e-02 6.839667260646820068e-02 5.747425928711891174e-02 5.375090986490249634e-02 1.577451266348361969e-02 4.927629604935646057e-02 5.373404175043106079e-02 -5.857463181018829346e-02
-2.523375488817691803e-02 7.783396542072296143e-02 -7.711458951234817505e-02 5.437428597360849380e-03 -9.721554815769195557e-03 1.924241892993450165e-02 -1.413638796657323837e-02 6.023921817541122437e-02 3.473530709743499756e-02 -4.403385892510414124e-02 -3.780918568372726440e-02 3.032887913286685944e-02 6.222884729504585266e-02 2.365469373762607574e-02 -5.146508291363716125e-02 -7.692310959100723267e-02 -2.416468039155006409e-02 4.615158587694168091e-02 -2.987623400986194611e-02 7.990813255310058594e-02 -4.355450719594955444e-02 1.254071854054927826e-02 -5.721067264676094055e-02 5.552420765161514282e-02 5.070740729570388794e-02 6.813400983810424805e-02 -7.494686543941497803e-02 -2.234699018299579620e-02 -1.392609206959605217e-03 2.505419962108135223e-02 8.190337568521499634e-03 -8.620659261941909790e-02
-1.776722073554992676e-02 -6.574107706546783447e-02 -4.978879913687705994e-02 5.151579529047012329e-02 6.629142165184020996e-02 -3.529650857672095299e-03 -4.990633204579353333e-02 2.919293381273746490e-02 3.210392966866493225e-02 6.432267278432846069e-02 -4.079354181885719299e-02 6.660488247871398926e-02 -4.072584584355354309e-02 3.248059749603271484e-02 4.687982425093650818e-02 9.490733034908771515e-03 -1.738467253744602203e-02 -2.657192386686801910e-02 -1.408264786005020142e-02 -8.633862435817718506e-02 -2.991332300007343292e-02 7.466649636626243591e-03 -8.567662537097930908e-02 3.154920786619186401e-02 2.183795906603336334e-02 -1.069087255746126175e-02 2.436567330732941628e-03 -7.524690032005310059e-02 4.699888825416564941e-02 4.227058216929435730e-02 7.726252079010009766e-02 4.818710684776306152e-02
4.978856444358825684e-02 1.740659028291702271e-02 7.306383550167083740e-02 5.104590207338333130e-02 4.741310328245162964e-02 1.069169770926237106e-02 -5.679651722311973572e-02 4.194052517414093018e-02 -7.897470146417617798e-02 -1.029247883707284927e-02 4.347949102520942688e-02 9.599454700946807861e-03 -1.105633098632097244e-02 -3.595293313264846802e-02 -3.266427293419837952e-02 6.864709407091140747e-02 6.943955272436141968e-02 1.740212738513946533e-02 -4.130106046795845032e-02 5.433970689773559570e-02 -3.271602839231491089e-02 -6.597709655761718750e-02 -7.531906664371490479e-02 -7.255677133798599243e-02 -6.185561046004295349e-02 -8.415175229310989380e-02 4.256664961576461792e-02 6.657764315605163574e-02 1.941330917179584503e-02 -6.938613206148147583e-02 1.614471338689327240e-02 3.616449236869812012e-02
-3.556472063064575195e-02 -2.022568881511688232e-02 -4.801420122385025024e-02 2.447284758090972900e-02 -7.592835277318954468e-02 -1.681249216198921204e-02 -4.579739645123481750e-02 -8.161316812038421631e-02 -3.266755118966102600e-02 2.725479658693075180e-03 -5.958377569913864136e-02 -5.718857422471046448e-02 -6.572183966636657715e-02 4.119636863470077515e-02 -7.279971614480018616e-04 2.460099942982196808e-02 -7.093051075935363770e-02 -1.726146042346954346e-02 2.484249696135520935e-02 -7.636349648237228394e-02 -1.368088740855455399e-02 -1.919959113001823425e-02 -7.288011163473129272e-02 -3.389743715524673462e-02 -2.124941907823085785e-02 6.787266582250595093e-02 -1.846250332891941071e-02 4.743802547454833984e-02 4.235373809933662415e-02 7.786255329847335815e-02 -1.434320956468582153e-02 2.166857197880744934e-02
-5.256571993231773376e-02 8.428923040628433228e-02 6.015662103891372681e-02 3.251244872808456421e-02 8.198063820600509644e-02 -6.368213891983032227e-02 5.719026178121566772e-02 -6.453207135200500488e-02 2.171712368726730347e-02 -3.837431967258453369e-02 6.343088299036026001e-02 -2.655788511037826538e-02 4.213554412126541138e-02 7.081652432680130005e-02 5.890450626611709595e-02 5.005466192960739136e-02 -8.142946660518646240e-02 -8.995234966278076172e-03 7.039818912744522095e-02 -7.991336286067962646e-02 -2.309336513280868530e-02 -4.596356302499771118e-02 8.475715667009353638e-02 5.002642422914505005e-02 -6.498830020427703857e-02 2.835129201412200928e-02 -2.085737884044647217e-03 -5.622940510511398315e-02 3.781013190746307373e-03 1.046895235776901245e-02 6.936845928430557251e-02 5.243805795907974243e-02
-7.017735391855239868e-02 7.724473625421524048e-02 -2.108556032180786133e-02 2.376180887222290039e-02 -7.647082209587097168e-02 -4.061921685934066772e-02 2.669483423233032227e-03 -6.409272551536560059e-02 3.569978475570678711e-02 7.619548588991165161e-02 4.871509969234466553e-03 3.044480085372924805e-02 -6.381108611822128296e-02 1.868087053298950195e-02 -5.283789336681365967e-02 1.189512759447097778e-02 4.788657277822494507e-02 -5.921432375907897949e-02 -3.306759148836135864e-02 -7.092714309692382812e-03 3.171827644109725952e-02 3.501942008733749390e-02 1.063373684883117676e-02 -8.208846300840377808e-02 6.267316639423370361e-03 1.597932726144790649e-02 -8.451601117849349976e-02 -8.094516396522521973e-02 4.320120066404342651e-02 -1.569306850433349609e-02 6.777666509151458740e-03 -5.274376645684242249e-02
1.932770013809204102e-02 -1.342335343360900879e-02 2.371544390916824341e-02 4.085164517164230347e-02 2.395962923765182495e-02 7.709666341543197632e-02 6.801075488328933716e-02 1.386612653732299805e-03 -6.047470867633819580e-02 -5.543760955333709717e-03 -1.218754053115844727e-02 6.977818161249160767e-02 7.638581842184066772e-02 -4.482494294643402100e-02 -5.886740610003471375e-02 -3.153527528047561646e-02 3.655259311199188232e-02 4.086118191480636597e-02 -5.993150919675827026e-02 -1.419746875762939453e-02 2.752511948347091675e-02 7.079466432332992554e-02 -7.408105581998825073e-02 4.555604606866836548e-02 4.927710443735122681e-02 -8.461606502532958984e-02 -5.503008514642715454e-02 -7.452238351106643677e-02 1.844150573015213013e-02 -6.452389061450958252e-02 -1.706820726394653320e-02 -5.493412166833877563e-02
-3.017389774322509766e-02 -4.772515967488288879e-02 -7.988741993904113770e-02 -1.988194882869720459e-02 -5.749849975109100342e-02 -3.802638128399848938e-02 4.111043363809585571e-02 -8.474732190370559692e-02 2.402085810899734497e-02 -2.763092145323753357e-02 -3.471310809254646301e-02 -8.180138468742370605e-02 -6.417607516050338745e-02 6.694158166646957397e-02 -8.336925506591796875e-02 -4.112390428781509399e-02 -7.306131720542907715e-02 -9.036980569362640381e-03 7.055789977312088013e-02 -4.620172083377838135e-03 -4.386040568351745605e-02 7.090794295072555542e-02 7.395888119935989380e-02 -2.116307616233825684e-03 -4.920875653624534607e-02 7.087037712335586548e-02 5.802799016237258911e-02 -2.203605324029922485e-02 2.014479786157608032e-02 -6.626666337251663208e-02 -5.460634827613830566e-03 -5.672597512602806091e-02
-7.373233884572982788e-02 -7.181988656520843506e-02 3.832966089248657227e-03 -4.384237155318260193e-02 -8.228282630443572998e-02 -7.430475950241088867e-02 -5.567354708909988403e-02 -6.606088578701019287e-02 -7.575349509716033936e-02 4.860749095678329468e-02 -6.293281912803649902e-02 -7.892228662967681885e-03 8.147602528333663940e-02 -1.732657849788665771e-02 2.132581919431686401e-02 -3.460280969738960266e-02 -3.068614751100540161e-02 7.848210632801055908e-03 -3.785008937120437622e-02 -3.019298985600471497e-02 -1.879950612783432007e-02 4.696815460920333862e-02 -7.344953715801239014e-02 -2.249367535114288330e-02 -6.727914512157440186e-02 -3.694604709744453430e-02 -7.478466629981994629e-02 3.347212076187133789e-02 8.424165099859237671e-02 -1.777561753988265991e-02 6.889231503009796143e-03 5.590049177408218384e-02
-8.051037788391113281e-02 -5.278510600328445435e-02 1.527034491300582886e-02 -5.192004889249801636e-02 7.704172283411026001e-02 3.812944144010543823e-02 5.095105618238449097e-02 -3.311103582382202148e-02 2.280029654502868652e-02 -6.655491888523101807e-03 1.839505881071090698e-02 3.245696425437927246e-04 1.658126711845397949e-03 3.809250891208648682e-03 3.436479717493057251e-02 -4.178551957011222839e-02 -5.401537939906120300e-02 -3.084179013967514038e-02 -2.831913530826568604e-03 -4.564324393868446350e-02 3.684546053409576416e-02 -9.782113134860992432e-03 3.559786826372146606e-02 3.099425882101058960e-02 -4.946723207831382751e-02 2.236745506525039673e-02 3.862798959016799927e-02 -1.051869988441467285e-02 -4.746040701866149902e-02 7.239826768636703491e-02 -4.534649476408958435e-02 2.590436488389968872e-02
-5.837009847164154053e-02 -5.016634985804557800e-02 8.541359752416610718e-02 -6.997852772474288940e-02 -1.635457947850227356e-02 -2.032882906496524811e-02 -1.316357497125864029e-02 -3.696369007229804993e-02 2.233668603003025055e-02 3.052802523598074913e-03 -4.604317620396614075e-02 -3.786437585949897766e-02 7.828404754400253296e-02 -7.078295946121215820e-02 -8.190128207206726074e-02 5.871454998850822449e-02 6.211663410067558289e-02 -8.224019408226013184e-02 -4.487415775656700134e-02 7.650817185640335083e-02 1.523848902434110641e-02 -2.016576379537582397e-02 -4.453560337424278259e-02 1.423310767859220505e-02 7.609215378761291504e-02 -1.760362274944782257e-02 7.564921677112579346e-02 4.832283407449722290e-02 -4.945046827197074890e-02 3.679499961435794830e-03 -5.822242051362991333e-02 -1.416764967143535614e-02
-6.635901331901550293e-02 5.330184102058410645e-02 -7.699877023696899414e-02 7.349114120006561279e-02 -5.882573127746582031e-02 -7.487437129020690918e-02 7.378803938627243042e-02 3.518795222043991089e-02 2.153897471725940704e-02 -5.070184543728828430e-02 -1.313610095530748367e-02 1.594166038557887077e-03 -7.463934272527694702e-02 -2.660802192986011505e-02 3.376719355583190918e-02 -3.992581740021705627e-02 8.415265381336212158e-02 -1.039029471576213837e-02 -7.786779105663299561e-02 -2.797209843993186951e-02 8.014148473739624023e-02 -8.986265398561954498e-03 4.181912541389465332e-02 -3.086603805422782898e-02 -1.158890221267938614e-02 -7.687465846538543701e-02 -6.465000659227371216e-02 3.882585838437080383e-02 7.335980981588363647e-02 -1.029814872890710831e-02 -1.287279068492352962e-03 1.532325521111488342e-02
4.828106984496116638e-02 -4.190354049205780029e-02 3.828243911266326904e-02 5.839776620268821716e-02 3.774790093302726746e-02 -4.864857345819473267e-02 -2.686490863561630249e-02 3.095785714685916901e-02 -3.187503665685653687e-02 6.191105768084526062e-02 1.111793424934148788e-02 2.170706167817115784e-02 -7.049284875392913818e-02 6.327804177999496460e-02 -2.372237667441368103e-02 -4.026739299297332764e-02 7.969769835472106934e-02 -8.181446045637130737e-02 -1.701441220939159393e-02 -1.482012122869491577e-02 -8.552140742540359497e-02 3.914957493543624878e-02 -5.835194513201713562e-02 -1.119229476898908615e-02 9.987805970013141632e-03 -3.439161181449890137e-02 6.557598710060119629e-02 6.949184834957122803e-02 5.959062278270721436e-02 -8.533698320388793945e-02 -1.974552869796752930e-02 7.900251075625419617e-03
4.671215265989303589e-02 -8.509726077318191528e-02 -1.475026272237300873e-02 3.740227222442626953e-02 4.082626476883888245e-02 -4.388227313756942749e-02 -1.932792551815509796e-02 2.011041529476642609e-02 8.150599896907806396e-02 -3.974423557519912720e-02 7.617723196744918823e-02 -5.899353325366973877e-02 -1.172501221299171448e-02 7.620664685964584351e-02 8.260915428400039673e-02 3.314392268657684326e-02 -1.382384728640317917e-02 2.185216359794139862e-02 -3.275718912482261658e-02 -6.845238059759140015e-02 -1.427885331213474274e-02 8.358753472566604614e-02 5.896786227822303772e-02 4.107414186000823975e-02 -4.347902163863182068e-02 8.285324275493621826e-02 1.448536850512027740e-02 8.047083765268325806e-02 3.811863437294960022e-02 3.487501293420791626e-02 8.470851927995681763e-02 -6.672369688749313354e-02
-7.485167682170867920e-02 -3.057421185076236725e-02 -2.240649051964282990e-02 -4.184547811746597290e-02 2.834861911833286285e-02 3.151948004961013794e-02 -2.145336568355560303e-02 7.924244552850723267e-02 2.483887039124965668e-02 -5.812705308198928833e-02 -8.315532654523849487e-02 -3.182724490761756897e-02 -1.381750567816197872e-03 -3.584877774119377136e-02 -6.548763066530227661e-02 7.126871496438980103e-02 2.888071723282337189e-02 -6.101149693131446838e-02 6.435588002204895020e-02 -2.731421031057834625e-02 -4.883107170462608337e-02 6.921425461769104004e-02 -1.851154305040836334e-02 -4.279890656471252441e-02 -4.869603738188743591e-02 8.235908299684524536e-02 2.356146275997161865e-02 3.550463169813156128e-02 5.323292315006256104e-02 5.214697867631912231e-02 7.561286538839340210e-02 -3.144558519124984741e-02
-5.369800329208374023e-02 9.782221168279647827e-03 3.442977555096149445e-03 1.350931730121374130e-02 6.002109870314598083e-02 -5.502356588840484619e-02 9.682433679699897766e-03 6.834948062896728516e-02 -5.372516438364982605e-02 2.226509898900985718e-02 -6.307628750801086426e-02 -5.277524515986442566e-02 6.201330199837684631e-02 -7.674609869718551636e-02 -6.983181089162826538e-02 2.809051424264907837e-02 -4.960077628493309021e-02 -1.689755171537399292e-02 -7.132256031036376953e-02 1.425896957516670227e-02 4.631188232451677322e-03 6.889803707599639893e-02 2.279074117541313171e-02 -6.006374582648277283e-02 3.352391347289085388e-02 -7.302178442478179932e-02 3.320401161909103394e-02 2.824568422511219978e-03 5.754002183675765991e-02 3.779279440641403198e-02 -2.368015423417091370e-02 -5.761359632015228271e-02
-5.523873493075370789e-02 -4.354237020015716553e-02 -5.082079768180847168e-02 1.723179034888744354e-02 -3.338219597935676575e-02 7.799740880727767944e-03 9.910312481224536896e-03 -3.938945010304450989e-02 6.163114309310913086e-02 1.997107826173305511e-02 6.568720191717147827e-02 2.100965008139610291e-02 -5.133329331874847412e-02 3.775630146265029907e-02 -3.988030180335044861e-02 -7.265183329582214355e-02 -5.977414920926094055e-02 6.014369055628776550e-02 -1.443160348571836948e-03 2.547264285385608673e-02 -4.116305708885192871e-02 7.503607124090194702e-02 -8.109132200479507446e-02 7.916088402271270752e-02 -7.589533925056457520e-02 3.315963968634605408e-02 -2.061844989657402039e-02 -6.157559156417846680e-02 -4.638582840561866760e-02 1.277184765785932541e-02 3.886050358414649963e-02 -3.913974761962890625e-02
-2.471080236136913300e-02 -7.537946105003356934e-02 1.704366318881511688e-02 -3.746342612430453300e-03 7.672535628080368042e-02 -3.279057890176773071e-02 1.719942316412925720e-02 7.495035976171493530e-02 -2.145012281835079193e-02 2.079682890325784683e-04 7.847893238067626953e-02 -3.348957747220993042e-02 -5.287823453545570374e-02 2.809732034802436829e-02 -3.619692102074623108e-02 3.345469757914543152e-02 8.773614652454853058e-03 -1.654583215713500977e-02 -2.405233499302994460e-05 -8.405482023954391479e-02 -1.266051921993494034e-02 -8.353421837091445923e-02 2.566124871373176575e-02 -1.037183590233325958e-02 3.421846032142639160e-02 -1.332188304513692856e-02 -6.930118054151535034e-02 -3.587054088711738586e-02 5.812586750835180283e-03 -4.636496305465698242e-02 1.757154427468776703e-02 3.353505581617355347e-02
-2.919298224151134491e-02 -4.309553280472755432e-02 -4.106724634766578674e-02 -6.831122934818267822e-02 3.867399320006370544e-02 -5.109321326017379761e-02 -2.509164251387119293e-02 -3.703722357749938965e-02 -2.844923362135887146e-02 -2.258279826492071152e-03 -3.584260493516921997e-02 -2.911492623388767242e-02 4.246732965111732483e-02 2.708765678107738495e-02 -4.118637368083000183e-02 -6.551526486873626709e-02 6.438171118497848511e-02 -2.550021372735500336e-02 -4.589577019214630127e-02 8.687193505465984344e-03 -4.535107314586639404e-02 1.277214754372835159e-02 -7.192128151655197144e-02 -5.714993551373481750e-02 7.621600478887557983e-02 3.268618881702423096e-02 -4.285765439271926880e-02 2.833403460681438446e-02 -3.138366341590881348e-02 -8.769381791353225708e-02 -3.876934945583343506e-02 -7.567130029201507568e-02
-3.115377388894557953e-02 3.620413481257855892e-04 -5.481988191604614258e-02 4.899570345878601074e-02 5.827282369136810303e-02 -2.117081545293331146e-02 1.243245601654052734e-02 7.873202115297317505e-02 8.849772065877914429e-02 -7.494454085826873779e-02 1.002586446702480316e-02 2.880045771598815918e-02 7.895388454198837280e-02 4.085709899663925171e-02 -6.066461093723773956e-03 -6.035402044653892517e-02 -2.578373998403549194e-02 -8.730492554605007172e-03 -6.444381177425384521e-02 -9.723474085330963135e-02 1.050389092415571213e-02 -2.109549194574356079e-02 4.880547150969505310e-02 -5.800251290202140808e-02 8.773392438888549805e-02 8.381830900907516479e-02 -3.074579872190952301e-02 -8.365123718976974487e-02 2.464785054326057434e-02 -1.111562922596931458e-02 3.598974645137786865e-02 1.069307886064052582e-02
4.692010208964347839e-02 -4.117102921009063721e-02 -4.270840436220169067e-02 -5.984720587730407715e-02 1.074677333235740662e-02 4.064490273594856262e-02 6.106088310480117798e-02 -6.170393526554107666e-02 3.459838218986988068e-03 -2.731540799140930176e-02 -2.856326848268508911e-02 3.167567402124404907e-02 -2.785716950893402100e-02 2.981116122100502253e-04 -1.076068356633186340e-01 6.916982680559158325e-02 -1.329704280942678452e-02 3.355851396918296814e-02 -1.092878822237253189e-02 5.066529661417007446e-02 -5.714285001158714294e-02 -6.348616629838943481e-02 -3.072031401097774506e-02 6.996333599090576172e-02 4.483894631266593933e-02 7.674859464168548584e-02 -6.486666947603225708e-02 4.071344435214996338e-02 -3.315460309386253357e-02 -5.420095100998878479e-02 9.045184403657913208e-02 -2.997761033475399017e-02
1.848784834146499634e-02 -7.208970934152603149e-02 4.371671751141548157e-02 5.645576119422912598e-02 4.688327386975288391e-02 -4.496149718761444092e-02 1.523851137608289719e-02 5.032750219106674194e-02 -7.206799834966659546e-02 9.449589066207408905e-03 2.112444676458835602e-02 -1.419491507112979889e-02 1.211974620819091797e-01 1.415960676968097687e-02 -4.127958789467811584e-02 -1.134117785841226578e-02 -2.326879464089870453e-02 3.671788796782493591e-02 7.627043873071670532e-02 2.379311434924602509e-02 -8.918071165680885315e-03 7.392580807209014893e-02 -8.682233095169067383e-02 -2.474385499954223633e-02 -3.737166151404380798e-02 -3.122946061193943024e-02 -6.482595112174749374e-03 -3.732370212674140930e-02 4.150374233722686768e-02 6.594581902027130127e-02 -4.358349740505218506e-02 2.963598445057868958e-02
2.291539497673511505e-02 -4.640597850084304810e-02 8.068057894706726074e-02 -6.318458821624517441e-03 5.122188851237297058e-02 9.932582080364227295e-02 5.180682986974716187e-02 -6.206924444995820522e-04 1.153313275426626205e-02 -1.553019136190414429e-02 1.138380076736211777e-02 -7.841758430004119873e-02 1.408706535585224628e-03 8.398900181055068970e-02 -7.311701029539108276e-02 6.331157684326171875e-02 -5.793458223342895508e-02 -6.498804315924644470e-03 -4.202666133642196655e-02 -6.577683985233306885e-02 2.858725562691688538e-02 5.817189812660217285e-02 8.266929537057876587e-02 3.903434425592422485e-02 1.121699810028076172e-02 -5.164932832121849060e-02 -6.185258552432060242e-02 -3.027377277612686157e-02 3.088033385574817657e-02 -4.268098156899213791e-03 -5.851490795612335205e-02 -1.920068264007568359e-02
6.789611279964447021e-02 3.069825097918510437e-02 -7.140183821320533752e-03 -1.804030314087867737e-02 9.800351411104202271e-02 8.746924996376037598e-02 6.980632990598678589e-02 -4.341697692871093750e-02 -2.663458324968814850e-02 -8.970659971237182617e-02 3.175425529479980469e-02 -5.997636541724205017e-02 1.661363639868795872e-04 9.161926805973052979e-02 -6.898410618305206299e-02 2.371982298791408539e-02 -6.002145633101463318e-02 5.513909459114074707e-02 -3.165927017107605934e-03 -7.270610332489013672e-02 3.099915012717247009e-02 7.094946503639221191e-02 -1.602575927972793579e-02 4.428338631987571716e-02 -5.911822989583015442e-02 -8.222775906324386597e-02 6.021558120846748352e-02 2.002263627946376801e-02 -9.398998226970434189e-04 -7.870601862668991089e-02 7.008637487888336182e-02 1.910533756017684937e-02
6.822917610406875610e-02 6.770585477352142334e-02 6.572073698043823242e-02 -7.189979404211044312e-02 -2.563011646270751953e-02 -3.528141602873802185e-02 4.954623430967330933e-02 -5.227889865636825562e-02 3.662255406379699707e-02 -1.219826657325029373e-02 -1.370815187692642212e-02 -6.551218777894973755e-02 -4.184937849640846252e-02 1.242621317505836487e-01 -4.764889553189277649e-02 4.906252399086952209e-02 -8.666753023862838745e-02 -4.265826940536499023e-02 6.706439424306154251e-03 -4.943418875336647034e-02 -2.701121754944324493e-02 6.123040989041328430e-02 -7.612259685993194580e-02 8.350660651922225952e-02 2.868226030841469765e-03 4.596192762255668640e-02 -5.519474297761917114e-02 -9.239700622856616974e-03 7.079432904720306396e-02 1.566928066313266754e-02 -5.966313183307647705e-02 3.441281616687774658e-02
2.744598023127764463e-04 1.552701368927955627e-02 -5.514101684093475342e-02 6.950701773166656494e-02 -2.999582700431346893e-02 7.387297600507736206e-02 -8.061728626489639282e-02 -5.508107692003250122e-02 -4.002086445689201355e-02 6.383897736668586731e-03 6.894786655902862549e-02 -1.583516411483287811e-02 1.774202845990657806e-02 6.591644138097763062e-02 -8.557272702455520630e-02 -3.109296038746833801e-02 -6.312996149063110352e-02 -2.736296132206916809e-02 -5.063599348068237305e-02 -3.956659883260726929e-02 9.017964825034141541e-03 7.478653639554977417e-02 -2.786468481644988060e-03 2.189756743609905243e-02 -4.148408025503158569e-02 -7.502467930316925049e-02 -3.733668848872184753e-02 -1.163820773363113403e-01 5.839603394269943237e-02 -7.153357565402984619e-02 -3.302582725882530212e-02 -1.077970787882804871e-01
7.781785726547241211e-02 8.555345237255096436e-03 -2.850538305938243866e-02 4.332922771573066711e-02 -6.130786985158920288e-02 -4.675440490245819092e-02 -8.612256497144699097e-03 -7.983361184597015381e-02 -9.983018971979618073e-03 1.113731227815151215e-02 5.932478606700897217e-02 -7.331253588199615479e-02 -5.039607360959053040e-02 8.702263981103897095e-02 4.304678365588188171e-02 8.923107385635375977e-02 3.922350704669952393e-02 2.796712331473827362e-03 -7.442050147801637650e-03 -6.772962212562561035e-02 -2.792241238057613373e-02 5.277430266141891479e-02 -1.809578202664852142e-02 6.266885995864868164e-02 5.248726159334182739e-02 -1.696989871561527252e-02 -4.980477318167686462e-02 -1.126281246542930603e-01 3.259860351681709290e-02 -2.002368122339248657e-02 -2.606066502630710602e-02 3.862550109624862671e-02
-1.446780748665332794e-02 -2.486601285636425018e-02 7.909805327653884888e-02 -5.486445501446723938e-02 -1.600365899503231049e-02 4.961757734417915344e-02 5.817746743559837341e-03 4.882069304585456848e-02 9.236154705286026001e-02 3.913924843072891235e-02 9.030159562826156616e-02 4.328344017267227173e-02 7.069389522075653076e-02 -1.739741861820220947e-02 3.598774224519729614e-02 9.994334727525711060e-02 -2.899493090808391571e-02 5.769066885113716125e-02 7.576382160186767578e-02 -3.160187229514122009e-02 -4.182102531194686890e-02 -1.823861151933670044e-02 1.043898425996303558e-02 5.643695220351219177e-02 6.138256937265396118e-02 2.112600393593311310e-02 2.307060873135924339e-03 -8.014453202486038208e-02 -5.599573627114295959e-02 -1.331713143736124039e-02 -1.659076660871505737e-02 4.645230993628501892e-02
3.994090482592582703e-02 -5.317228659987449646e-02 4.368394240736961365e-02 1.524988934397697449e-02 1.976644061505794525e-02 3.339103981852531433e-02 4.058874398469924927e-02 -4.876948520541191101e-02 7.422357797622680664e-02 -8.000151813030242920e-02 -6.971495226025581360e-03 -4.891288932412862778e-03 -2.216369658708572388e-02 5.930162966251373291e-02 -3.590432181954383850e-02 8.606722950935363770e-02 2.024489687755703926e-03 -4.046769067645072937e-02 3.982519358396530151e-02 -1.607848447747528553e-03 3.187748417258262634e-02 -7.366845756769180298e-02 6.671833246946334839e-02 -5.178833007812500000e-02 6.477117538452148438e-02 3.404989093542098999e-02 6.675979495048522949e-02 -4.976762831211090088e-02 -3.970054537057876587e-02 -1.883643493056297302e-02 4.725275188684463501e-02 -8.960383385419845581e-02
-5.032385513186454773e-02 7.444635033607482910e-02 2.249955578008666635e-04 1.103153172880411148e-02 5.897354334592819214e-02 -6.688854098320007324e-02 2.874855697154998779e-02 -2.915903460234403610e-03 2.363516017794609070e-02 6.676860153675079346e-02 -1.943759992718696594e-02 -1.184035092592239380e-02 8.746489882469177246e-02 2.714242786169052124e-02 6.451738625764846802e-02 9.103056043386459351e-02 -6.073745433241128922e-03 -7.551446557044982910e-02 4.150701686739921570e-02 3.358761966228485107e-02 8.062867820262908936e-02 -4.595222324132919312e-02 1.274490449577569962e-02 5.294883251190185547e-02 3.368549793958663940e-02 7.416874915361404419e-02 -2.258336357772350311e-02 4.080782458186149597e-02 -2.919805049896240234e-02 7.071352005004882812e-02 -6.601134687662124634e-02 -6.918086856603622437e-02
-4.671282321214675903e-02 3.825350105762481689e-02 2.671374706551432610e-03 -1.604300551116466522e-02 5.326533690094947815e-02 -4.988213256001472473e-02 3.713260963559150696e-02 7.828947156667709351e-02 6.197747960686683655e-02 1.897501014173030853e-02 -4.587750881910324097e-02 -4.326036944985389709e-02 -8.110152184963226318e-02 -5.235645920038223267e-02 -7.308160513639450073e-02 4.552331194281578064e-02 -2.846311964094638824e-02 5.538280680775642395e-02 -4.135367646813392639e-02 3.186181932687759399e-02 6.640625000000000000e-02 -3.921370580792427063e-02 -8.159185945987701416e-02 2.993651852011680603e-02 3.623859584331512451e-02 -3.256791085004806519e-02 -7.415293902158737183e-02 -3.517966717481613159e-02 -5.997588485479354858e-02 4.228985309600830078e-02 4.151973873376846313e-02 -3.473654761910438538e-02
1.481771934777498245e-02 5.542156845331192017e-02 -8.202826604247093201e-03 -8.327702432870864868e-02 -2.747431769967079163e-02 8.462630957365036011e-02 -2.551580080762505531e-03 -4.957717657089233398e-02 -7.911811023950576782e-02 -7.264321297407150269e-02 4.478336870670318604e-02 -8.251024037599563599e-02 -2.773973392322659492e-03 7.302913069725036621e-02 -6.161852926015853882e-02 -1.309514394961297512e-03 -2.629256621003150940e-02 -1.541101187467575073e-02 6.149744614958763123e-02 1.531489286571741104e-02 -7.433624006807804108e-03 5.859792232513427734e-02 7.947811484336853027e-02 7.303220778703689575e-02 5.490308627486228943e-02 -7.628868520259857178e-02 -7.321222126483917236e-02 -4.236878827214241028e-02 8.418215811252593994e-02 -5.614590644836425781e-02 -8.163258433341979980e-02 7.387622445821762085e-02
-4.408445581793785095e-02 2.331441827118396759e-02 1.027523726224899292e-02 -7.412819564342498779e-02 5.699367076158523560e-02 8.146503567695617676e-02 2.150488831102848053e-02 -8.331987261772155762e-02 -5.721271410584449768e-02 -3.293085470795631409e-02 -9.717272594571113586e-03 -5.572222918272018433e-02 -4.180121177341789007e-04 8.525452762842178345e-02 -5.307845026254653931e-02 -1.247232966125011444e-02 -5.186485499143600464e-02 -4.525899142026901245e-02 2.184223197400569916e-02 -2.941326983273029327e-02 3.168785199522972107e-02 4.790575802326202393e-02 -1.569064334034919739e-02 8.376901596784591675e-02 2.943998202681541443e-02 6.625515525229275227e-04 -7.378690689802169800e-02 -6.037992238998413086e-02 3.650123253464698792e-02 -5.046854540705680847e-02 -4.532040655612945557e-02 3.238999843597412109e-02
-4.426115378737449646e-02 -5.380543693900108337e-02 3.539925068616867065e-02 -1.846238970756530762e-02 1.146528217941522598e-02 7.380364090204238892e-02 7.849445566534996033e-03 2.619980368763208389e-03 6.062944978475570679e-02 -6.913481745868921280e-03 -7.524550426751375198e-03 3.632624074816703796e-02 2.350752986967563629e-02 2.049343427643179893e-03 -5.921515822410583496e-02 -2.937051467597484589e-02 -1.239029970020055771e-02 -6.061432510614395142e-02 6.130395457148551941e-02 3.590066730976104736e-02 1.836716383695602417e-02 -1.190166641026735306e-02 4.424493759870529175e-02 2.281065098941326141e-02 2.966418303549289703e-02 9.252884192392230034e-04 -5.611499026417732239e-02 4.273322224617004395e-02 2.444830723106861115e-02 -5.625059828162193298e-02 9.609485045075416565e-03 -4.086752608418464661e-02
3.946182876825332642e-02 -2.602333202958106995e-02 2.387826144695281982e-02 3.457553684711456299e-02 -4.970475286245346069e-02 7.660231739282608032e-02 4.737859219312667847e-02 6.213638931512832642e-02 -4.773613810539245605e-02 -2.752771973609924316e-02 -4.324423521757125854e-02 -1.916200667619705200e-02 -3.064409270882606506e-02 3.539107739925384521e-02 6.992094963788986206e-02 5.239464342594146729e-03 -5.603109672665596008e-02 5.213125795125961304e-02 1.827426254749298096e-03 -5.530498176813125610e-02 -1.482602953910827637e-02 -3.537930175662040710e-02 -1.651997864246368408e-02 -9.448811411857604980e-03 4.443135112524032593e-02 6.490481644868850708e-02 1.978142559528350830e-02 2.096651494503021240e-02 -5.783145502209663391e-02 -5.802870169281959534e-02 -1.252204924821853638e-02 4.164712876081466675e-02
-5.513604730367660522e-02 3.272171318531036377e-02 -9.986817836761474609e-03 -6.115883588790893555e-04 -8.361414074897766113e-02 -1.236523687839508057e-02 1.366334408521652222e-02 6.083548069000244141e-03 7.964115589857101440e-02 2.208886295557022095e-02 4.370889812707901001e-02 -7.959382236003875732e-02 -6.655150651931762695e-02 -6.588437408208847046e-02 8.220421522855758667e-02 -4.292637109756469727e-02 -5.444499105215072632e-02 -5.470246821641921997e-02 -7.182258367538452148e-02 6.097547709941864014e-03 -2.877234295010566711e-02 5.361150950193405151e-02 -4.056733101606369019e-02 -2.974152192473411560e-02 -5.607114732265472412e-02 7.673745602369308472e-02 -6.619796901941299438e-02 5.768360942602157593e-02 5.665272474288940430e-04 -6.835180521011352539e-02 1.382262259721755981e-02 -7.023533433675765991e-02
-5.123475939035415649e-02 5.767769366502761841e-02 5.296153575181961060e-02 -7.653051614761352539e-02 5.811583250761032104e-02 4.614051431417465210e-02 -5.540177226066589355e-04 7.076691836118698120e-02 -4.094524309039115906e-02 6.423860788345336914e-03 1.875171065330505371e-02 2.044904977083206177e-02 -2.840671688318252563e-02 -8.238251507282257080e-02 -3.391042351722717285e-03 -6.968845427036285400e-02 -6.995478272438049316e-02 -8.369100838899612427e-02 -4.189856350421905518e-03 -6.175962835550308228e-02 -6.717467308044433594e-02 -9.309075772762298584e-03 -5.047049373388290405e-02 -3.824703395366668701e-02 -3.608239814639091492e-02 1.783189922571182251e-02 1.028364896774291992e-02 -6.825616955757141113e-02 -6.998319923877716064e-02 5.468548089265823364e-02 8.137246221303939819e-02 -5.729792267084121704e-02
-7.347887009382247925e-02 7.673206180334091187e-02 1.810716092586517334e-02 -5.245106667280197144e-02 -4.695120453834533691e-02 8.060786873102188110e-02 -1.145230233669281006e-02 -4.894610866904258728e-02 -8.434376865625381470e-02 7.833573967218399048e-02 -5.032685026526451111e-02 -2.651673182845115662e-02 -7.272059470415115356e-02 -5.493865907192230225e-02 2.757097780704498291e-02 -8.294095098972320557e-02 5.796445161104202271e-02 6.196818500757217407e-02 6.256719678640365601e-02 -3.232889994978904724e-02 -2.509207651019096375e-02 5.840835720300674438e-02 -2.211369574069976807e-03 -8.451584726572036743e-02 -2.401806414127349854e-03 3.746307641267776489e-02 -5.537790432572364807e-02 -8.288252353668212891e-02 8.146173506975173950e-02 3.928529471158981323e-02 2.630949020385742188e-03 7.078518718481063843e-02
6.200515851378440857e-02 5.573539808392524719e-02 5.783405900001525879e-02 -4.045484960079193115e-02 1.499052252620458603e-02 -5.126314610242843628e-02 3.432841971516609192e-02 -5.573958903551101685e-02 -5.105883255600929260e-02 2.771429158747196198e-02 6.087708845734596252e-02 -5.561655759811401367e-02 -7.064947485923767090e-02 -7.553353905677795410e-02 -7.149321027100086212e-03 1.997867599129676819e-02 -3.556993603706359863e-02 -8.334406465291976929e-02 1.627184450626373291e-02 -6.230063270777463913e-03 -6.666754186153411865e-02 -2.839604206383228302e-02 4.628462344408035278e-02 -7.194916903972625732e-02 -7.264035195112228394e-02 -2.903228625655174255e-02 7.083380129188299179e-03 -1.191136240959167480e-02 -8.474005013704299927e-02 5.251373723149299622e-02 -7.383710891008377075e-02 -6.281148642301559448e-02
-6.144431978464126587e-02 -5.329044163227081299e-02 -5.200023576617240906e-02 -6.379675120115280151e-02 4.224831238389015198e-02 5.350269004702568054e-02 -4.716416820883750916e-02 3.264709562063217163e-02 7.577425986528396606e-02 2.919671824201941490e-03 -6.859567016363143921e-02 2.633428201079368591e-02 3.395921736955642700e-02 -1.416769344359636307e-02 -2.889590151607990265e-02 5.128553882241249084e-02 7.010813057422637939e-02 5.979357659816741943e-02 7.505628466606140137e-02 -6.543125212192535400e-02 -4.681526869535446167e-02 -4.813805222511291504e-02 -4.366458579897880554e-02 -5.122606828808784485e-02 -3.958901390433311462e-02 -2.462354861199855804e-02 -3.492629155516624451e-03 -7.461417466402053833e-02 4.414423555135726929e-02 6.855266541242599487e-02 -7.144158333539962769e-02 -2.392920851707458496e-02
8.246583491563796997e-02 -4.604067653417587280e-02 3.611060604453086853e-02 -4.319869354367256165e-02 -4.916486516594886780e-02 5.034553632140159607e-02 -2.457981742918491364e-02 -1.131402887403964996e-02 2.564891241490840912e-03 8.227317780256271362e-02 -8.358912169933319092e-02 1.263186708092689514e-02 -1.852961629629135132e-02 -7.739214599132537842e-02 7.890457659959793091e-02 -8.359477669000625610e-02 2.934371493756771088e-02 -6.566422432661056519e-02 1.165017113089561462e-02 -6.616561859846115112e-02 8.402065187692642212e-02 5.515717901289463043e-03 -5.187907069921493530e-02 6.557556241750717163e-02 5.399522557854652405e-02 3.861252218484878540e-02 3.518223017454147339e-02 9.790956042706966400e-03 4.251842945814132690e-02 -6.104071065783500671e-02 -4.631286486983299255e-03 -8.162612468004226685e-02
1.798327639698982239e-02 4.861673712730407715e-02 -3.370201587677001953e-02 1.616721600294113159e-02 5.991180241107940674e-02 -2.274763584136962891e-02 -1.464406587183475494e-02 -2.969725802540779114e-02 -6.235492601990699768e-02 1.250453293323516846e-02 4.643403738737106323e-02 -7.113846484571695328e-03 7.686172425746917725e-02 2.012955211102962494e-02 6.168471276760101318e-02 1.979417540132999420e-02 7.980387657880783081e-02 -1.284775789827108383e-02 1.466440595686435699e-02 -3.408977389335632324e-02 -1.804789900779724121e-02 8.348346501588821411e-02 2.102668210864067078e-02 3.173841163516044617e-02 -2.036523073911666870e-02 7.334484159946441650e-02 6.942845880985260010e-02 2.417884394526481628e-02 1.861074753105640411e-02 8.534343540668487549e-02 -2.607526257634162903e-02 2.090026810765266418e-02
-2.590635418891906738e-02 1.133768074214458466e-02 -4.863641690462827682e-03 -4.211018234491348267e-02 -4.897065088152885437e-02 6.651192903518676758e-02 -4.151957482099533081e-02 5.319656431674957275e-02 -5.839473754167556763e-02 4.343880340456962585e-02 5.001600459218025208e-02 2.860900945961475372e-02 2.281070221215486526e-03 4.756662622094154358e-02 7.732135802507400513e-02 -2.577255293726921082e-02 -4.767182841897010803e-02 -8.560685440897941589e-03 4.675246402621269226e-02 -1.349282637238502502e-02 3.693170472979545593e-02 -2.898528473451733589e-03 -6.244225054979324341e-02 -7.315067201852798462e-02 2.132751606404781342e-02 3.298773244023323059e-02 3.281087800860404968e-02 -3.345134854316711426e-02 -7.687380071729421616e-03 -4.270036518573760986e-02 -2.012830926105380058e-03 -6.574231386184692383e-02
2.767906710505485535e-02 -2.471393346786499023e-02 2.884804969653487206e-03 3.541486337780952454e-02 7.344245165586471558e-02 8.902164548635482788e-02 -3.953587636351585388e-02 2.038050815463066101e-02 7.844384759664535522e-02 -7.534299790859222412e-02 -3.961746022105216980e-02 6.902632862329483032e-02 -5.380285531282424927e-02 -5.714417248964309692e-02 -8.301962167024612427e-02 4.185163974761962891e-02 2.506383927538990974e-03 7.405428588390350342e-02 6.910319626331329346e-02 7.635998725891113281e-02 2.154164575040340424e-02 1.569019630551338196e-02 4.780502989888191223e-02 -3.375672176480293274e-02 -7.517571747303009033e-02 -1.133553776890039444e-02 7.381960004568099976e-02 -6.875767838209867477e-03 -6.468805670738220215e-02 -4.358207434415817261e-02 2.752730436623096466e-02 -2.972506731748580933e-02
4.985237494111061096e-02 9.419052861630916595e-03 -5.489965155720710754e-02 2.495196834206581116e-02 -1.007597800344228745e-02 7.115048170089721680e-02 -4.631513729691505432e-02 8.097788318991661072e-03 -2.092929929494857788e-02 -3.255040571093559265e-02 -5.051760002970695496e-02 -5.099830403923988342e-02 7.714318577200174332e-03 -3.630952164530754089e-02 6.526676565408706665e-02 7.291551679372787476e-02 4.841784387826919556e-02 -5.771773308515548706e-02 4.961439967155456543e-02 2.652648463845252991e-02 -5.790168419480323792e-02 5.779621005058288574e-02 2.790804207324981689e-02 -4.875438753515481949e-03 2.432091534137725830e-02 1.872674748301506042e-02 -6.437684595584869385e-02 -6.317066401243209839e-02 -4.191584512591362000e-02 2.969691716134548187e-02 3.526216000318527222e-02 1.374880783259868622e-02
-2.941626310348510742e-02 6.848683953285217285e-02 4.292693361639976501e-02 -1.870408281683921814e-02 7.294678688049316406e-02 5.600229650735855103e-02 -7.283008098602294922e-02 -7.531948387622833252e-02 6.859263777732849121e-02 1.835709065198898315e-02 1.976465433835983276e-02 -5.237780138850212097e-02 6.892240792512893677e-02 7.267301529645919800e-02 7.203431427478790283e-02 -8.131400495767593384e-02 -1.119643151760101318e-01 -9.851633012294769287e-02 -2.009738050401210785e-02 -7.052690535783767700e-02 -6.095346435904502869e-02 7.810600567609071732e-03 2.356910333037376404e-02 -6.229101866483688354e-02 6.843289732933044434e-02 -8.050926961004734039e-03 -5.216545984148979187e-02 1.237604860216379166e-02 -1.224146503955125809e-02 -3.446315973997116089e-02 3.257878869771957397e-02 -4.992120712995529175e-02
-8.440907299518585205e-02 -9.272533468902111053e-03 2.633311785757541656e-02 -5.721307545900344849e-02 4.564799368381500244e-02 1.143031418323516846e-01 1.028086990118026733e-02 -5.737053602933883667e-02 3.471595048904418945e-02 -5.951242893934249878e-02 2.227200008928775787e-02 2.005217131227254868e-03 1.168073527514934540e-02 -3.997690230607986450e-02 -2.158151753246784210e-02 -4.105851985514163971e-03 -9.197412058711051941e-03 -9.816470742225646973e-02 3.507761657238006592e-02 4.675992205739021301e-02 9.772841818630695343e-03 -1.477876957505941391e-02 -2.308485470712184906e-02 -4.691045731306076050e-02 4.271347448229789734e-02 -7.959120720624923706e-02 2.564948238432407379e-02 4.964497312903404236e-02 8.815155364573001862e-03 8.697384595870971680e-02 7.456234097480773926e-02 6.519375741481781006e-02
-4.046564176678657532e-02 5.637244135141372681e-02 -6.567103415727615356e-02 -2.449932694435119629e-02 6.368111073970794678e-02 -3.203326463699340820e-02 -7.911498099565505981e-02 -6.940840184688568115e-02 -9.259823709726333618e-03 2.914283052086830139e-02 9.169351309537887573e-02 2.184400893747806549e-02 1.744727790355682373e-02 9.811192005872726440e-02 -5.999860912561416626e-02 1.297426689416170120e-02 -5.112828686833381653e-02 -1.211441382765769958e-01 5.500575155019760132e-02 7.276046276092529297e-02 8.017794042825698853e-02 5.138618126511573792e-02 -4.763203859329223633e-02 7.904961705207824707e-02 1.086630299687385559e-01 2.930398657917976379e-02 -1.031527444720268250e-01 -3.913500532507896423e-02 6.839696317911148071e-02 -7.518777996301651001e-02 -1.138514652848243713e-02 -7.305299490690231323e-02
-2.065717801451683044e-02 3.614703938364982605e-02 -4.320055618882179260e-02 -7.960148900747299194e-02 6.383414566516876221e-02 -6.504000630229711533e-03 1.480395998805761337e-02 -3.736049309372901917e-02 4.231356456875801086e-02 -4.487722367048263550e-02 7.769867032766342163e-02 -4.236120730638504028e-02 1.058211177587509155e-01 8.650512993335723877e-02 -4.094393923878669739e-02 3.714569658041000366e-02 1.894216798245906830e-02 1.337581686675548553e-02 5.430163815617561340e-02 6.574643403291702271e-02 7.374241482466459274e-03 8.217674493789672852e-02 5.484520271420478821e-02 7.500997930765151978e-02 9.446426294744014740e-03 4.295454919338226318e-02 -1.498130243271589279e-02 -8.965329825878143311e-02 3.720697015523910522e-02 4.527195170521736145e-02 5.265272781252861023e-02 -7.931680977344512939e-02
-1.392186433076858521e-02 -3.107829019427299500e-02 5.564656853675842285e-02 -8.840886503458023071e-02 2.854788862168788910e-02 5.561441928148269653e-02 5.196279287338256836e-02 -4.857292398810386658e-02 6.520649045705795288e-02 -5.805163457989692688e-02 -4.167738370597362518e-03 7.142223417758941650e-02 1.507963240146636963e-02 -2.223384566605091095e-03 -6.713354587554931641e-02 -6.555579602718353271e-02 -1.245397776365280151e-01 -5.273076146841049194e-02 -1.100519578903913498e-02 4.726873338222503662e-02 -5.535509809851646423e-02 9.776420146226882935e-02 -5.010969191789627075e-02 1.360833793878555298e-01 9.102421998977661133e-02 -1.298883743584156036e-02 -5.352758243680000305e-02 -4.406476765871047974e-02 1.155614759773015976e-02 3.693598136305809021e-02 -3.948402032256126404e-02 -8.577783405780792236e-02
-5.625213310122489929e-02 6.822146009653806686e-03 -1.945132762193679810e-02 1.409202930517494678e-03 3.999767452478408813e-02 1.293178647756576538e-01 4.775903373956680298e-02 1.311999466270208359e-02 1.088701486587524414e-01 -8.696909993886947632e-02 -2.919500134885311127e-02 4.162839800119400024e-02 3.601621836423873901e-02 -3.788632899522781372e-02 -1.734221354126930237e-02 8.199815452098846436e-02 -4.520769417285919189e-02 -7.209386676549911499e-02 -4.097119346261024475e-02 -8.692488819360733032e-02 -2.016543224453926086e-02 3.281320258975028992e-02 2.664088644087314606e-02 1.155157689936459064e-03 -1.320007722824811935e-02 -2.878946810960769653e-02 -1.217578053474426270e-01 -2.499662898480892181e-02 4.747170605696737766e-04 -4.890138283371925354e-02 9.967541694641113281e-02 1.756764762103557587e-02
-1.000101342797279358e-01 3.945171087980270386e-02 -1.440069451928138733e-02 -4.629689455032348633e-02 3.533607348799705505e-02 -2.706584520637989044e-03 -1.203165971674025059e-03 3.641719743609428406e-02 -3.789831325411796570e-02 1.658853329718112946e-02 -2.930301800370216370e-02 -3.278984874486923218e-02 2.979577146470546722e-02 1.355863511562347412e-01 -4.595538973808288574e-02 -3.678879141807556152e-02 -2.052834257483482361e-02 -1.381650716066360474e-01 1.385008171200752258e-02 2.943312004208564758e-02 4.392786324024200439e-02 3.580562397837638855e-02 3.665889054536819458e-02 1.144253090023994446e-01 5.308207124471664429e-03 3.058770671486854553e-02 -6.348785012960433960e-02 -1.176826581358909607e-01 -5.820073559880256653e-02 -6.569869816303253174e-02 -6.421458441764116287e-03 -8.260369300842285156e-02
2.556511759757995605e-02 -1.633844897150993347e-02 -8.195690065622329712e-02 1.846067234873771667e-02 6.623246520757675171e-02 4.975563287734985352e-02 -1.846307073719799519e-03 -8.281179517507553101e-02 4.560636729001998901e-02 1.361862476915121078e-02 6.022280827164649963e-02 -5.172870308160781860e-02 1.483169794082641602e-01 -1.021727337501943111e-03 -8.964155614376068115e-02 4.697299748659133911e-02 -8.106800168752670288e-02 -1.579007357358932495e-01 4.002689197659492493e-02 -3.823619335889816284e-02 8.405379205942153931e-02 -7.226346433162689209e-02 8.151254057884216309e-02 4.872513189911842346e-02 1.113763917237520218e-02 -5.034820362925529480e-02 2.137626148760318756e-02 -4.638126865029335022e-02 4.896705597639083862e-02 4.991725832223892212e-02 1.721907407045364380e-02 1.815286092460155487e-02
-9.196729212999343872e-02 4.543779790401458740e-02 3.960375860333442688e-02 -4.623422771692276001e-02 1.259180009365081787e-01 2.833722531795501709e-02 1.569008920341730118e-03 3.789394721388816833e-02 1.674792147241532803e-03 -5.243364721536636353e-02 1.129931211471557617e-02 2.120554260909557343e-02 8.208424597978591919e-02 1.063804253935813904e-01 -7.096810638904571533e-02 1.793354004621505737e-02 -1.408389955759048462e-01 -1.731635257601737976e-02 2.679000236093997955e-02 -3.995411563664674759e-03 1.215840131044387817e-01 -2.637911960482597351e-02 -6.955584883689880371e-02 1.347822248935699463e-01 -1.290314272046089172e-02 -7.255764305591583252e-02 2.459396235644817352e-02 -9.675385802984237671e-02 -6.835848093032836914e-02 -2.006736397743225098e-02 9.288845211267471313e-02 -6.580410152673721313e-02
-5.836863815784454346e-02 -8.593072742223739624e-02 5.084960162639617920e-02 1.127796247601509094e-03 2.186005935072898865e-02 9.215398132801055908e-02 -8.124920725822448730e-02 -4.041993245482444763e-02 8.645139634609222412e-02 -3.147704526782035828e-02 -4.133643582463264465e-02 2.571480348706245422e-02 4.972274973988533020e-02 1.503322124481201172e-01 -1.044791638851165771e-01 -2.983969403430819511e-03 -1.378572583198547363e-01 -1.446483135223388672e-01 4.943861812353134155e-02 -1.052206903696060181e-01 1.385654695332050323e-02 -2.305912598967552185e-02 2.702989242970943451e-02 2.473406679928302765e-02 9.862332791090011597e-02 -4.123800247907638550e-02 4.660682007670402527e-02 -1.171450316905975342e-01 -5.967920646071434021e-02 -3.134771436452865601e-02 8.697232604026794434e-02 -1.071593835949897766e-01
-2.730628289282321930e-02 -1.019042283296585083e-01 -5.724603310227394104e-02 -6.137069314718246460e-02 -2.502826601266860962e-02 6.729713827371597290e-02 -3.851437568664550781e-02 -3.792680799961090088e-02 5.260490626096725464e-02 1.036357693374156952e-02 -3.421298041939735413e-02 -1.326659470796585083e-01 -1.343182474374771118e-02 1.046064496040344238e-01 4.677091911435127258e-02 2.086365595459938049e-03 -3.005361370742321014e-02 -3.496679291129112244e-02 -3.182563930749893188e-02 -9.903127327561378479e-03 -8.775099180638790131e-03 -7.614060491323471069e-02 -5.349234119057655334e-02 6.069686263799667358e-02 -2.936424687504768372e-02 2.442785166203975677e-02 -5.710366368293762207e-02 -2.163614146411418915e-02 -1.071964856237173080e-03 3.551081195473670959e-02 1.193689089268445969e-02 -7.289942353963851929e-02
4.158456623554229736e-02 4.777099937200546265e-02 -8.763862401247024536e-02 3.015497140586376190e-02 -2.425616420805454254e-02 3.272641822695732117e-02 -1.303731463849544525e-02 7.455815374851226807e-02 1.757089979946613312e-02 -5.768287181854248047e-02 9.444797784090042114e-02 -3.769902139902114868e-02 2.391257509589195251e-02 7.263534516096115112e-02 3.728374838829040527e-02 1.202687993645668030e-01 -6.877522915601730347e-02 -3.592324256896972656e-02 3.256466612219810486e-02 -1.415748000144958496e-01 5.476206913590431213e-02 -8.141356520354747772e-03 1.751517318189144135e-02 -5.394615232944488525e-02 4.993423447012901306e-02 2.320652268826961517e-02 -3.873924911022186279e-02 -1.289644986391067505e-01 -9.828205406665802002e-02 -8.451499789953231812e-02 5.577366054058074951e-02 9.848053567111492157e-03
-8.463654667139053345e-02 5.870870663784444332e-04 -6.076709926128387451e-02 7.861285656690597534e-02 -5.754541605710983276e-02 -6.070476025342941284e-02 6.281297653913497925e-02 -6.711572408676147461e-02 1.386351790279150009e-02 -7.952167838811874390e-02 9.664996527135372162e-03 -6.673594564199447632e-02 -3.928965702652931213e-02 8.975980803370475769e-03 -6.430363655090332031e-02 6.573233753442764282e-02 5.480025336146354675e-02 -5.123298615217208862e-02 1.079494953155517578e-01 -2.287381887435913086e-02 1.005067769438028336e-02 -4.379352554678916931e-03 -3.343555703759193420e-02 9.028203785419464111e-02 -1.032761763781309128e-02 -3.578406199812889099e-02 3.871398046612739563e-02 3.095756284892559052e-02 -7.455429434776306152e-02 -2.848929492756724358e-03 -2.754868753254413605e-02 -5.536622181534767151e-02
-1.648850366473197937e-02 2.139801345765590668e-02 6.891786307096481323e-02 2.582429535686969757e-02 1.369575620628893375e-03 5.889540165662765503e-02 6.160829961299896240e-02 3.677547443658113480e-03 -1.506889984011650085e-02 -5.710369348526000977e-02 -5.034114792943000793e-02 7.805533241480588913e-03 -7.534624636173248291e-02 4.647842794656753540e-02 -6.642658263444900513e-02 -1.311126397922635078e-03 -7.815796881914138794e-02 -7.622657343745231628e-03 -6.215527653694152832e-02 4.256010055541992188e-02 -5.505769327282905579e-02 4.433500394225120544e-02 -5.020380392670631409e-02 -2.046187967061996460e-02 8.425356447696685791e-02 -7.534173876047134399e-02 6.342276930809020996e-02 5.391201376914978027e-02 6.169958040118217468e-02 -2.166922949254512787e-02 -3.528906404972076416e-02 -7.768939714878797531e-03
-5.360518116503953934e-03 -5.731089785695075989e-02 -4.179657995700836182e-02 5.699286609888076782e-02 3.812149912118911743e-02 4.977444559335708618e-02 -6.717831641435623169e-02 4.185238108038902283e-02 -2.330435067415237427e-02 -8.694937825202941895e-02 -5.306719616055488586e-02 -1.716155931353569031e-02 3.607332473620772362e-03 9.737327694892883301e-02 -8.209168165922164917e-02 5.183317512273788452e-02 3.912679478526115417e-02 -4.464983567595481873e-02 4.982041195034980774e-02 4.013853892683982849e-02 -2.111328020691871643e-02 3.280148375779390335e-03 -7.463664561510086060e-02 -1.241465914063155651e-03 -1.967708766460418701e-02 5.103846639394760132e-02 4.605298861861228943e-02 -7.012495398521423340e-02 -6.334239989519119263e-02 2.057202346622943878e-02 -2.382534742355346680e-02 -4.939027875661849976e-02
2.399260178208351135e-02 5.598150193691253662e-03 -3.846515342593193054e-02 2.662381529808044434e-02 -6.137375906109809875e-02 2.160546183586120605e-02 -7.187502086162567139e-02 -1.794174686074256897e-02 5.995004251599311829e-02 -9.705756790935993195e-03 2.212700992822647095e-02 -5.536501854658126831e-02 -8.217420428991317749e-02 2.470500394701957703e-02 1.516930409707129002e-03 8.630858361721038818e-02 4.336694628000259399e-02 6.323330453597009182e-04 6.076082587242126465e-02 -3.879130817949771881e-03 -4.289560019969940186e-02 6.259491783566772938e-04 9.813357144594192505e-03 7.290308363735675812e-03 -1.186926290392875671e-02 4.589988291263580322e-02 7.942080497741699219e-02 7.738063484430313110e-02 -3.053609654307365417e-02 -6.595525890588760376e-02 -5.992766097187995911e-02 -4.317361861467361450e-02
3.048400580883026123e-02 8.180134743452072144e-02 -7.415081560611724854e-02 -3.031754493713378906e-02 5.613934993743896484e-02 2.362497337162494659e-02 6.135074049234390259e-02 1.264123804867267609e-02 1.662773266434669495e-02 -6.197425350546836853e-02 -2.794072031974792480e-02 6.716911494731903076e-02 1.477750670164823532e-02 -3.984332829713821411e-02 5.434122309088706970e-02 6.632328499108552933e-03 -5.288004130125045776e-02 -2.480103448033332825e-02 -3.750799968838691711e-02 -5.360320210456848145e-02 -1.693849480943754315e-04 -5.333201214671134949e-02 -4.755579866468906403e-03 -5.704801063984632492e-03 -6.647685170173645020e-02 5.983331240713596344e-03 -7.938392460346221924e-02 -6.858322024345397949e-02 6.773936003446578979e-02 -9.142305701971054077e-03 -4.284644126892089844e-02 -6.003503128886222839e-02
1.178524922579526901e-02 4.798020422458648682e-02 2.535156346857547760e-02 8.114288002252578735e-02 8.047843724489212036e-02 6.956091523170471191e-02 5.436275154352188110e-02 -7.671476900577545166e-02 1.277700625360012054e-02 -2.873499132692813873e-02 2.422503754496574402e-02 -7.467908412218093872e-02 -2.515673264861106873e-02 -1.065938174724578857e-02 7.059482485055923462e-02 1.723441667854785919e-02 4.396327584981918335e-02 6.656133383512496948e-02 -2.726767957210540771e-02 8.720860816538333893e-03 -4.057337343692779541e-02 1.522104162722826004e-02 2.329188026487827301e-02 2.078330330550670624e-02 1.770556904375553131e-02 -2.962454345833975822e-05 -6.429542321711778641e-03 -5.739650875329971313e-02 1.228079013526439667e-02 -9.714182815514504910e-04 -5.507933348417282104e-02 2.433917485177516937e-02
-7.900760322809219360e-02 7.266916334629058838e-03 6.038504093885421753e-02 -5.354777723550796509e-02 6.607767194509506226e-02 -7.186064869165420532e-02 -3.754328191280364990e-02 6.598643213510513306e-02 1.115188002586364746e-03 -8.004772663116455078e-02 2.548456192016601562e-02 -5.524047836661338806e-02 1.586281508207321167e-02 -6.803512573242187500e-03 2.742345631122589111e-02 -5.281683430075645447e-02 -6.486762315034866333e-02 3.834925591945648193e-03 6.444481760263442993e-02 4.248294979333877563e-02 2.353790402412414551e-02 -2.882956713438034058e-02 -3.674896433949470520e-02 -1.394633203744888306e-02 -6.674049794673919678e-02 -4.379937797784805298e-02 3.866959363222122192e-02 -3.960033878684043884e-02 3.657899796962738037e-03 1.164110749959945679e-02 3.697681427001953125e-02 -1.822320371866226196e-02
-3.818118199706077576e-02 -5.400480702519416809e-02 -5.011979117989540100e-02 4.118673503398895264e-03 -3.382332623004913330e-03 6.949678808450698853e-02 -6.394296884536743164e-03 4.325049370527267456e-02 -7.550399750471115112e-02 6.716675311326980591e-02 -2.590097114443778992e-02 4.294290393590927124e-02 2.203819900751113892e-02 -3.369623050093650818e-02 -6.451644003391265869e-03 -6.272666156291961670e-02 -9.131886065006256104e-03 -7.749401777982711792e-02 2.768448740243911743e-02 -3.179691731929779053e-03 -3.294069319963455200e-02 -1.904726028442382812e-03 -3.480702638626098633e-02 7.747379690408706665e-02 6.852275878190994263e-02 -5.784701555967330933e-02 -6.780412793159484863e-02 7.542248815298080444e-02 -1.587317883968353271e-02 -5.603285506367683411e-02 -2.832972630858421326e-02 2.531528472900390625e-03
4.398681595921516418e-02 -7.039528340101242065e-02 -4.953683167695999146e-02 -7.023029774427413940e-02 -8.339623361825942993e-02 -2.750798594206571579e-04 5.787131562829017639e-02 6.503336131572723389e-02 3.786078467965126038e-02 3.423558920621871948e-02 -1.475094724446535110e-02 -6.716854870319366455e-02 -5.230790376663208008e-02 -7.085002213716506958e-02 2.840418368577957153e-02 6.356297992169857025e-03 6.423731148242950439e-02 5.134185776114463806e-02 1.283656246960163116e-02 7.013184577226638794e-02 -3.916548565030097961e-02 2.405690774321556091e-02 8.163712918758392334e-02 4.957101866602897644e-02 -7.235443592071533203e-02 2.736918628215789795e-02 -5.675184354186058044e-02 -5.349921528249979019e-03 5.384343862533569336e-02 4.572454839944839478e-02 5.831831321120262146e-02 1.679542101919651031e-02
1.629282720386981964e-02 7.960313558578491211e-02 -1.830195635557174683e-02 -7.307524234056472778e-02 4.025014117360115051e-02 4.815603420138359070e-02 7.273396104574203491e-02 1.245540007948875427e-02 7.022943813353776932e-03 -6.833461672067642212e-02 -4.283564537763595581e-02 -5.591966956853866577e-02 6.434708088636398315e-02 5.070199072360992432e-02 6.910970807075500488e-02 -1.833464577794075012e-02 6.716224551200866699e-02 2.781147509813308716e-02 2.796618081629276276e-02 -5.520715191960334778e-02 5.549360811710357666e-02 1.310936920344829559e-02 -1.140759047120809555e-02 1.845972985029220581e-02 -1.355494465678930283e-02 1.004394609481096268e-02 9.381472133100032806e-03 3.687337040901184082e-02 -5.831544473767280579e-02 -2.082234062254428864e-02 1.857380010187625885e-02 -1.019038073718547821e-02
2.680865488946437836e-02 5.089399591088294983e-02 5.982373375445604324e-03 -3.120110556483268738e-02 2.954777330160140991e-02 1.915616169571876526e-02 -3.972362726926803589e-02 3.273094817996025085e-02 -1.042173802852630615e-02 7.480479776859283447e-02 -5.496938154101371765e-02 1.498974021524190903e-02 2.678577974438667297e-02 5.835286155343055725e-02 -6.322670727968215942e-02 -4.274787381291389465e-02 -1.733987219631671906e-02 1.126364432275295258e-02 -1.376236416399478912e-02 6.002589128911495209e-03 -3.030577488243579865e-02 -8.072309195995330811e-02 -4.127080738544464111e-02 -7.680297642946243286e-02 1.714155822992324829e-02 3.220675140619277954e-02 -6.097226403653621674e-03 -4.759653285145759583e-02 4.519443958997726440e-02 -4.765002056956291199e-02 -1.399652007967233658e-02 1.435169018805027008e-02
-4.435273632407188416e-02 1.677974499762058258e-02 9.372605942189693451e-03 1.525836531072854996e-02 -6.355237215757369995e-02 6.535140424966812134e-02 1.339681539684534073e-02 -7.407397776842117310e-02 -3.467529639601707458e-02 -3.068968420848250389e-03 -5.771799385547637939e-02 -7.760812342166900635e-02 7.898105680942535400e-02 2.850906166713684797e-04 -1.586283929646015167e-02 -8.195003494620323181e-03 -1.546833757311105728e-02 -3.535982966423034668e-02 5.175771564245223999e-02 -1.915388926863670349e-02 7.258047908544540405e-02 9.077882394194602966e-03 -4.859127104282379150e-02 5.323864519596099854e-02 6.264151632785797119e-02 -1.210972853004932404e-02 4.976344108581542969e-02 -6.010524556040763855e-02 6.475377827882766724e-02 4.877520725131034851e-02 -5.704516544938087463e-02 3.969707712531089783e-02
3.263168781995773315e-02 -1.405614241957664490e-02 4.553742706775665283e-02 5.233752727508544922e-02 -1.681818999350070953e-02 -4.147013276815414429e-02 -7.779173552989959717e-02 1.211958285421133041e-02 -2.591664344072341919e-02 -4.126936197280883789e-02 3.504606708884239197e-02 3.996859118342399597e-02 6.700661778450012207e-02 -5.666402354836463928e-02 2.168814465403556824e-02 6.240310147404670715e-03 -8.159574121236801147e-02 -7.477959245443344116e-02 -4.450885951519012451e-02 6.723593920469284058e-02 -1.555451005697250366e-02 3.890070319175720215e-02 -2.936104498803615570e-02 5.696669593453407288e-02 -6.332415342330932617e-02 -6.462585926055908203e-02 -4.849296063184738159e-02 -5.709625780582427979e-02 -8.490873128175735474e-02 -1.995193306356668472e-03 3.541496023535728455e-02 -8.613306097686290741e-03
6.669778376817703247e-02 5.252040922641754150e-02 7.618180662393569946e-02 7.469688355922698975e-02 -1.259785890579223633e-02 -2.285278402268886566e-02 -8.078390359878540039e-02 -6.542098522186279297e-02 3.907618299126625061e-02 -5.956018343567848206e-02 3.761044517159461975e-02 4.973718896508216858e-02 7.776868343353271484e-02 -4.735647141933441162e-02 -8.403412997722625732e-02 -7.207253575325012207e-02 5.811372539028525352e-04 3.927966579794883728e-02 -7.586953788995742798e-02 8.610915392637252808e-02 5.503322929143905640e-02 8.308903872966766357e-02 1.919655874371528625e-02 8.681887760758399963e-03 -1.497617270797491074e-02 6.774814426898956299e-02 -9.863419458270072937e-03 -8.450271189212799072e-02 2.014231309294700623e-02 -6.781866401433944702e-02 4.274868965148925781e-02 2.178414165973663330e-02
1.959955133497714996e-02 -2.538339421153068542e-02 -6.723637878894805908e-02 3.000786527991294861e-02 6.996624171733856201e-03 8.678836375474929810e-02 -1.231904258020222187e-03 -3.533638268709182739e-02 8.878087252378463745e-02 -5.818178504705429077e-02 -5.338465422391891479e-02 5.765981599688529968e-02 -2.517655119299888611e-02 -8.492676168680191040e-02 3.130546957254409790e-02 -5.512053519487380981e-02 -3.582267463207244873e-02 -5.930904671549797058e-02 6.361564993858337402e-02 5.532130971550941467e-02 1.410611718893051147e-02 -6.288185715675354004e-02 -3.262875601649284363e-02 1.191354170441627502e-01 6.259635090827941895e-02 -7.573825865983963013e-02 -1.349862385541200638e-02 6.582289934158325195e-02 -3.063886798918247223e-02 -7.511869817972183228e-02 5.671893432736396790e-02 3.795691579580307007e-02
4.550749808549880981e-02 -6.108376663178205490e-03 -8.420172333717346191e-02 -4.606184735894203186e-02 -1.267802435904741287e-02 -3.641926124691963196e-02 -8.333314210176467896e-02 -2.596163190901279449e-02 9.515943937003612518e-03 -1.083094030618667603e-01 -7.235313206911087036e-02 1.072525605559349060e-01 1.129546016454696655e-02 8.584155701100826263e-03 7.282581180334091187e-02 -8.381507545709609985e-02 2.828709222376346588e-02 -8.706110715866088867e-02 1.436743512749671936e-02 2.628401108086109161e-02 6.588990986347198486e-02 9.298851713538169861e-03 2.907665632665157318e-02 7.793162763118743896e-02 -2.956478856503963470e-02 5.236047133803367615e-02 -8.482160419225692749e-02 -5.205302685499191284e-02 -1.233749650418758392e-02 7.610100507736206055e-02 -3.241857048124074936e-03 3.497612476348876953e-02
1.830049604177474976e-02 6.138213351368904114e-02 7.576569914817810059e-02 -7.595352083444595337e-02 6.593632511794567108e-03 9.139683842658996582e-02 -1.492299791425466537e-02 -8.362259715795516968e-02 4.916952457278966904e-03 -9.151100367307662964e-02 8.706111460924148560e-02 1.267139315605163574e-01 6.600823253393173218e-02 -2.423758618533611298e-02 -2.747129835188388824e-02 -3.420981764793395996e-02 3.403497859835624695e-02 -8.954030275344848633e-02 -8.447618037462234497e-02 9.016688168048858643e-02 7.974589616060256958e-02 7.822965271770954132e-03 -4.922455921769142151e-02 1.407539546489715576e-01 6.295569986104965210e-02 7.411975413560867310e-02 -1.123463064432144165e-01 9.511778131127357483e-03 -4.766229540109634399e-02 -7.601004093885421753e-02 2.460482530295848846e-02 8.622342348098754883e-02
