2.160615175962448120e-01 -9.865288138389587402e-01 -6.662893295288085938e-01 9.337297081947326660e-02 -3.926886618137359619e-01 4.739302694797515869e-01 -4.284561872482299805e-01 2.703073620796203613e-01 2.266846597194671631e-01 -9.529954195022583008e-02
-4.318295419216156006e-01 8.198839426040649414e-01 6.703932881355285645e-01 1.025544762611389160e+00 8.550779521465301514e-02 1.403434872627258301e-01 -6.244683861732482910e-01 -3.776235878467559814e-02 -6.234173104166984558e-02 -2.884135246276855469e-01
1.655519455671310425e-01 8.423885703086853027e-02 7.082813978195190430e-01 -4.587445557117462158e-01 -2.722339034080505371e-01 8.125727176666259766e-01 7.193716708570718765e-03 -1.042007088661193848e+00 6.317034363746643066e-01 -1.214669942855834961e+00
8.997004032135009766e-01 -4.051741063594818115e-01 -1.515534818172454834e-01 -5.525360107421875000e-01 9.265787601470947266e-01 -4.450213313102722168e-01 5.397748947143554688e-01 1.930196732282638550e-01 -8.085623979568481445e-01 -4.094641804695129395e-01
7.874324917793273926e-01 -7.864935994148254395e-01 -3.092108964920043945e-01 8.682207465171813965e-01 -2.804130315780639648e-01 -1.038330793380737305e-01 5.515596866607666016e-01 -5.811971426010131836e-01 -3.475496470928192139e-01 2.373036891222000122e-01
-8.427796959877014160e-01 9.511344432830810547e-01 5.401485562324523926e-01 2.299042344093322754e-01 -6.550046801567077637e-01 3.898704946041107178e-01 6.738775968551635742e-01 -6.341018676757812500e-01 2.262473553419113159e-01 -1.080219864845275879e+00
-9.747319817543029785e-01 9.173547625541687012e-01 -4.126459062099456787e-01 7.205545902252197266e-01 -9.690191149711608887e-01 -4.334339126944541931e-02 -6.391136050224304199e-01 1.340631484985351562e+00 3.156965076923370361e-01 -6.699808239936828613e-01
-7.071051001548767090e-01 1.351771950721740723e-01 -1.221399784088134766e+00 -1.044114947319030762e+00 -2.747322618961334229e-01 1.341815590858459473e+00 -2.208545953035354614e-01 -1.079976260662078857e-01 9.663904309272766113e-01 5.739904642105102539e-01
-5.414209365844726562e-01 -9.790093898773193359e-01 6.491351723670959473e-01 -8.856529593467712402e-01 8.317753076553344727e-01 -4.918886125087738037e-01 7.677559852600097656e-01 9.091160893440246582e-01 -5.584695339202880859e-01 -4.522047638893127441e-01
-2.247096449136734009e-01 1.196430206298828125e+00 -4.772509932518005371e-01 -2.222603261470794678e-01 1.225217103958129883e+00 3.139730095863342285e-01 -1.536248922348022461e-01 -4.494195282459259033e-01 -1.750032752752304077e-01 -5.505184531211853027e-01
1.457548737525939941e-01 -1.419585943222045898e+00 -4.674927592277526855e-01 3.611151278018951416e-01 -3.178402781486511230e-02 5.830159783363342285e-01 2.107495516538619995e-01 -1.247118592262268066e+00 9.327828288078308105e-01 4.609830975532531738e-01
-5.531731247901916504e-01 3.444167077541351318e-01 1.200586915016174316e+00 1.043939948081970215e+00 3.393885493278503418e-02 8.324458599090576172e-01 -8.265205025672912598e-01 -7.988457679748535156e-01 1.419494580477476120e-02 -6.713629364967346191e-01
1.150215387344360352e+00 5.236589908599853516e-01 1.082211613655090332e+00 -9.204271435737609863e-01 -7.572641372680664062e-01 -3.353697713464498520e-03 1.221691846847534180e+00 -6.338763833045959473e-01 -8.168511390686035156e-01 -3.165746927261352539e-01
-1.192492127418518066e+00 8.245499134063720703e-01 1.957416683435440063e-01 -6.000288128852844238e-01 -2.538361847400665283e-01 -2.793226838111877441e-01 1.078096032142639160e+00 2.583051025867462158e-01 8.846646547317504883e-01 -4.896066486835479736e-01
-9.295257329940795898e-01 -4.823513701558113098e-02 4.905773401260375977e-01 -4.401749074459075928e-01 4.790082871913909912e-01 -2.819471061229705811e-01 -6.117984652519226074e-01 1.038547515869140625e+00 -5.663871765136718750e-01 1.023797750473022461e+00
6.189111992716789246e-02 5.624953508377075195e-01 -5.105345845222473145e-01 -3.988698422908782959e-01 3.101426959037780762e-01 7.274975180625915527e-01 1.184739947319030762e+00 -1.091510802507400513e-02 -3.777238428592681885e-01 4.949610531330108643e-01
-4.442257285118103027e-01 5.815288424491882324e-01 -9.795123338699340820e-01 5.630291104316711426e-01 5.113663077354431152e-01 -4.450982213020324707e-01 -1.045699357986450195e+00 9.572973847389221191e-01 4.614767730236053467e-01 4.065448045730590820e-01
8.677738904953002930e-01 3.532712161540985107e-01 -1.014433860778808594e+00 -1.100809335708618164e+00 2.099912846460938454e-03 5.499625205993652344e-01 -5.882183909416198730e-01 8.527904748916625977e-01 5.659525990486145020e-01 4.417040646076202393e-01
-1.165533423423767090e+00 7.336193919181823730e-01 1.207992210984230042e-01 -5.823892354965209961e-01 7.450732588768005371e-01 -9.452078938484191895e-01 9.685656428337097168e-01 -1.440150380134582520e+00 1.133818864822387695e+00 6.906223893165588379e-01
1.017382517457008362e-01 -5.725279450416564941e-01 8.566458225250244141e-01 -8.543162792921066284e-02 -3.314103484153747559e-01 -1.794284433126449585e-01 -1.356821894645690918e+00 7.113619893789291382e-02 6.129372119903564453e-01 8.539072275161743164e-01
-3.181305825710296631e-01 -3.162677288055419922e-01 3.616825044155120850e-01 -6.848530769348144531e-01 1.198764085769653320e+00 -3.063673675060272217e-01 9.189255237579345703e-01 -5.468146204948425293e-01 -9.235277771949768066e-01 5.699745416641235352e-01
1.112459897994995117e+00 7.887359261512756348e-01 1.000029444694519043e+00 4.615024924278259277e-01 -1.234987020492553711e+00 -1.170906901359558105e+00 -1.388843357563018799e-01 -1.153770834207534790e-01 -1.498252004384994507e-01 -8.088347911834716797e-01
9.980980157852172852e-01 1.708446815609931946e-02 -9.148707985877990723e-01 1.819860339164733887e-01 2.195905297994613647e-01 2.633235454559326172e-01 -1.300131063908338547e-02 7.017464637756347656e-01 -8.138647079467773438e-01 6.196578741073608398e-01
-8.427681326866149902e-01 1.072394326329231262e-01 8.266828656196594238e-01 1.187376976013183594e+00 -7.434763759374618530e-02 -1.286449670791625977e+00 4.245734512805938721e-01 2.562820613384246826e-01 -4.381371140480041504e-01 6.301009058952331543e-01
2.763660848140716553e-01 -8.241248726844787598e-01 -2.278845161199569702e-01 2.895544767379760742e-01 -5.164197087287902832e-01 1.307953596115112305e+00 5.105961561203002930e-01 -5.432420969009399414e-01 -3.247453570365905762e-01 -7.706738710403442383e-01
5.227676630020141602e-01 -1.845868229866027832e-01 -1.904286146163940430e-01 4.655753374099731445e-01 -1.100428700447082520e+00 -2.209460884332656860e-01 -2.356353104114532471e-01 -2.811239361763000488e-01 6.625587940216064453e-01 -2.331440001726150513e-01
-6.009693145751953125e-01 5.605688095092773438e-01 -1.096081376075744629e+00 5.838074684143066406e-01 1.353474378585815430e+00 -5.630115047097206116e-03 -7.137063890695571899e-02 6.022856011986732483e-02 -9.273517131805419922e-01 6.970622539520263672e-01
9.423803091049194336e-01 -1.108116865158081055e+00 6.763685345649719238e-01 -7.809683680534362793e-01 5.406143069267272949e-01 -5.213327407836914062e-01 -4.200447797775268555e-01 2.417491525411605835e-01 7.553946971893310547e-01 3.430901467800140381e-01
5.028000473976135254e-01 7.315900921821594238e-01 -3.464000523090362549e-01 6.920621395111083984e-01 -1.072663068771362305e+00 6.939833164215087891e-01 -9.167020320892333984e-01 2.878272235393524170e-01 -9.037181735038757324e-01 -8.277649432420730591e-02
-7.058141231536865234e-01 1.043988987803459167e-01 3.268462717533111572e-01 -4.385956227779388428e-01 -6.235987544059753418e-01 -5.508856177330017090e-01 -5.232566595077514648e-01 1.339438199996948242e+00 -9.508715867996215820e-01 1.397531747817993164e+00
4.490296840667724609e-01 -1.095211207866668701e-01 1.522594839334487915e-01 -2.019657492637634277e-01 7.698515653610229492e-01 2.010190039873123169e-01 7.344813346862792969e-01 1.140091538429260254e+00 -8.525728583335876465e-01 -9.475311636924743652e-01
1.009083762764930725e-01 -1.143090844154357910e+00 1.795941144227981567e-01 7.798900008201599121e-01 7.928773760795593262e-01 3.070792853832244873e-01 -5.599648356437683105e-01 4.406239464879035950e-02 2.096251845359802246e-01 4.163473248481750488e-01
